1.628827213472029634e+00
-4.988762791420888298e+00
-1.242326008396985870e-01
8.654690866593709231e+00
4.441069170470576033e+00
7.348116781338518422e+00
2.572025144984790845e+00
6.059699988177313479e+00
1.008640615967190790e+01
1.780476602577689960e+01
-1.659460421073017855e+01
3.797814453721971972e+01
8.657640505381060336e+00
-1.312274147984866701e+01
6.961743893821047635e+00
2.534787455868855943e+01
2.112353389295403261e+01
-3.314801349303333211e+01
-8.121658124004060397e+00
-1.643323397729995250e+01
1.502320563974590151e+01
5.737642376836394220e+00
9.619169921858249594e+00
1.433924469185643424e+00
2.720090815761963210e+00
1.448784302608899566e+01
-8.137780822406822878e+00
4.183488288716240788e+00
-6.317736376286068101e+00
-2.242907900817910249e+00
-2.685478635943850634e+01
8.087045164334558223e+00
2.758095772080432795e+01
-8.725451319247831350e+00
5.366849775037972137e+01
1.694473922247135533e+01
8.400524393469137863e+01
-3.126161116567116594e+00
-4.214118014127647172e+01
-3.486373991525210414e+01
-1.060303018505394412e+01
-2.844530408183465653e+01
-2.411434853887333318e+01
-3.025594214483533051e+00
-5.402495275149869158e+00
-1.219500123968780514e+01
1.083222738980684774e+01
-1.026903396454762962e+01
4.095284497081397745e+00
-5.230796999182535956e+01
4.434640277488611559e+00
-2.581583564010936271e+01
1.065704036052279591e-01
-5.710140296639258395e+01
-2.737974969982602857e+01
-1.501250715100346511e+01
-4.415579766253046046e-01
-2.549509401039520640e+01
-4.277295630150288730e+01
4.300387579712179331e-01
-1.676220673192507604e+01
2.030409361346497832e+01
5.322693887184108519e+00
2.654886167445561540e+01
-1.173089274634528678e+01
-1.753394010269987291e+01
2.666314055271384831e+01
-2.210218711404992575e+01
-4.424138456243611017e+01
-2.496700272791104780e+01
-1.652196701330069573e+00
-1.163236813929643887e+01
-2.051199901796105962e+01
-1.053326185223548528e+01
-6.385141347407883217e+01
-2.263125490225761993e+01
-1.772617682859191746e+01
5.363739658714663960e+00
2.568752571961320541e+01
-5.782010529047737180e+01
2.834770570531946632e+01
-1.378856122546356389e+01
-1.253426813213182101e+01
-3.746781216644496482e+00
-3.246469651441543647e+00
2.572970751538272793e+01
-3.119839019520934187e+01
1.791343096658320633e+01
4.639625782596971781e+00
8.823766159170162382e+00
4.867369628348185984e+00
6.052005938824436271e-01
1.387453692987483578e+01
4.074507832803762142e+01
2.142008625897123864e+01
1.139021949314701487e+01
3.344458602733186581e+01
9.610981914982659191e+00
1.268784106951528656e+01
2.868319918659179990e+01
1.472171183659034455e+01
3.499198205866605349e+01
5.687766295470908062e+00
-4.948534658709061773e+01
1.955216682681566454e-01
2.379455965662612016e+01
2.010053055098591912e+01
2.190021730827203328e+01
2.569210703039857435e+00
-2.649360913032751341e+01
3.030904239659776067e+00
-2.745376151003142695e+01
4.417672497759980388e+01
-9.241258810224962872e+00
-2.848138970574098039e+01
-8.946430417477131414e-01
4.902542500891371446e+01
2.452698347462876427e+01
-6.787765697935697062e+00
-1.570135680308339943e+01
1.700525070351361023e+01
-7.924630667496614933e-01
9.522443754520367065e+00
-4.565010407549470983e+01
4.202915940751950075e+01
5.522622943797102835e+01
1.099591668594450766e+01
-5.970985146773273300e-01
-3.136730643434771082e+01
2.160086601338610990e+01
1.518891872538210919e+01
1.598637768957053140e+01
3.554711028699102826e+00
1.243316851122131084e+00
-1.782611143142798937e+01
-2.518844052007125356e+00
7.223147306772602860e+00
-5.450352634375713023e+01
2.404413897319143700e+01
-6.008482327047251914e+01
2.984281759200916895e+01
-1.771604181838540626e+01
-2.173938322342883112e+01
3.786486023313392479e+01
-3.670887820047704508e+01
1.990591814508366042e+01
-1.129057900655271851e+01
-1.603125444399421440e+01
-5.268233501952795450e+01
2.059439685233110140e+01
4.562117810313111477e+00
-3.404910570753875731e+01
-4.245829100064611339e+01
2.148168255768041490e+00
-7.168898418317855459e+00
-1.102914257126442976e+01
3.017481163523370924e+00
1.846159826233747481e+01
1.525058205847176396e+01
-1.749173465579332287e+00
-1.656471101972749693e+01
3.523703342763951696e+00
-2.997102754156458104e+01
3.922135174252422729e+01
4.676309438272539865e+01
9.915045934524471249e+00
4.611803530521410721e+01
-2.799717194337074488e+01
1.193089697762923151e+01
-4.488878670653093650e+00
-4.769456995047221426e+00
-1.071105289791830728e+01
5.015219849985976452e+01
4.149542331895071356e+01
-1.305096707271951573e+01
-2.863545581080416014e+01
5.279070384736405686e+01
-4.970564574285162962e+01
-5.345514391792244169e+01
1.763004411765314217e+01
-2.976862261078940719e+01
-1.480717591384836851e+01
-1.157747066859883489e+00
-8.827176093850175675e+01
-2.665893375964924417e+01
7.364112337101198591e+01
4.616321230677840504e+01
2.329658485114669020e+01
6.308617078621318797e+01
-6.546120791994030697e+01
6.664581706424542062e+00
-4.713220603174886492e+01
-3.231735837951282519e+01
-4.844108189883627347e+00
1.146955744603092171e+02
-5.918451940805425693e+01
-3.437795263330008311e+01
5.329076306976730848e+01
8.557343309929638053e+01
1.158267901954532135e+02
4.731438798170711379e+01
7.905965326823934447e+01
-5.273354844275922915e+01
-9.197380765913112555e+01
3.698490500776460976e+01
-9.185882003869119217e+01
7.169491077086240693e+01
-7.114255230557046161e+01
-8.286928318024911277e+01
4.184023265579799045e+01
2.099082514642122987e+01
8.743489563374168938e+00
