4.095402303958942447e+00 7.932932768076684127e+00 -5.582378035455301202e+00 5.727221422689053876e-01 -6.720915898264636645e-01 -3.073147665118500238e-01 1.842478935488100489e-01 -1.303501437649583899e-02 -1.438595521785883923e-02 1.019973213039183507e-01 -1.133702779097974095e-01 4.207409984395889951e-03 1.048558335890700938e-01 6.994082827962255777e-02 3.699575118761771336e-02 2.347705622357419003e-02 8.288299989482791896e-02 -7.875032286740177301e-02 -1.577256629659562828e-02 -3.015008838585010731e-02 -2.255022236631516394e-02 1.069554807211925418e-02 5.505212380134206357e-02 -1.518284162701654186e-02 2.101963163350870425e-02 1.816480514120745460e-02 -6.241282085120134632e-02 1.730068689888480254e-02 -5.884946299326677954e-02 -5.223913398553971937e-02 -9.656756751349401813e-03 5.707419605478903160e-03 6.356881023060098612e-02 -3.581550736253830223e-03 -3.590854415581296033e-02 1.065707640267692970e-02 1.761263583540618669e-02 9.759491067736686398e-03 -1.023843467643296111e-02 -7.337959396103982531e-04 9.367147208932411016e-04 -8.346222802471785565e-03 3.371527309397659000e-03 -4.875859003685931517e-03 -9.905347398423299671e-03 -6.004881535960380351e-03 1.452831675478056216e-03 -6.458677886194454099e-04 4.159765959989164714e-03 9.216848938602236656e-04 1.092981239873840873e-03 2.737768426342069520e-03 2.565895201162657607e-03 -5.429341535517349937e-03 2.534465142940355259e-04 -2.118993290959274040e-03 2.336008783758015614e-03 -2.989796644083499502e-04 -2.981845837886326622e-03 -5.959681421188267950e-04 -3.484524711834457392e-04 1.292174188429387320e-04 8.833222280086651954e-04 2.009751871988728575e-05 -1.642932684359218977e-03 -1.307357259500598837e-03 2.643431013817770184e-03 1.038264837925211318e-03 4.303096671496313592e-04 1.524758141442314214e-04 -7.599822921850677825e-05 1.066622515723745753e-03 5.676983523171922914e-04 -1.280514145901954321e-03 -3.386742685939125364e-04 3.565975379081457613e-04 -4.358612515370594172e-04 -3.836589958460814788e-04 1.576071190892642854e-04 4.835978303549593772e-04 2.988012103070780820e-04 2.847302170644210907e-04 -7.348871216742339880e-04 2.865305792212853651e-04 -3.448048634380984048e-04 -5.862828523385925361e-04 6.387939745981833194e-04 -3.749948152925162460e-04 2.209241701802138890e-04 4.832318065137165245e-04 8.669956085217167020e-04 -9.186686633902874533e-05 9.537781545176354640e-05 -9.916121867252420516e-06 2.038599605832518038e-04 2.658122116207271629e-04 -9.332969025896330965e-05 -4.380700604453767705e-04 -1.428840960223405232e-05 5.146423463892394997e-04 -2.279622795548711517e-04 1.582938396871242726e-04 -3.312858134692563757e-04 2.020836197672699108e-05 4.915869495141978645e-04 2.653046015075722120e-05 2.183179496434955579e-04 -8.000617973353119203e-05 2.332922966744593608e-05 1.424113208452810640e-04 4.026252346619109846e-04 2.179112511722165919e-04 -8.973271910214442233e-05 -2.389024690182944618e-05 -1.332644203187031723e-04 7.697755918240880910e-07 -2.538329627015389347e-04 1.191136177047370201e-04 1.745722500445918111e-04 -2.388781415409275911e-05 -1.275118667625784786e-04 -5.781654533404518393e-05 2.238920160200712732e-05 8.032164994280026858e-05 1.923532942742437867e-04 -1.272646976251432340e-04 3.910733322036880890e-05 8.359682567022247738e-05 2.213126437848187875e-04 3.432842266805663685e-04 -9.451070994143443132e-05 -7.944145857392064468e-05 -7.159484578943631022e-05 -9.416389683809520182e-05 -4.131147256354283340e-05 7.148395091158752897e-05 -7.847227732020379176e-05 -8.020721127465698936e-05 3.712739245802882879e-05 7.506284451739918065e-06 3.580418358529162013e-05 2.381857700473061093e-04 -1.688829218371228511e-05 -6.348119395573814585e-05 -2.139248420455825599e-04 1.384248370058234847e-05 1.916057702111385939e-06 1.294174363830462292e-05 2.627259025482774711e-05 -6.320422706475027587e-05 7.446911180667164945e-05 -8.537975357496167871e-05 1.811716558099296811e-04 1.855314745606981210e-05 -1.002935466725811148e-04 6.121218878491231359e-05 1.195389491777435847e-04 -1.732487960801636551e-04 1.107843768310778454e-04 4.291989636218620390e-05 -3.828468232804354155e-05 -2.524960353580338391e-05 2.639010764263973556e-05 2.841899145486661535e-05 7.871684586862081657e-05 5.513205454662569169e-06 -9.839007129860338557e-05 2.601913271117045544e-05 -6.173006294587299466e-05 -2.278035399572787121e-05 3.005760530017738242e-05 -2.658772901017825171e-05 1.904078349040263957e-05 -9.276931176317892815e-06 1.517103309735414637e-05 -7.696439437571353718e-06 8.843982520776202843e-06 -2.139320826599102793e-05 -6.376407706355736657e-05 4.885909175741703579e-06 2.359122227348081844e-05 -2.001705185311970005e-05 -3.164153894713215930e-05 6.631701811401952997e-05 1.586337064931078249e-06 2.668317074862711265e-05 -9.205345126090038954e-06 6.088033702743439604e-06 -1.183089443733317589e-05 -2.044014927478614990e-05 -5.954718688902050231e-06 9.850360602166864408e-06 2.071837541076524607e-05 -1.510687055679786233e-05 -2.337270153565952613e-05 9.849565381873835816e-06 1.344272787193849561e-05 -5.301990804881556644e-06 -1.386552219117470582e-05 -1.315792450382714069e-05 1.226854222074385818e-05 1.642846950715435815e-06 1.846752975856580579e-07 -2.322565729008126530e-06 2.840770420490173130e-06 1.965013042839298683e-05 -8.851241759872914490e-06 3.839977325573428060e-06 1.149999794560967109e-05 -4.986146509532136213e-06 -2.578294521515430430e-06 2.008073277866465402e-06
-7.961825773506009618e+00 4.079823398182440108e+00 2.569925308553794308e-01 -1.740740529935018432e-01 -1.012611243629507607e+00 5.543287975173766258e-01 1.149242901159438363e-01 2.745533739678066021e-01 -1.489730715520075355e-01 2.734750086783708789e-01 2.876231493494676300e-02 1.045917722328490868e-01 -1.020666936676798559e-01 1.425924493923850372e-02 -6.064567150041066945e-02 6.314304777815686609e-03 -1.709324602664192075e-02 3.066398664262913465e-02 -1.567693531220492806e-02 -4.823509680873286354e-02 8.001706674294055410e-02 4.085348470133359777e-02 -6.834702678046207514e-03 1.532415613601543006e-02 -1.977251282742372232e-03 2.391498359808588714e-02 9.824687003601281082e-03 -1.351712065289570851e-02 4.735763627669759522e-03 1.000458943357771836e-02 -1.444227389858494413e-03 -3.216799666865090973e-02 7.886315928609289802e-03 1.008187210126219695e-02 1.565899547534098032e-02 4.732841410791991353e-03 1.824608102862382633e-02 -7.265091350212398574e-03 8.075906641020714691e-03 7.424196765701198721e-03 1.285901837385787505e-02 -8.436211750810035338e-04 -4.635938870037657408e-03 -6.812129055734784076e-03 -4.785668206326298794e-03 4.334137547037972922e-04 -1.048513436298192095e-04 2.442450378210987358e-03 -3.879817553806990966e-03 -3.381291636044134706e-03 -6.378551122251526276e-03 -1.533479214736047222e-03 -2.451815875081120397e-03 2.208129234121564231e-03 3.990170113547562326e-03 3.458965829551540350e-04 -4.903205119769737637e-04 2.478767806219759999e-03 4.443431403467055954e-04 1.103008820974622859e-03 1.578160136275832308e-03 -1.292907540750670627e-03 -8.268144059272057372e-04 7.641158764896841069e-05 -6.748948183994523667e-04 1.803824170254996178e-04 9.601402249468840968e-04 8.602114736779002289e-04 -4.798496211095314482e-04 -2.712160409015094606e-04 -7.511325659858085176e-04 3.328183605066741251e-04 6.769888108734330731e-04 8.143939986374665102e-04 -7.856368888794783073e-04 1.882010157405501326e-03 -5.571624432825951495e-05 -1.408273107450905628e-03 2.817329899344747581e-04 -8.787217987971486033e-04 4.623089940588879176e-04 1.161315672813236307e-04 2.012304945787245623e-05 -4.067091450690831010e-04 2.220778865538379596e-04 2.313572898547276366e-05 1.018706170759706804e-03 -9.930399353592271692e-04 5.542756266913181039e-04 2.981720014382614877e-04 2.737234344012489892e-04 4.283767166956222350e-04 -3.681216156542544728e-04 -2.280571501892276540e-05 1.005349189790911936e-03 -7.178502370148975289e-04 -3.001227783362517840e-04 2.713828952228210492e-05 -3.296610851095525168e-04 -2.445935159981738570e-04 1.454381064867375176e-04 -1.099970857941447757e-04 1.140111759304840921e-04 -3.040140861644875119e-05 8.874656996400713700e-05 1.001662084960641664e-04 -3.639952135739022029e-04 -7.679223184595629576e-04 -5.272391650115810981e-04 -2.018319999596966154e-04 8.352666579884766200e-04 4.328475625127958760e-04 -2.767697407415837456e-04 7.619151205988961570e-04 2.469542413815454694e-04 -3.611965858961356328e-04 1.092151485411693858e-04 -3.854990793403369567e-04 -4.685208746906328105e-05 -2.694362104945106226e-05 -2.063484729930593172e-07 -1.916735341361464247e-04 6.346119902834840255e-05 -1.051497221754140663e-04 3.544751768154349981e-04 7.774390991477935127e-05 6.706616073527983386e-05 1.016100507796848169e-04 1.968337274346250866e-04 1.434469065737075787e-04 2.210109703254511189e-04 -4.023276496734370217e-04 -9.196628931193444225e-05 3.913629604593835322e-05 9.111211600640225627e-05 6.140788595943393914e-05 4.749931294833314841e-05 2.811645518140839695e-05 -6.006750718593365196e-06 -1.862088410042599563e-04 4.635873338788373295e-05 -6.530032812117998135e-05 5.740311966787611206e-05 1.354434736186425252e-04 2.007522290756662847e-05 -1.059891123999213926e-04 2.700787330165497872e-04 -3.067037727702312901e-05 -9.647565973119688602e-07 1.085951867296960227e-04 -3.033894233514368586e-08 5.437974858982139962e-05 1.752811996646422461e-05 -2.828647739850396819e-05 1.148252746583228179e-04 7.235196233392893336e-05 2.246869413703748029e-05 2.269581701946266257e-05 -1.551095661679834420e-05 3.372074216276860276e-06 -3.839247001727569779e-05 7.491109546889003783e-05 -1.057494588833940452e-04 -2.833171482836052617e-05 -7.108250737776128695e-05 3.814518135120717334e-07 -4.912941167504547655e-05 6.855706407127985823e-05 -2.758931958579706866e-05 -9.477801565368088946e-06 -2.591636457780327046e-05 1.269163697311301445e-05 -8.273418613180819265e-05 -7.374023596750972805e-05 4.966400039426119655e-06 -9.025704654707416489e-05 -1.703321676958268241e-05 1.397287408349510578e-05 6.159604451938283402e-05 -9.656077298162012195e-06 -3.030597526826464411e-05 -3.946530493652094206e-05 -2.186901724726074867e-05 -1.448923203680450244e-05 2.195745371042767059e-05 2.284304916820009473e-05 3.056257407818094448e-05 -4.203992433980238068e-05 1.789134200488595456e-05 -4.017571469264973451e-05 -1.523394931087393164e-05 5.183912807100181142e-05 3.953859528684796595e-06 -3.160490088470354453e-05 2.151374555417434164e-05 3.854722537829412070e-05 -5.222948271850044872e-06 -1.153914151082775215e-05 -3.835684980962064798e-06 -1.678777206060811660e-05 2.931876106819137799e-06 -1.812530708837105634e-07 -6.105648866845579073e-06 -1.751310622265072120e-05 1.261167968314906423e-05 -2.439205033661557531e-06 6.516815204176173223e-06 2.665342035351965734e-06 -7.490807612012430638e-06 -1.077783784203318613e-05 -3.691914675523704531e-06 -5.114122497053488922e-06
4.095235051820530714e+00 7.933087337625790880e+00 -5.515625777277232800e+00 6.280600328096971330e-01 -6.443264736098722745e-01 -2.866615231246154027e-01 1.815032705778746036e-01 -2.446708820491559286e-02 -1.430753421525872253e-02 1.144778021153166486e-01 -1.043298972411784570e-01 2.110608720524612819e-02 1.092105470624223640e-01 5.416489655571345846e-02 1.676397438425739073e-02 3.300059873243740144e-02 5.932704368788176835e-02 -6.551452873938280741e-02 -3.155112637307735945e-02 -4.143503479815585644e-02 -8.126545404223714172e-03 9.432136005519101488e-03 3.848989596854753004e-02 -3.638831372568067032e-03 2.262151415324645254e-02 1.639870062427573397e-02 -5.597543982200382101e-02 7.969205825562538509e-03 -4.436881728710403289e-02 -2.069195577424620680e-02 -6.325690102745614232e-03 2.023702681035723094e-02 4.500915904254954719e-02 3.025523869582156933e-05 -8.205497953728822444e-03 -1.402033728862586400e-03 8.575074991282632605e-03 8.346665868399936669e-04 1.782828132772605438e-04 -2.668123027434858748e-03 6.184139859294372158e-04 -6.573746170780366514e-03 2.815362557689956788e-03 -3.190540377860314174e-03 -3.822181418618669259e-03 -1.415551847991486627e-03 -4.275977969502593908e-03 4.777167346668170783e-05 9.992161401727727311e-04 3.598454026493709659e-05 -1.774931137592834903e-03 1.684386373582792478e-04 -2.183980695273440679e-03 4.894508239043332244e-05 9.157366741475872571e-04 -2.031442679290263852e-03 -1.620844507816297233e-03 3.182422662063243927e-04 7.292230435067662041e-04 1.314819452446889039e-03 1.145715095273981904e-03 -1.362834428609370051e-03 -4.569942704847385117e-04 7.706688292967629490e-04 9.222365791783802206e-05 5.095942509228664017e-04 -2.470566981432136943e-03 5.789862204081275970e-04 8.553850240761880479e-04 1.069089655954096876e-03 -8.118395523314893194e-04 5.197436941168829226e-04 -1.326519204409804366e-03 5.976208083206346975e-04 7.271458856443026916e-04 -5.386303529326701882e-04 8.094632075871085932e-04 -6.335296619455289607e-04 -2.211328803252542586e-04 -3.257942717705731325e-04 -1.668408623628114991e-04 -8.737673407645189360e-04 1.041096109510164237e-04 1.264058842737068096e-04 -6.603406912167527362e-05 -3.238664677760235019e-04 -6.338724251938699728e-04 4.776124090202523808e-04 5.032206869939316552e-04 -4.201963959118793033e-04 -5.868702725634965906e-04 1.070267053942169298e-04 -1.847158891581800904e-04 3.528068186093345033e-04 3.488842765470017045e-04 -1.622930732152034171e-04 1.427092556273914657e-04 4.735475038361344866e-04 7.670633001111746381e-04 -1.124228837225597780e-03 5.701224794945446020e-04 -4.159606684035884946e-05 3.293096226147619533e-04 -2.965642097736545939e-08 -3.645602849348658419e-04 1.587266732948755391e-04 -2.727012919896773676e-04 6.648691593854847706e-05 7.134695599228841494e-05 -2.613475915451619110e-04 -2.490170688875819227e-04 2.153652929389812071e-05 7.407116220069497612e-05 -7.277500345375477247e-05 -1.249190927698412622e-04 -4.906880565027609139e-05 4.874616195634221460e-05 5.380974898122328689e-05 -4.549541845719150246e-05 1.411414790033951178e-05 1.705670619146575323e-04 2.090553525136046003e-05 1.506587426888398099e-04 -4.234244677759611310e-04 -2.791356082300101024e-04 2.271742848893521167e-04 -8.947314523323553174e-06 -1.796320423314685889e-04 -3.693116718607490439e-04 -1.806093524287597646e-04 6.319788014605573977e-05 2.067980253605455670e-04 1.053545308266860955e-04 2.170347212912131815e-04 -2.007007029865447690e-05 -6.395019182617699720e-06 6.375141339610629408e-05 2.348357644055840208e-04 1.754582071795352189e-04 1.533718428963625358e-04 2.898497475145029022e-05 -2.174653486862406805e-04 1.314660746702155992e-04 5.857155354189239581e-05 2.553851028597345189e-04 1.541157042829676088e-04 1.703648872299711836e-04 5.472858079550370645e-05 -1.310529386573034056e-04 1.658197181738474239e-04 8.219499797799815263e-05 2.422666950330205584e-05 -1.573555877142386854e-04 1.122425971431119764e-04 1.500780869449228549e-04 -1.579913738157872767e-05 -6.616119298143289574e-05 2.634467485890401193e-04 -1.535107571289080839e-04 1.955141553169667044e-05 -3.866602274755864371e-05 9.149911581502208195e-06 1.587578473744962935e-04 5.617661236252353147e-06 -9.918012095428613338e-05 7.994808170326126362e-05 1.687034916750893964e-04 4.050440072361977047e-05 9.081730183782749967e-05 1.033820615321447398e-05 -5.806560333911759244e-05 5.283469746964178419e-05 -8.772793633961622974e-05 2.573838171057993282e-05 -9.017743445912136256e-05 -5.953797244528334496e-05 -2.409520563525214173e-05 4.469750598937984666e-05 5.097618695252066525e-05 6.749093716842026610e-05 -1.236429870135281525e-05 -2.351694442897737852e-05 -2.952054764248783118e-05 -9.146143887880321048e-05 -4.441181135694085693e-06 -1.825493902210775679e-05 3.634131608095833940e-05 -3.677724978753176758e-05 -7.783707738577361819e-06 -7.733863247281935719e-06 1.902654403885476863e-05 -3.208086537555463299e-05 -5.126698401622345090e-05 2.247224727782304248e-05 5.251828776515714276e-05 -1.313770974333306426e-05 -1.518071245272230146e-05 2.837936016468836043e-05 3.681174560795597516e-05 1.418481680094033879e-05 -5.062088568302296134e-06 -1.924591637121346503e-05 4.410724322872850406e-07 -8.686964949466447299e-06 -1.616186808951103422e-07 -1.755868412348699675e-05 -1.868997559706758739e-06 -1.060923110762657089e-05 -1.958377098451636082e-05 8.488047967749288652e-06 2.432557209882797225e-07 1.327414826898191602e-06
-7.961839560956988748e+00 4.080450013109341967e+00 5.581099454440006102e-01 -1.763848128806695947e-01 -9.798587337223327864e-01 5.249579872722883733e-01 8.728072655652691081e-02 2.585956531997711250e-01 -1.403653068411555016e-01 2.198736356512681067e-01 2.345902468593951198e-02 9.164609668377342311e-02 -9.112983796384704904e-02 1.523290277968252990e-02 -6.227225606595553770e-02 9.101510155163992921e-03 -2.258328421263771160e-02 2.951887954420311794e-02 -1.385900346267364587e-02 -3.655970599833881923e-02 7.558540229643495589e-02 3.603498219408722558e-02 1.212107305747356931e-03 1.360476059949635233e-02 -6.248225834978212052e-03 2.029273868930521474e-02 8.038862124082639046e-03 -1.082556632122504137e-02 2.761554975893241049e-03 3.097549367224116789e-03 1.935855488637053994e-03 -2.680979559650494004e-02 5.790149849057603382e-03 9.373753530380621660e-03 9.579496514324848180e-03 2.508942628346890261e-03 1.636098876366346225e-02 -3.524750165822238424e-03 5.650985617440712136e-03 6.434391814034746970e-03 8.264813026703125148e-03 5.680078589151101899e-04 -4.087339094024305432e-03 -4.213324524615254946e-03 -3.022332291715011058e-03 4.894303394796957734e-04 2.449780465016598071e-03 2.530024774332447629e-03 -3.598119585847037432e-03 -3.574325504994705499e-03 -3.740504019748233395e-03 -1.081106707813841040e-03 -2.133498187339703811e-03 1.666045326477396445e-03 1.958534718090944836e-03 -1.875875213896036238e-03 -1.954518196212175554e-03 1.439695924621438609e-03 3.442743153807590424e-04 1.564200376370294921e-03 1.338706063863406154e-03 -2.143189451775530819e-03 -3.869112058402705378e-04 1.589743646112587601e-04 -4.875671399093579731e-04 1.168379987271313085e-03 1.177489651080486279e-03 -7.385064306523008142e-04 1.214149690070247560e-03 -1.126673416091320164e-03 9.277919357261485509e-04 1.145605742758071472e-03 3.741785359710435017e-04 4.435354934953296174e-04 -8.586289296732426378e-04 -3.535964466869136614e-05 6.148251644189959382e-04 7.920325232215717770e-04 -1.183251336382396294e-03 1.317964082036061349e-03 -6.624615513188801281e-04 5.454136823740537640e-04 -1.867756822424258617e-03 8.178330162628928484e-04 -7.239855349475071776e-05 -1.675196094706088619e-04 -2.201361273815587594e-05 2.049435963500400142e-05 -1.740906339521112740e-04 -5.751467958486003581e-04 3.177617600707065238e-04 -7.017632209741988961e-04 -4.343930008795523985e-05 2.773571646056881778e-04 -2.604883135676277725e-04 1.090156382376346192e-03 -3.415962838637131346e-04 -9.399511644421871214e-05 -2.797608631373169280e-04 -4.065384529463460825e-04 -2.410090134804453393e-04 8.298227890116477087e-04 -2.268763345510077067e-04 -9.201610967455610673e-05 1.209200962382386385e-04 -1.298584714662822227e-04 -1.326682278765788645e-04 2.826467306605038926e-04 2.913475921326026761e-04 1.496491379503697281e-05 -6.497103549507993962e-04 -2.558522197888885756e-04 2.630212871740429900e-05 -2.149963460530476331e-05 -1.004192406338467401e-04 5.129404846870301267e-04 -2.941766085724070918e-04 2.776321582684892846e-04 -1.593128535229144504e-04 4.323593014093146875e-05 -3.644982825942921838e-05 1.157487263826928768e-04 7.770573729675499621e-05 3.353594974201574850e-05 -2.752022045617146255e-04 -2.814913004446227725e-04 3.922879322376225940e-05 2.072952139517469981e-04 -3.188431199937819834e-05 1.750179646680514621e-04 -4.177546481361317586e-05 3.455580094509345425e-04 7.261358269062198069e-05 1.436077065097226559e-04 -2.292031791544108779e-04 -2.222042147527897586e-04 -3.843378774741621005e-05 -1.317256867773730796e-04 2.427380186570272773e-04 7.617612651268317980e-05 9.522569230173145560e-05 -7.522008221995320513e-05 -1.506680621991209366e-05 -4.024313544595824231e-05 -5.752338533795089715e-05 1.823779352040872455e-04 -2.099124336886393953e-04 -1.732954125871127089e-04 -2.563906843310724711e-05 4.005543539471863936e-05 -3.251210271427077385e-05 -7.635054043501775768e-06 -6.106794288249194882e-05 2.734704436654070207e-05 2.497029535284932809e-05 -1.082060536488359438e-04 -4.336202531434486796e-05 4.800013195995690937e-06 3.533147896235598015e-05 -5.682859501055195664e-05 -2.121806392651275053e-04 -5.421166527825971402e-05 1.717669500387769316e-04 1.260742069944897719e-04 1.766879420798220007e-04 -8.062282893711272591e-06 -6.479737435369754633e-05 -3.669108560513205782e-05 1.696870849581046585e-07 -6.528043828000267500e-05 3.206336226792682594e-05 5.173598446485671985e-05 1.239717742888103507e-04 1.107684465573413916e-04 1.295607810677102987e-05 1.445177157663627980e-05 -3.248957268336276799e-05 -8.705910010858821573e-06 -4.445312241473729714e-06 1.528926519877510254e-05 -1.128402097527402473e-06 8.859939624580469211e-05 8.452298176622352908e-06 8.772968471973823814e-05 -5.393984277762443468e-05 -3.337145016976716169e-05 -2.722446442983760760e-05 5.219873942107993814e-05 -1.333695829632882653e-05 1.078650467688910042e-05 -2.002080733321973818e-05 -5.756790921591626681e-05 -4.157466780228745261e-05 3.932191105172390309e-06 -1.867116799780844881e-05 -1.990892869724005115e-05 -3.779127292965037447e-05 1.771891135913524501e-05 -8.189618306171779583e-06 4.446829698401686868e-05 3.129596993095047754e-06 1.811932433719555955e-05 3.478689457296882102e-06 -2.660290989367141344e-06 -6.229550958227644143e-06 -1.138829751351474156e-05 -5.290743705517940795e-06 4.835906517994940538e-07 7.751498047244195823e-06 1.197686092931766074e-05 1.583980196900305122e-06 -5.105990619079234710e-06
4.095014152010896247e+00 7.933371140443623126e+00 -5.383411911055120846e+00 6.576052718565658095e-01 -6.181452608395808790e-01 -2.721614832471655476e-01 1.687063643997323004e-01 -5.885585853690502439e-02 -2.831176157103423505e-02 1.230156084944477035e-01 -9.041563081909974320e-02 3.308953769379083948e-02 1.286271547772242785e-01 5.690919861839302540e-02 1.336623285914580531e-03 6.149561129019674027e-02 5.482959072753008228e-02 -5.800395310538840332e-02 -4.402027529411515344e-02 -4.104641712127140435e-02 3.684495979065361641e-03 5.333315892172638649e-03 2.936952548048292824e-02 4.630391157535987054e-03 2.200243899009144896e-02 1.367205897488655252e-02 -4.411146538486714758e-02 -2.081007131217330140e-03 -2.506485575367992102e-02 -5.204368740873572792e-04 -2.399201147812437206e-04 2.331456153547789567e-02 2.213123302304260617e-02 3.415959077828509358e-04 1.025138090580921674e-02 -1.027106037622531505e-02 2.576536984426854200e-03 -6.836780289987744522e-03 6.632574448084635824e-03 -2.950740969387960402e-03 -9.846045904113279895e-05 -2.305107146585052939e-03 2.355300751109122223e-03 1.990582019028340553e-04 4.389467229714744709e-04 -3.520274932030258196e-04 -5.246933837190521401e-03 -9.905411248169754962e-04 -1.856236153090453983e-03 -1.707318620841197666e-03 -2.830850885301264578e-04 -3.631764571074694097e-05 -2.875255060529803564e-03 3.332026618446892307e-03 5.328503403502107653e-04 -1.238324317320134210e-03 -1.871502745223032737e-03 7.526090095719739985e-06 2.286105565181171476e-04 5.839720549555737545e-05 1.582731205999445348e-03 -9.213057465542301948e-04 -2.261161120634552942e-03 -1.144356527536515358e-03 1.468531717363284576e-03 7.185813757057975650e-04 -1.575686303693642253e-03 -1.759615476194928071e-03 -9.178669662323352282e-05 3.226890377742410105e-04 8.695685686322412620e-04 -7.480396804632323494e-04 1.176474807618524193e-03 6.987994395587018848e-04 -3.036895449705549017e-04 1.132667409692453176e-05 -6.012880099284387747e-04 1.531622427939439006e-05 -2.840404467122637487e-04 -1.763769615041008458e-04 2.410262382421729033e-04 1.018472373228190841e-03 5.924967337949774452e-04 8.202254674518978021e-05 3.903855794549391470e-04 5.813693353438536887e-04 -8.345208571597167394e-04 -6.523182340083796338e-05 -2.394829361559171177e-04 -2.588671095709528698e-04 -6.053000434124352356e-04 -1.367168626726709794e-04 5.305618514469963819e-04 3.129082316067001608e-04 -1.825365850037739812e-04 -1.780815967147144697e-04 -1.276391599873307316e-04 3.175552799830293465e-04 -5.447237467414481858e-04 3.404203182570850433e-04 1.524596855500034011e-04 1.378488096454335004e-04 3.616308033418026311e-04 -2.619877359938698911e-04 -1.228121867439494895e-04 -1.615482761086587695e-04 -1.854029041349781874e-04 -3.374310047528116311e-05 -5.090276375894661856e-05 -1.393736435158821107e-04 9.767654835277387462e-06 -6.566161420007716586e-04 2.767834372901531535e-04 -3.084394865011820378e-04 2.459514837368983065e-04 3.898591200535849615e-04 6.046687554943103865e-04 -1.212250593099123202e-04 -1.854551407098243318e-04 -9.610858580363870632e-05 -8.259890341516260893e-05 1.817460779047388032e-05 -1.304819215277357657e-04 2.664035730643315200e-04 -2.486517253909979351e-04 1.210395166561730081e-04 -1.607337634579172273e-04 8.078029546804336536e-05 -1.888720232712618472e-04 -1.809733177109765765e-04 9.799676571228005547e-05 -2.820791986174298700e-04 -1.046952622478790790e-04 -3.794950160423262516e-04 1.810817505232099152e-04 -1.162698578316161737e-04 3.882106073486739150e-05 -7.767235845495691735e-05 -1.252034975645753708e-04 -2.491462055142345936e-04 -8.660291486029076335e-05 1.292736634764441176e-05 -7.818725608645163405e-05 6.571841017589132277e-05 -2.505793467479796818e-04 -2.952755386506189625e-04 -9.315445307816326733e-05 -8.488616749608125453e-05 1.575514668242674980e-04 -5.654050450270443472e-05 -2.252094253319010791e-04 1.168698019837534498e-04 -1.500086145102068845e-04 -1.921715053375115689e-04 4.673365509027011185e-06 4.834509411197868660e-05 -9.573907403416151820e-05 -1.439859483735289711e-04 1.259656877610878110e-05 -1.365517818681967607e-04 6.238599499517279482e-05 8.959251118682361626e-05 -2.267029720177082515e-04 4.362704208444221116e-06 8.868362174150695677e-05 -7.220215436288470888e-05 -5.175474177958677637e-05 -1.481654337798063339e-04 3.617314683035493644e-05 -1.146319247751948921e-04 -7.493202162830766213e-06 -3.413323715308045118e-05 4.473266867400342708e-05 -8.641723802212869564e-05 1.678588714116844335e-04 2.883654469462306778e-05 -4.730758303025672433e-06 -4.476479669471806420e-05 1.535191879588613709e-05 -6.730935824140694610e-05 -3.498307859292589591e-06 4.459521852761693002e-05 1.395705934491700887e-04 2.086077398987904127e-05 6.871733654731766266e-06 -5.783361668384936501e-05 1.513776792315558718e-05 -1.953175486914613055e-05 4.661849644975803885e-05 4.471853104932970162e-05 -3.234207557675950758e-05 -1.746882416745491052e-05 7.294999106019055245e-06 -3.227090858016669084e-05 -4.295048631230996848e-05 -2.987050003384839004e-06 -3.376974688760696257e-06 -5.428913348565714704e-05 -2.769592139530311500e-05 -5.601798649434527859e-06 -7.968332816358748987e-06 7.405188811726205411e-06 1.090374112164917821e-06 1.451926946852655956e-05 -6.178343856377404687e-07 -1.665984111923864890e-05 1.955875009605630065e-05 -4.512356112939283543e-06 -1.049593946690164410e-05 -4.414068762542885215e-06 -4.684579795937013768e-06 6.173263361110025358e-07
-7.961853638700372215e+00 4.081030583012858592e+00 8.545274176089702189e-01 -1.711616967574847714e-01 -9.511320889409392576e-01 4.979435764608275972e-01 6.470719202105498780e-02 2.358470781527969573e-01 -1.298788309837705657e-01 1.661709738061108999e-01 1.684771567473791753e-02 7.839465809809487151e-02 -8.406311683586206729e-02 1.547828906782285942e-02 -6.573743146978060226e-02 8.396135930791680593e-03 -2.876795090306089042e-02 3.267975715883354032e-02 -1.614413216967513706e-02 -3.071092249127576820e-02 6.640703266489686452e-02 2.736564726875135092e-02 8.489618355368678052e-03 1.331446914684134009e-02 -6.941312493082456639e-03 1.942785167927150308e-02 6.468726733030920849e-03 -7.862446998041752039e-03 -8.889810948342904365e-04 -1.467659012766057806e-03 1.971108202947360801e-03 -2.034477588260346498e-02 4.986100132579941203e-03 8.674020633499861244e-03 2.800706728422738823e-03 3.141966551715738576e-03 1.116176755543875007e-02 -1.844451661427050490e-03 1.520000582137728297e-03 3.718086221769956352e-03 8.161094756873097864e-03 1.802551458534248658e-03 -1.968578129097038089e-03 -3.718275312150212415e-03 -4.900372820749750559e-04 2.656503679712944946e-03 2.415967259465186083e-03 1.646662653169172737e-03 -1.789949146872627439e-03 -1.279767552108284235e-03 -1.145898935901375291e-03 5.649697084359623636e-04 -3.134224450533426229e-03 -6.241782871325045941e-04 1.782361118945384947e-04 -1.674917792587817152e-03 -1.751075494413106479e-04 -5.939590493835282146e-04 -3.106062251766119383e-03 1.883943717186774064e-03 3.015484006299928919e-04 -5.384589686049821508e-04 6.198439133565431967e-04 -1.954791999442679598e-04 1.894833123686948497e-04 5.311082276940222175e-06 -8.370243190152411045e-04 6.781296106442692793e-04 1.800459589041757504e-04 1.102953615392947154e-03 8.922290739198475906e-04 -3.908469459800402099e-04 -8.467862861994325410e-05 5.404385350807502887e-04 -2.908866396563164871e-04 -4.913560053434595917e-04 -2.805547219968856421e-04 4.419017121287680872e-04 8.791742528250385018e-04 8.388297995484086294e-04 8.992157072523716604e-04 -6.722058403264832491e-04 5.407444978299228051e-04 -9.189348753311677863e-05 -1.043088821952916495e-03 -1.790693110149854834e-04 -9.733875276704608568e-04 1.115928373446519774e-03 3.275315122194629765e-05 4.039144983376192263e-04 -6.948977090989876286e-04 -4.790481058933708795e-04 3.184796023887322505e-04 -1.489517614183970870e-04 -3.654334258842737251e-04 -3.075713399362526765e-04 1.141325707922634033e-03 2.520781513461714161e-04 6.228061954115111367e-04 6.172681404645322849e-04 4.472477263726032425e-04 -1.714258098471258896e-04 -2.403120121497870416e-05 -2.765219183979175611e-04 -4.595698202331201980e-04 1.754448466666331478e-04 -5.130045999249107844e-05 5.642937316096403416e-05 7.081605253730632735e-05 2.156927281887560330e-04 -3.356390385019433222e-04 3.893081361403793452e-04 6.149875378167052320e-04 -8.356443166550652033e-04 2.458436246347289614e-04 -7.045779913528606826e-05 -4.249648615134201247e-04 4.629218408466116122e-04 3.210706428704020003e-04 1.086943588610747401e-04 -2.196389992872674899e-04 1.784904644613146579e-04 -2.442430705085871408e-04 -2.473972439042330224e-04 3.776764666899984618e-04 -1.491226594695401332e-04 -1.498660489620445878e-04 -2.326358289745232468e-04 -1.509235614629397175e-04 -9.278527517407561033e-05 -4.767753347245400519e-04 -1.012686764977965766e-04 -2.089724183791822688e-04 -1.074148661944393344e-04 2.596919915537166746e-04 1.902950777026018601e-04 -1.020129916875497174e-04 6.889359044378863496e-05 3.726420119779570928e-05 -5.400479050264348722e-05 -9.131990955046539180e-05 -7.960225005939995917e-05 5.651013104903929542e-05 1.022100719120769289e-05 5.933908830525074819e-05 -2.393576404812482433e-04 -1.875930566471878402e-04 1.344714217888121229e-04 8.084481692097959370e-05 -8.602427084738277214e-05 1.309102204580964992e-04 3.927050623923288134e-06 4.953764581443590879e-05 1.176747306025271788e-04 -5.679129164777736220e-06 -6.180797659479296232e-05 -2.778932946105835728e-05 -1.230205020606286374e-04 9.857115622452043691e-05 2.187999606116290230e-04 4.498534843632423085e-05 -1.816861857714748853e-04 -4.213926145287056122e-05 -1.695794203497058865e-04 -5.921574447624720187e-06 2.674808370708750449e-05 5.628662012664885974e-05 -3.292770881547315193e-05 -2.533361668956754837e-05 5.036434101583087678e-05 1.046351656222237707e-05 -9.795204145777609557e-05 -2.533139476622748437e-05 -2.165438105795145510e-05 -1.307177607605857315e-05 2.013108960568512655e-05 8.558723464352115801e-05 3.027060610999215208e-05 -1.621823138208162572e-05 3.375839796723990952e-05 5.030561145918120079e-05 -5.435102620058315461e-05 4.178039315863824418e-05 -5.112425993629777420e-05 1.040957929630079582e-04 3.724308280986719474e-05 6.507229088161819494e-06 -1.313476177697239748e-05 1.264521082574242296e-05 6.261633986339107676e-05 3.298664087791203106e-05 2.280107655003665192e-05 3.761664682183463946e-05 2.249770434479854821e-05 -3.209669740480814397e-05 -4.506241337022854634e-05 3.254894695513579331e-05 1.689385133854404294e-05 4.646923628419201775e-06 -2.489168312209318000e-05 -1.131188766330705780e-05 -2.928095475671342143e-05 -2.842451958379396963e-06 2.248172556157552936e-05 -1.273382910750529558e-05 1.382111355949328940e-05 4.682782251395979824e-06 -3.568003977214462285e-06 1.532994002312631335e-05 -2.973116603139919410e-06 -7.573198268993384824e-06 -5.066707376224643080e-06
4.094790302945563454e+00 7.933673199348861615e+00 -5.216700451666705263e+00 6.671315887381855658e-01 -6.005212973439048030e-01 -2.606415679832485011e-01 1.537160397672507894e-01 -1.102347523890909037e-01 -4.757905211735676682e-02 1.355047855863111550e-01 -7.545384840438110197e-02 5.014685062320609066e-02 1.559695401699850437e-01 6.279513286992136067e-02 -3.422448715349386307e-03 9.898429220793922290e-02 6.556775836391760814e-02 -4.950415182567261679e-02 -5.372230915706283777e-02 -3.240500406653229470e-02 1.019760170140444552e-02 2.123957964211860630e-03 2.160197643538752307e-02 7.523574605396123743e-03 2.158608502152493253e-02 6.706717338484340443e-03 -2.909947321429867673e-02 -1.077437329186523018e-02 -4.327574480873870935e-03 1.268642101662031257e-02 1.183267265012412188e-02 1.297465359646654895e-02 -1.303024482990656433e-03 2.170871014700954862e-03 1.842535663863903092e-02 -1.273589826841241106e-02 2.144720999928807314e-05 -9.595210877932617080e-03 5.468870852861376815e-03 -1.656188213261654925e-03 3.534007035847184196e-03 9.814281421751821187e-04 2.200390343795159426e-03 1.897231427554995188e-03 4.688213816746195951e-03 2.903159364148162787e-03 -2.462129203931442446e-03 -1.528187889396553987e-04 -2.783786331455661862e-03 -2.850319221298253623e-03 8.422593556679296113e-04 -1.651827087256092568e-03 -2.789845378902256791e-03 4.636259470481264404e-03 -4.803154765222933972e-04 1.768348678517438297e-03 -1.364437775556154699e-04 1.657787383662858403e-03 5.389337573741077771e-04 -2.697322915919124226e-03 -6.212577489777716807e-04 -3.847109679134280854e-05 -9.644739625779512457e-04 -3.760062254754257833e-04 5.203266766629290226e-04 -4.953240104326921481e-04 -1.046235589472662049e-03 -7.048141135922259080e-04 -1.259864050493171789e-03 -1.171642255076422307e-03 -1.367879087541824497e-04 -1.084372768791506047e-03 4.455931778807436508e-04 4.068975234660469615e-04 -3.040880712198290180e-04 -7.222253417376495220e-04 1.282700634648870086e-04 2.169776595604576072e-04 -3.953337469484854766e-04 -6.662727822280734187e-04 -1.328635754555249081e-05 -3.688595770146642664e-04 1.428337308136853987e-04 -1.788773364977856110e-04 1.546289389291814450e-04 8.320112657813842193e-04 -1.247420834947440566e-04 -7.291894605583912163e-04 -1.006217009079683842e-03 4.167124317446602774e-04 -1.944113243589601207e-04 6.358715861978458906e-04 -1.901947973433607182e-04 -8.454657843332963330e-04 -5.661026721938986015e-04 5.793230697383251098e-04 1.562394582421340638e-04 1.734341304937416669e-05 -1.898198042446511613e-04 -2.601931185929893655e-05 -1.389662655698388222e-04 -2.167119229776833151e-04 -4.258878212248740297e-04 -2.431446483842582187e-04 4.334403778202051727e-05 -9.745167157342035451e-05 -1.338439515890488162e-05 1.800896544569262640e-04 1.443671197442374836e-04 2.997240367754665344e-04 -3.689463964102214217e-04 3.065381383385444212e-04 -2.362380764857862075e-04 3.891312127538318301e-04 3.499882797392532162e-05 -6.908449240463806736e-04 -9.764206748921171327e-05 -1.668275538353876603e-04 -1.331164723837804389e-04 1.839256874158697356e-04 5.107922388639902036e-05 9.470196266217893494e-05 -2.820585123940352033e-04 -2.662806420412461148e-05 2.709515880973917636e-04 -1.559034113136811546e-04 2.159928094176964436e-04 -2.263014975285603820e-06 -1.124827471339616300e-04 2.125623054013799009e-04 3.270250796018328229e-04 -5.601218102201661588e-05 -5.735127021647578227e-05 2.471682617113104828e-05 -8.011012003119927141e-05 2.600429246547885970e-04 -3.538541182126211736e-05 -4.333983563598512416e-05 -2.037546456067578339e-04 2.085520590384148953e-04 1.819904063425756871e-05 -7.812613294966655204e-05 -7.997880878590738645e-05 -7.671509483828173185e-05 3.768942792320914017e-04 1.062425200690471030e-04 -1.514548260632332015e-04 7.995640706889015677e-05 -1.122796633600499692e-04 -1.434293275574588706e-04 -2.459885359569387794e-05 1.054312396375606909e-04 2.991136891514960765e-05 -1.153801382961092715e-05 -1.069310144528264105e-04 -1.015299791039191938e-04 7.905119568483329965e-05 6.982512291641158994e-05 8.264629206832050518e-05 4.473918548005568482e-05 -9.390104891363993767e-05 -8.922191511038532832e-05 7.124349422691122265e-05 -1.065504186045681379e-04 -2.902483473151191051e-05 -7.497336008818168641e-05 -6.575758689451064702e-06 1.338244010943108930e-04 -8.316357767075823674e-05 2.186789351413653403e-04 5.265603127587757058e-05 7.244059986443404099e-06 1.151212884324154583e-05 9.062165091687267380e-05 -5.033177343451289009e-05 1.036752638221526406e-04 1.645861310467797910e-05 -1.437150485951348017e-05 1.276618902523695509e-05 -2.486635819958644256e-05 -2.509951554244301331e-05 6.961250081760660732e-05 -1.046743966812151052e-04 5.811529325662007301e-05 -3.206936117001157589e-05 1.096560624880507667e-04 -6.348582348592756623e-05 7.077412842971935738e-05 4.781035798622108190e-05 -7.952788238415988269e-06 2.059814747676094480e-05 6.033713164932981969e-05 2.554703261445520173e-05 3.130188860852608736e-05 -3.698951989300141256e-05 1.122433817894462009e-05 -1.971626386335218053e-05 -9.275629354063430211e-06 2.962217740059020163e-05 -1.746122754828497765e-05 -2.530134007173598915e-06 9.986021415978268048e-06 7.146426200142368506e-06 1.687317948671377348e-05 -1.979297204850878251e-05 5.452846636488707405e-06 3.803560646883288142e-06 1.884955947510968523e-05 3.523748470950122970e-05 -2.057106968420272379e-06 1.155382560925978867e-05 -3.623515927126719258e-08
-7.961864099247644155e+00 4.081662510626143714e+00 1.147739783082919907e+00 -1.664609015143595772e-01 -9.108950372577793164e-01 4.680287981891735338e-01 3.134168123208788681e-02 2.187646772782004534e-01 -1.201121728419758811e-01 1.169332056155822225e-01 1.138495439950853831e-02 6.183181685628900276e-02 -7.792836383492464380e-02 1.967181500025884378e-02 -6.942010809321721987e-02 7.774144021144919342e-03 -3.777008802567493467e-02 3.051499788498462581e-02 -1.524962985138788446e-02 -2.425927651968537782e-02 6.247186632275530255e-02 2.205804720112675490e-02 1.397055878877105986e-02 1.299631838290849807e-02 -8.104284474519017623e-03 1.844173019238707495e-02 2.822582117389669295e-03 -5.441828890902416192e-03 -4.731776471812111119e-03 -9.155090190858330285e-03 1.046379964706379510e-03 -1.405124242128103287e-02 5.105532195279586204e-03 9.300633665151306420e-03 -3.550038079453623520e-03 1.440422483064490765e-03 9.319790311484596468e-03 1.468517851532401362e-03 1.380324524255220229e-04 3.318329892392086079e-03 4.026474917761931928e-03 2.676502048175899776e-03 -1.876301773453496269e-03 -1.025014575515789412e-03 1.344449143147988419e-03 1.512597136771375982e-03 3.023860799558341153e-03 7.916690327505050521e-04 6.332036660099518753e-04 -9.185515083119173869e-04 7.577601629401185465e-04 3.594598815426834626e-03 1.688535590266332977e-05 -1.407475692166939261e-03 -1.740431965430098028e-03 -2.549186653249774313e-04 9.669124177030001197e-04 9.719177151040510733e-05 -2.111826787515249434e-03 -7.873398467652094551e-04 -8.657863492044327392e-04 5.484782706070881995e-04 -2.080534396531755117e-03 -4.479921280550653337e-04 -1.461388212944147221e-04 7.376773965333092856e-04 1.894784531955237506e-03 -6.053993510339576072e-04 -7.099289207413632223e-04 2.999665586054502879e-04 -1.094139611227115628e-03 7.951471615634577708e-04 -8.805405546243428401e-04 -1.535082404563495664e-03 6.189769818168201505e-04 -1.135873794069298731e-03 7.209688494216203889e-04 -7.917465811168197766e-04 -1.681936470834537352e-03 -6.491559881635793929e-04 3.134937670223414494e-04 5.498509546115363600e-04 1.254671846739367162e-03 -3.561133696189540117e-04 1.020367761148969262e-03 -7.772954659927623123e-05 -1.203076116268283520e-04 1.447361394692074958e-04 -4.410876311388381866e-04 3.640667474757939415e-05 -2.111388712553163296e-04 1.147683599389040824e-03 -6.604741266025862491e-05 -2.816576545976093434e-04 -1.404299586508602935e-04 -7.114538841534652784e-05 -9.501359435364959598e-04 6.353731650379665320e-05 -1.562485750608673862e-04 5.094295455208341710e-04 -2.712705289702503023e-04 -9.430345100181599044e-04 -8.551736258387098957e-06 -8.103850173715405403e-05 -1.689834245859714345e-04 1.839139321228702489e-04 8.441688952643499168e-04 7.763576737357727724e-04 3.717403656189818286e-04 -6.324924014322719874e-04 -7.204994865393734747e-05 5.348458750889338208e-06 2.820152716296733873e-04 -1.561913211537817596e-04 -8.317355769834770601e-05 -1.561128615460915744e-04 2.348811493588689038e-04 -4.464456598084372963e-05 -5.163706617231390568e-05 1.521470140275029501e-05 3.048439509326773909e-04 -2.771409153183206965e-04 1.414162056683774594e-04 -1.757603251519453577e-05 -2.382754407630830731e-04 6.873598317638913947e-04 -2.891154089834100784e-05 -2.285438907306392819e-04 -3.100980211228543588e-04 -3.865713693464644871e-04 -1.322127194468239073e-04 2.344415708307627045e-04 1.002892150146566478e-04 -2.090029476140445677e-04 -1.966716882944558693e-04 1.150415340671327068e-04 -2.076237212661806252e-05 -1.341713522001095852e-04 -2.888062462114492990e-04 6.188895144454181936e-06 -2.226146799483016086e-05 1.616708334279431838e-04 -7.813880394437372240e-05 9.803523690638336473e-05 -1.264892183182794716e-04 -3.115778794910907019e-05 6.956971294029887622e-05 1.288582428529285817e-04 -4.239130289972488889e-05 -5.300196559788336527e-05 -1.645365556560502226e-05 -1.732902039950066941e-04 5.556795652450083957e-05 1.231585665542960471e-04 -2.141064851314257943e-04 5.114366880124724069e-05 3.399895251263953844e-05 2.835924892437973282e-05 -8.059484285652092697e-05 -1.179876497919349609e-04 1.521643009591479995e-04 2.467366281336377045e-05 -3.824677408626261124e-05 5.574207001233467750e-05 -7.946095575090880974e-05 2.741098630606161560e-06 1.461126846250954657e-04 2.379045155400144645e-05 7.103251147301017888e-05 5.565151852390693706e-05 -1.148512547402326400e-05 -1.263396071643109221e-05 7.021150250801222058e-05 -1.411564138545316230e-05 -5.581495591970317155e-07 8.311143381516491362e-05 -1.087265743568106629e-04 -4.543830097594248490e-06 -1.057073661536704764e-04 -5.963498342882720175e-05 2.788958486559928705e-05 -2.467430841333570726e-05 -7.302707104267345535e-06 4.753532832562894369e-05 -8.412419315887962083e-05 3.164601624308054485e-05 -1.727940418644868250e-05 4.186556772717280213e-05 -1.351772563008598675e-06 1.707989047906061667e-05 -6.495870657460551083e-08 -3.448505065748660054e-05 -4.655926066489382681e-06 -2.325595512468556309e-05 2.642739441795696341e-05 -2.902802259663135968e-06 -2.444321568682252782e-05 -6.021785177328580180e-07 3.391919378717932876e-05 -2.054898043106647256e-05 -5.661865534406665251e-06 1.669094128921009795e-05 -1.377968865499776256e-05 5.584712239285668962e-07 -9.717912217850263014e-07 2.218028912269417419e-05 -1.692070037159594127e-05 -4.820622647855793541e-06 -2.067329176246238544e-05 5.598350265595207460e-06 5.257932509602478616e-06 -5.012646709558619085e-06
4.094640782264814760e+00 7.933904163629294182e+00 -5.063988778387174428e+00 6.509466042589610035e-01 -5.959534557107283304e-01 -2.640765753226430590e-01 1.438672111527169450e-01 -1.550370860874670242e-01 -6.096952586508323779e-02 1.566962260970350129e-01 -6.231038889792418073e-02 7.048142652027858390e-02 1.746907047728967766e-01 6.100451341206899331e-02 1.296567464392248223e-04 1.233018162791954114e-01 7.653844064074243059e-02 -4.166151409094230595e-02 -5.253425914886416387e-02 -1.884736267837292326e-02 1.033628406877656197e-02 3.317306143087868711e-03 1.334117079895458767e-02 4.480870156824121042e-03 1.769703069448632163e-02 -4.751525351756527159e-04 -1.015813043145584807e-02 -1.361302071654414171e-02 1.581096860428393355e-02 1.583514325125487746e-02 2.133890449924996657e-02 -3.651565145728382332e-03 -2.045380087912644293e-02 1.492955204106548956e-03 1.671019253430621951e-02 -7.361498245557201482e-03 -1.540499156377941707e-03 -8.555689796598039271e-03 6.184934526773939577e-04 7.132413748551121035e-04 5.194645997344856346e-03 4.265486454804146357e-03 2.646908730663634964e-04 1.337225426149083081e-03 6.820589847242259154e-03 4.743850401113084564e-03 9.142304051700532496e-04 -1.835496029567566106e-03 -3.219232075722582107e-03 -1.268376006029321235e-03 1.082195596485713025e-03 -2.967967880348245865e-03 -4.919618407366882365e-04 1.528955467816302651e-03 -3.287004595642977161e-04 2.087830473388178638e-03 1.448918822517518499e-03 1.234949433600004816e-05 -1.945124181713977097e-03 -1.130569916289737766e-03 -2.141423704653910680e-03 1.113455586371833424e-03 1.695602706195530269e-03 -1.175886965440882089e-04 1.068750825225859040e-03 2.675817086985154253e-04 -4.766546056486213904e-04 -6.396093938328018414e-04 -1.474956192745311171e-03 -1.661818029774868137e-03 1.599169000502094137e-03 -6.798126095377965547e-04 -5.605925069185351993e-04 -6.775466260927108866e-04 -4.459519504164974422e-04 4.026871940121495418e-04 7.210795713984946673e-05 -2.789949379185774586e-04 2.393734786853697985e-04 1.662913315339051984e-04 -9.070770508562587143e-04 -6.604320760213863652e-05 1.193652905145054085e-03 -3.094521907246666282e-04 2.213250457210834670e-04 -1.773900845022660861e-04 7.378833511961401448e-04 7.134862559513397047e-04 2.722400914807547026e-04 -9.076180243820798339e-05 9.503989112400814418e-05 -8.533338486748932297e-04 -2.228798161080255242e-04 5.411496687351138667e-05 2.656336074004164586e-04 -3.128494261516380926e-04 -3.159776799958099861e-04 -6.695037707868387641e-04 -1.404191352632229027e-04 8.895271950788413825e-05 -8.864543573180672315e-04 -1.526883167793420689e-04 2.083574213258234027e-04 2.597389253692940756e-04 -5.427622795258772086e-05 -4.566394371903695218e-04 3.442006625594877609e-04 -4.121252309174821323e-04 -1.036585345990894189e-04 3.210013384402817254e-04 -1.265454297370741208e-04 1.399408677489029980e-04 2.085278044251717288e-04 2.955825664297921933e-04 8.156470157538972293e-05 3.216444912871631312e-04 -1.702944314004775216e-04 3.399200424788006536e-04 -1.560294133609619008e-05 1.992547914558668004e-04 -1.230461352966169823e-04 1.427132877319059865e-05 1.505422208520410649e-04 1.308345532105645445e-04 1.754787002296130519e-04 -1.438469254561789942e-04 1.038165879620129222e-04 -1.831600971236688636e-04 3.178037318772939778e-04 -3.691307726078357928e-04 -4.590366009195305129e-04 5.865740294911528179e-05 2.184652221586511111e-04 2.762418449244051673e-04 2.245023056793068040e-04 -4.190554264169642847e-04 -7.501958232941296979e-05 1.394930281378443774e-04 1.212052809187873123e-05 -4.147986426754730693e-05 7.571079295855852453e-06 4.060904122209112818e-06 -2.852560790641297086e-04 -8.185796334972529436e-05 -1.663495186660924859e-04 8.352615158875810648e-05 -1.208685780126079871e-04 1.067034969877396158e-04 1.047392829754359450e-04 1.809549552260822770e-04 1.180095984615031201e-04 -2.052959687666701611e-04 1.477601504104349834e-04 2.583864213147261038e-05 2.798659084546792174e-05 -9.527673456556820357e-05 -5.172004511274240539e-05 -1.321453749819411579e-04 -1.293292302142372350e-04 -4.722982082567901734e-05 1.886735913430880095e-04 -7.045167356980341520e-05 1.096635100809845646e-05 2.269498836474520700e-05 -6.172706281777271247e-05 5.118282088739426573e-05 -6.540310428184755683e-06 1.976258342228282737e-05 1.726990133740295867e-05 -4.333511526351396809e-05 -2.595388519245136214e-05 5.613501448127630966e-05 7.595065225083500387e-06 -6.050355345440858445e-05 -3.656097697651652809e-05 -9.667741568391031710e-05 -3.257529210650338618e-05 -3.103882531673048795e-05 -1.026045881615056091e-05 2.385145248978024626e-05 1.102019652521178530e-05 -5.676681737252444631e-05 4.878198135180469532e-06 -4.123105481206506889e-06 3.622192201210099705e-05 5.522513878696507366e-06 -1.434417477446213186e-05 1.788192191792857812e-05 -8.028196507404307240e-05 -8.418506806261449882e-05 -2.795299045159247927e-05 -3.122840647244818848e-05 2.787478511464060204e-06 -7.674173553105036565e-06 6.620336792964886836e-05 -2.431062772467487858e-05 1.932008413660666273e-05 8.483681842107845177e-05 -2.638822745937322115e-05 6.497906018489416157e-06 2.628358897320836834e-05 1.179855615324925180e-05 -1.495802288414719334e-05 -1.372909690422922763e-05 1.468607970926656113e-05 -6.722652326299153497e-06 -1.700445567727418736e-07 -7.232754712949154691e-07 -1.243620544616949902e-05 1.660291914641288250e-05 -2.501107762860961625e-06 -7.691704835462354043e-07
-7.961858045868567935e+00 4.082232758546838092e+00 1.427617439356762663e+00 -1.638352362001800899e-01 -8.804359925460271130e-01 4.445293572827005990e-01 7.142176517665622254e-03 2.009070826329713011e-01 -1.102500887148999270e-01 6.341289995592985784e-02 2.795859922615516469e-03 4.838947447838392452e-02 -6.571576164833019262e-02 1.979851908062106591e-02 -7.208453968970644776e-02 7.541369840628403716e-03 -4.582532479209833892e-02 2.879653564462985108e-02 -1.795921839071325590e-02 -1.961886099587776405e-02 5.604285831158940107e-02 1.768373129199156749e-02 1.997085077492778693e-02 1.105854326339116185e-02 -1.105731067789178859e-02 1.749707150100403633e-02 1.161184335715145137e-03 -2.057849282843631812e-03 -1.008499546240035696e-02 -1.348816222045824513e-02 -4.170028763868200241e-04 -9.215403436087444417e-03 8.665085785628856563e-03 1.129072719932410797e-02 -7.504968411642713721e-03 -2.317799024569470805e-04 3.162487735572645179e-03 2.403915364969175499e-03 -4.063627054024796133e-03 2.765537917184522111e-03 2.510434491920397835e-03 4.180281309484653283e-03 -7.728464048363822923e-04 -7.979065171164785716e-04 1.238503211364965634e-03 1.841017229469227171e-03 1.203012585570606809e-03 -1.263128367095669264e-03 3.107520636121392441e-03 9.112590753518675247e-04 2.947299690731369250e-03 3.556675324020115887e-03 6.746175815858829368e-04 -3.282431629363611290e-03 -2.232497480890739076e-03 -1.944634803704534988e-03 1.076574970758136795e-05 -1.259286721419811345e-03 -6.762110869521844063e-04 -2.438955970006875145e-04 -5.776577229516377662e-04 2.302918635207552942e-03 -9.985062560249511558e-04 -7.013358125949615673e-04 2.449933082572111100e-03 -2.355001366360375318e-04 -7.048127636948405212e-04 -1.088713495998931105e-04 6.502743505418959137e-04 -1.803399356677137929e-03 7.983250388987785237e-04 -1.011662946559495260e-03 -2.576101563517828341e-04 -2.028609006408941314e-03 2.448720552494104002e-03 -2.895750820980219756e-05 -9.133733205873380192e-04 1.825410212299161128e-04 2.269014765033935694e-03 -4.379847412798795877e-04 -2.700168327727946096e-04 -5.193134356342002421e-04 7.202087996795544138e-05 -4.877719297765774689e-04 -6.356560744202459671e-04 1.290622769991275388e-04 -1.372572544546351008e-04 -7.130016618450631290e-04 7.939828032392086963e-04 -3.208214563076564247e-04 -2.102964020489235932e-04 1.813535123288809083e-04 2.515095611527604015e-04 1.796675454091388045e-04 -5.392957199508281946e-04 6.085654003144655346e-04 6.524716487140406638e-04 -1.693708418182210201e-04 5.934313530271932572e-04 -3.054097349420671951e-04 -1.197429625536060007e-04 5.938398156881636919e-04 5.605320728184807165e-04 3.847695687504229127e-05 -6.647918387785773547e-05 -1.634135479790223765e-04 7.958285788642254313e-05 2.287252454100661189e-04 -4.653024433076747603e-04 1.620245474993902313e-04 -3.683648868639491803e-04 -2.813607245639630577e-04 -3.866403164649600296e-04 1.237444123421392876e-04 -2.021183169694477238e-04 -2.150043678743966116e-04 5.799989378647266072e-04 -5.600462625245281826e-04 -2.101556668902659745e-04 -3.049295862823025527e-04 1.837248099708152364e-04 -8.482540866990436964e-05 1.962475119225010598e-04 2.595249080925554879e-04 -3.026871149410648013e-04 -6.794567079762521078e-05 3.100621084526083445e-05 -2.231185076356124878e-04 2.857483333890709098e-04 5.832585232293318689e-05 2.474617195345345287e-04 4.969310585186796782e-05 -3.805714829058097807e-05 -5.973723049897311282e-05 1.940410234190699003e-04 -1.197939458276406512e-04 -1.284640091061439618e-04 2.766379317361221087e-04 -1.501114435762715253e-04 1.475324279954398122e-04 -7.201696973137131693e-05 1.056696177738724435e-04 7.223435428509690569e-05 -1.269871354655902247e-04 -8.698255165383269639e-05 2.567908631992160033e-04 -1.203123969852241086e-04 5.346390484563733422e-05 -6.374987905247004563e-05 5.058410991812214606e-05 1.674423919421391585e-05 2.160649741980626571e-04 9.539634440433223490e-05 -2.828203522353587521e-04 -1.199117315550856514e-05 1.009158429871106908e-04 9.848674581909168499e-05 1.206727034145730211e-04 -4.501463892183597679e-05 -8.818732378528875641e-05 2.387029275069886178e-04 -4.279837416833408542e-05 -8.208048242117791681e-07 1.941176298748966032e-05 3.816771582214919774e-05 -1.245570711114069142e-05 -6.525781917575249508e-06 -9.749411228692262429e-05 -3.231942296819861015e-06 -5.482591710295841279e-05 4.540499021422260374e-05 5.115102880125421334e-05 -1.193478821808010193e-04 4.805306565678532220e-05 -2.865028875386759987e-05 -4.179839635217389396e-06 6.175507552573748641e-05 -7.892749929938367668e-06 1.758018866692579220e-06 -4.862720636960437894e-06 -3.924052840130528571e-05 1.868352404233081433e-05 5.376370619029190590e-06 -8.674716374636393590e-05 -9.379329232740446853e-06 2.293946700473687512e-05 -1.934288150123131500e-05 -2.232684475005411372e-05 -2.871118543408014622e-05 -2.665426321759302195e-05 -8.451947588760941115e-06 3.329713664529654869e-05 1.342444375993231114e-05 -5.038285215912718605e-06 -4.413089233332847730e-05 -3.474052894295149821e-06 3.216948593580381941e-05 7.201974822025682222e-06 -9.369088279225341415e-06 2.995858692133604600e-05 3.077346237729139416e-05 2.868548630760158697e-05 2.621501565020794189e-05 -7.856893972816396456e-06 -1.459134222150165369e-05 -1.116870621544694339e-05 5.398022292940736604e-06 7.717296213298644678e-06 8.622325200651411061e-06 -5.473240065919036178e-06 1.436240058036394285e-05 -4.940093307650529674e-06
4.094584895004305558e+00 7.934094533559493456e+00 -4.900145430094586807e+00 6.444263800419869348e-01 -5.804974329120715648e-01 -2.753655539668163899e-01 1.472124003186178198e-01 -1.742786008721143032e-01 -4.853885936836321163e-02 1.910581315367939625e-01 -5.013449031039157039e-02 9.002578065358619874e-02 1.610859715156939542e-01 3.763712357383194873e-02 7.417435657434492263e-03 1.120828092557391992e-01 6.290740345029793845e-02 -3.045868425972599741e-02 -4.262508938560428950e-02 -3.624296116577903088e-03 8.106428344488936233e-03 9.252188941675261805e-03 1.932897875502433832e-03 -3.104340663583810434e-03 1.481286564020248796e-02 -6.037686348234060085e-03 7.324432017538648129e-03 -1.496008120698865546e-02 2.623454998891370377e-02 1.687485210280047221e-02 1.999167429028177179e-02 -1.470714001487145352e-02 -2.836437529360871096e-02 3.316322993454466714e-03 1.222530075646675873e-02 -1.071429908829803993e-03 -9.254392521406475678e-04 -2.368515407642322965e-03 -4.180638252938202043e-03 2.390420084833099184e-03 4.056858326578423150e-03 5.282717360091306741e-03 -1.402921844102303361e-03 3.745980487530786349e-04 5.843034314509980114e-03 4.165209927516742676e-03 3.754692489957116991e-03 -1.178586027325371696e-03 -1.872125356027513768e-03 -3.727541562878146017e-04 1.629310772453398254e-03 -3.057507611712207037e-03 3.001496387605717686e-03 -2.173739630345145491e-03 -4.701008576920599953e-04 1.294729241883447188e-03 3.175206908501239703e-04 -4.322203542520282435e-04 1.326604341146105830e-03 2.487956116403443351e-04 -2.164411249747769540e-03 1.992555606320285232e-03 2.166245259037729437e-03 1.009174612805141969e-03 7.639837076986487948e-05 2.625431412209725890e-04 2.021117270898926347e-03 1.351340645034176870e-04 -1.083642558598113461e-04 4.712632168099845477e-04 3.925760957822995215e-04 -1.573024627588228580e-04 -3.446570606518971369e-04 -4.057415640430679388e-04 1.232279123439291527e-03 1.671110632634828107e-04 -6.615740367644241384e-04 9.100104766803143036e-04 6.351933526386917273e-04 8.773637573437690056e-04 3.139678116067194506e-04 3.601715418902929505e-04 -1.145896994666230221e-03 -3.526938544888103899e-04 -2.816735785844946848e-04 -1.476152649615570373e-04 5.211656182001639945e-04 3.393650913812792805e-04 -4.340229379208127383e-04 4.089520819530652351e-04 6.457991077077268128e-04 6.709194398181052938e-04 -7.554098701824289253e-05 2.807315582205275207e-04 -1.596028371945151098e-04 -2.165370597676436512e-04 1.533186434666749813e-05 -3.964766001351734798e-04 -1.483456816362588337e-04 -1.212120810630524067e-04 1.249701629694440559e-04 8.893899131615840058e-05 1.559674100706056655e-04 7.030718961335562407e-04 -9.666717783553672484e-04 3.266660192217097605e-04 -3.868514543042857732e-04 5.139877183512866956e-04 -9.680566027773451169e-05 -3.577727921235963329e-04 1.500541292611549992e-04 3.084498212073278665e-06 -3.967577328655262501e-05 -3.066340094201104355e-04 -7.770161236592934735e-05 -6.354375843651237626e-05 -2.494731655772292295e-04 -1.502584666983696306e-04 4.801536319139010974e-05 -2.134996795277299263e-04 -7.135091094596082088e-05 3.122063609432324817e-04 3.347046866702779023e-05 -1.871928886148329003e-04 5.350917581869139172e-05 1.388532141974191945e-04 3.830871106057812579e-06 1.047437273847216923e-04 2.186848174864697888e-04 1.382633760273428497e-04 6.309466033023312286e-05 7.744134482707377498e-05 4.821544973112999173e-06 1.684179734252678519e-04 -5.113011394753248741e-04 2.984960935176126360e-04 7.735607928369863436e-05 -2.087542022068421049e-04 1.526442047305538236e-05 -1.119806299653176856e-04 1.537084424754608591e-05 1.430514261021925176e-05 2.820311807804830556e-04 1.818210717749951062e-04 -1.005121132314139667e-04 -9.888244107892897551e-05 5.069998681873205264e-05 -1.286216614027427014e-04 8.525825272229566206e-05 2.462441477145832231e-05 -7.584093748384384279e-05 -3.998685167752326466e-05 -1.526891740858442249e-04 -1.709041952344231603e-05 -5.212780613643760292e-05 2.279306334568280293e-04 2.417613104514505898e-05 2.381067749511205274e-04 3.321718768443514285e-05 5.517874470121096814e-05 -2.486516834299981493e-05 1.555973808318188132e-05 -9.459011059149216854e-05 2.754811740289226751e-04 1.928096360176489375e-05 -3.923948257652093419e-05 8.578987454276701903e-06 -8.668052185086894471e-05 7.591925285039568031e-05 -5.319650977290368924e-05 4.724016055341487588e-06 -5.415822086219800220e-05 -3.182816636356448615e-05 5.069738258368779941e-05 -2.957396288361242539e-05 4.481938820063212738e-05 4.984205411878649366e-05 8.437633216520782145e-05 -3.439513431602000856e-05 -1.111704949447321423e-05 -6.727244299787059388e-05 3.471601447356679934e-05 -1.189930374296087668e-05 -1.080378877057214671e-04 5.421555089372586853e-05 -5.987390222933983028e-05 -3.554405714190050209e-05 -1.472227207474596474e-05 -5.383291038424561881e-05 7.093772445761949304e-05 2.414646746308908012e-05 -5.864217263783193082e-06 -1.965408956983347551e-05 1.284646939228858295e-05 3.341374368569940602e-06 7.441248167186801185e-06 4.477798865751046818e-05 -6.244257050775561672e-05 1.441632835735034531e-05 5.748246922292909959e-06 -4.981512155922550485e-05 -1.349135153822284111e-05 -3.675897405172826529e-06 -3.907777952273958141e-06 1.350696416571151778e-05 2.144792710843727881e-05 -7.341088030994599527e-06 1.559022352675412639e-06 -5.222163750257919582e-06 -1.632858951495900446e-05 -1.037885928349980244e-05 -1.413051234705746151e-06
-7.961861970387485776e+00 4.082815024648046354e+00 1.696086293196445549e+00 -1.535321468847377357e-01 -8.423107380315756343e-01 4.220246421030286466e-01 -2.153046458388636203e-02 1.845447802638379986e-01 -9.924844144180734740e-02 6.339888433368117554e-03 -8.032598610047764209e-03 2.957785971159307414e-02 -5.633333628327102938e-02 2.275859924817549146e-02 -7.552125816880024545e-02 9.626497345105627587e-03 -5.268774404934758321e-02 2.743080205106554481e-02 -1.981595138541631176e-02 -1.785081936054396315e-02 5.243155319881973031e-02 1.344497409535081768e-02 2.168428753975824505e-02 1.172762658041798418e-02 -8.678745363423716330e-03 1.573078159477584587e-02 -4.394550418747382795e-03 -2.370171958326303639e-03 -1.347837841896666437e-02 -1.530567862030687148e-02 -1.049694067156452162e-03 2.589657460576344516e-04 7.351643943344815177e-03 9.081631504519037390e-03 -8.930239207269435528e-03 9.051882153224434903e-04 -5.096091781562039338e-04 3.849461255887695783e-03 -3.854387032618146382e-03 -1.086963664756691351e-03 -1.988037560810971237e-03 7.102570517174553507e-04 4.747001129990666385e-04 5.050241035767558638e-04 1.466558444084812944e-03 2.410551290264078324e-03 1.120943781702671293e-05 -1.190609083063119559e-03 3.583640654786939429e-03 1.470003713105893237e-03 6.164497171834404030e-03 3.139295524560080548e-03 2.246010845065375856e-03 -6.886352621157666417e-04 -5.257160010899597502e-03 -5.854858797139559333e-04 9.969988162955604680e-04 9.871842780917509073e-04 1.904005510894751481e-03 -1.656420503575013314e-03 -8.616294439858965910e-04 1.457576736121533878e-03 -3.924905662440137592e-04 -7.185171990762679543e-04 9.852066387633906779e-04 -7.844321149113872094e-04 -2.930552888702549815e-03 3.790146777591436216e-04 -1.108834320248166042e-03 1.624865661026217998e-03 6.465676401828567227e-04 -1.113563542260309278e-03 2.934025936675995166e-04 -6.027846044223965534e-04 -2.621807852032096426e-05 -8.734098969845854703e-04 3.492570829574592143e-04 -8.558872902717076575e-04 -4.498135383885928338e-05 -1.157123631528382649e-04 -2.298334826179601153e-04 4.409211188776542912e-04 -4.696807759395414499e-04 1.046750273798824425e-04 7.010881913469596462e-04 1.156297461882324846e-03 7.354637775831829576e-05 7.501046637317479752e-04 -5.206280308030082323e-04 -8.547685359909365022e-05 -3.312518921744576472e-04 -1.509370814223037359e-05 9.316410581704573628e-04 -5.573540026198669194e-04 -1.118054165352452378e-04 -3.286153235922058030e-04 -2.465924483929745107e-04 1.638076841332721672e-04 2.557732421737930555e-04 4.305064990800836172e-04 4.426869726752405391e-06 -1.291947666615922126e-04 5.876884480893363485e-05 5.532172487921782102e-04 4.456529098226681544e-04 -8.763090995483088612e-04 -3.899811023645146160e-04 -2.893314861225783742e-04 3.986319544661620163e-04 3.762771057716732693e-04 6.916074394452427889e-04 -1.722759017004252366e-04 -5.218877408096851472e-04 2.740194197926737875e-04 -2.301629819423602508e-04 4.829154825041303395e-04 -7.112119442905431702e-05 -2.502613801436734043e-05 4.414395494720627523e-04 -1.486137241942539033e-04 -6.311296498557232646e-05 6.964029163381288748e-05 -1.231579485208799361e-04 -6.413580679400944524e-06 -2.047484873897057822e-04 -5.485382791372821892e-04 8.245738440362119831e-05 1.988902883167905419e-04 -1.702989496078948693e-05 1.719823914916863397e-04 5.356755838113517028e-05 -2.418254536995513877e-05 3.501065767149976284e-04 1.710101749973210546e-04 -1.723005131713919368e-05 9.554883127465346943e-05 3.361536526238607741e-04 -4.285952105698072898e-05 -7.463210064721370578e-06 3.707582496245000019e-04 9.484831345435567620e-05 -6.942571640815318535e-05 -5.623463331843501855e-05 -2.038046464057791389e-04 1.511282559743632272e-04 -2.215829400104170943e-05 -7.442347103042172758e-05 -1.949766989265084367e-04 2.698570305384195324e-04 6.916214042108700271e-05 -1.409169308626255512e-04 -1.447265127259021505e-04 -1.815913773480853856e-04 2.134895688919843511e-05 -2.902547540327148846e-05 4.283556581586068254e-05 1.335488776633071693e-05 -1.477213682931428538e-04 -6.968489860228082600e-06 -2.107044003389669423e-06 -1.149230000965690852e-04 1.585975585219822031e-04 -1.902915999764701068e-06 5.655601455024071735e-05 -1.067914461948624313e-04 -3.344341200067332191e-05 2.674573679080582506e-05 5.042826688930173443e-05 -7.108616566489028377e-05 1.060685309566775656e-04 -7.939934810698824898e-06 -5.990192412426495331e-06 6.783931483761466367e-05 -4.983046670938613297e-05 6.148368958140397110e-06 2.475716527807187026e-06 1.523245238746500545e-05 2.571272416173381024e-05 4.368965266048068793e-05 7.170410842388691029e-05 1.896641489359843463e-05 -1.634966193260822546e-05 5.556645458695510425e-06 -7.222216109585419154e-06 1.193509303623234201e-05 -8.369273787297517480e-05 -3.092003438439289772e-05 -4.091599579785485698e-05 -4.245636954431911908e-06 -1.828254439360547045e-05 5.400242130305724222e-05 1.199714712940822758e-05 -9.324182190114690380e-06 4.232520883512981124e-05 4.666131045790544951e-05 -4.658647340206267718e-06 -7.046045133335946919e-06 -2.227696850977579104e-05 9.537644702092022204e-06 -1.128872882155177066e-06 -2.344768761959470783e-05 -4.308894176822403849e-05 -1.540322486953574037e-05 -2.531990814072351958e-07 2.262104147536609243e-05 -1.096136501180347599e-05 -8.254741261464022006e-06 2.122514733245665032e-05 -1.176713330066963169e-05 -3.828736494130763152e-06 -1.150578637511297836e-05 -4.832878077738045133e-06
4.094642381123962060e+00 7.934295852519838377e+00 -4.703253842921097494e+00 6.706610280163461946e-01 -5.560397039011272247e-01 -2.789136902016082775e-01 1.719101717599443024e-01 -1.693399369424468948e-01 -1.683322438351926228e-02 2.257796719870104052e-01 -4.421639882477721578e-02 1.134673327953721056e-01 1.187176793065609914e-01 -7.177280468132500504e-04 1.487136247220740594e-02 7.551757590395911934e-02 2.784477585861496254e-02 -1.224705861373532462e-02 -2.676920840039257246e-02 8.853079590407332208e-03 7.203703051826341498e-03 1.448061911456669307e-02 -7.829431404110723594e-03 -1.052059750656910916e-02 1.057787987693224567e-02 -6.225841086825513113e-03 2.288585397840945529e-02 -1.570028335377896336e-02 3.115188870439828533e-02 1.563866592181114082e-02 7.391773265255617738e-03 -1.480731213265534287e-02 -2.825528808892311533e-02 2.310635034458844751e-03 5.057566525447618894e-03 5.622143184258091009e-03 -1.989888252555043000e-04 3.753946119730518661e-03 -5.502564484941783497e-03 2.317765455319521512e-03 -2.726756313257311035e-03 5.288369104224693341e-03 -3.099239096401124223e-03 1.556741580826741462e-03 4.320453266676759808e-03 2.440574718776830632e-03 4.714972675557677073e-03 6.485045442593158349e-04 1.634160382007550762e-03 1.404385305345532244e-03 3.901221759551517891e-03 2.242881167187483593e-04 3.379970145366589362e-03 -1.279205640079197600e-03 -2.971213373964040724e-04 -8.040623507498936753e-04 8.267764569757543158e-04 -1.428453186072774260e-03 2.702527153260240577e-03 1.941939583214752482e-03 -1.671177155351257989e-04 8.225109980089746536e-04 4.294836944795234028e-04 -1.093188710951349343e-04 -1.404750560744676352e-03 1.763671300152463723e-04 1.420225448135325726e-03 5.883420329810789672e-04 5.378412696612826184e-04 4.548632485694774049e-04 -1.066670976522632102e-03 -2.864795616608084312e-04 2.172652433245403001e-04 -1.226283884514981057e-04 2.931122215637761643e-04 6.940321282896375109e-04 4.852213794387269475e-04 9.004935293233921239e-04 3.139028175031247829e-04 -2.950259197714615917e-05 3.521280821433235564e-04 -7.525145323687919795e-04 4.015111403240453642e-04 8.702251112427881444e-05 -1.775110067261506035e-04 2.700462057643511645e-04 -3.991895559203707615e-04 -1.625307687850941626e-05 3.133288763396159787e-04 -1.818112772679448619e-04 -3.965521170829859599e-05 3.853683723057664849e-04 4.987041652221292599e-04 -2.683101354600630995e-04 1.938004552259300526e-04 -1.809001003212603925e-04 4.829550546609965135e-05 7.159398206457267926e-04 5.832726613295769521e-04 -4.510181970307848788e-07 2.217384665581089299e-04 -1.070811825560706972e-04 -5.698126990932679201e-04 -2.530345646108670831e-04 5.968688654769025662e-04 6.241191162670192520e-04 6.592615464566536519e-04 -1.563524469372203703e-04 4.109983044119545578e-04 -5.749505480941962115e-05 1.020990719546523325e-04 -6.045699826879347328e-05 -1.824278676494352160e-04 1.061918667243156905e-05 -1.217222807718454243e-05 2.243316625908710902e-04 1.170600385184029793e-04 -4.272960466206337550e-04 -1.828700256028296530e-05 -3.833590479015986796e-06 1.639364148841136607e-04 -3.617934549407659508e-04 2.758291488008996124e-05 5.845698983946691569e-04 -1.955277055040973897e-04 -2.921532022392421372e-04 -2.033322329837086034e-04 4.121856216600075680e-04 8.712858309173527899e-05 7.105807357310363326e-05 -8.875421663000509674e-05 4.491863806322064908e-04 -1.825887853938084953e-04 -6.409274139933849679e-05 4.373101775388315085e-04 1.514100672727129423e-04 1.254476169861779076e-04 -1.183684652151832461e-04 3.246254226869374292e-05 -7.422030263298958191e-05 -4.508689943667534139e-05 -2.003559444546520877e-04 1.474243157836708357e-04 -1.538106339791543774e-04 2.068938118175373334e-04 1.941668644982870136e-04 2.261271492600019125e-04 -8.111357769307589232e-05 -1.573339045223147209e-04 -9.802863383958746889e-06 -3.375464967504336578e-05 2.046276516550293943e-04 1.648180219343829190e-04 1.802307912148873911e-04 5.357997692678004856e-05 -1.830692080990465990e-04 -2.977031194559351328e-05 -6.281781861678730438e-05 -6.466259596310563237e-05 -1.553364614807911873e-06 -4.411614037169719215e-05 1.481779223530753061e-04 -3.448027570264232476e-05 -2.381003919897732557e-04 9.490842114394838910e-05 6.646838204542180250e-05 -4.845559584787214382e-05 -6.242016292736612645e-05 -1.087465647120692126e-04 -5.832536260622843112e-05 -8.313895699214335648e-06 6.815205532100191018e-06 8.946774447734190492e-05 -2.867435218152552330e-05 7.971845022640239537e-05 1.112957009601901681e-05 -5.159065829180313730e-06 6.081410673810103482e-05 -4.012255134833721388e-07 -1.633039319723645280e-05 7.110012441415042999e-05 -4.652509666108964060e-05 7.027940544061856050e-05 3.142367868248365995e-05 -8.026565900896806040e-05 -4.490206248636778298e-05 1.084839442369623936e-04 -6.791484113135400817e-05 -2.104506178895125377e-05 8.813829682680472490e-06 5.272673188969885332e-05 3.532863491901938790e-06 1.419195473803506352e-05 -7.933354885099726128e-06 -3.746856948709154545e-05 1.742774107920041102e-05 -4.119973146656866068e-05 4.315050216642448978e-05 9.975052765432121561e-06 1.405123672295630554e-05 1.164645608237212734e-06 -2.759088505329794158e-05 -6.717195122087786200e-06 -3.513870148692601542e-06 -9.653800750299693149e-06 1.312082464830173882e-05 -1.198981812727124469e-05 -1.106440740061334424e-05 -6.941641916861403458e-06 1.395110482861199208e-07 6.614003111961827585e-06 -2.080055601059727241e-06
-7.961887961454273466e+00 4.083435897766618083e+00 1.940823309969747834e+00 -1.614748033677592953e-01 -8.116217860435605003e-01 3.960141984234815116e-01 -5.561477132987178301e-02 1.573938175522599237e-01 -9.950485195550748396e-02 -5.729846975847215779e-02 -1.860186038594501684e-02 1.253274578178700804e-02 -3.564700223753770186e-02 3.451675734507030774e-02 -8.239270869252257601e-02 2.019761394565877666e-02 -5.747991237552291244e-02 2.289775147771476102e-02 -2.709215582894093990e-02 -1.456503719703022143e-02 4.757472027640487211e-02 9.244707953446968524e-03 2.442215124838113469e-02 1.271916599079379873e-02 -1.016194711224545182e-02 1.275073452380760634e-02 -1.017455740979629139e-02 -2.942580666204748681e-03 -1.615679191314334587e-02 -1.495431302395579601e-02 4.284323349558011480e-03 8.947561737962971690e-03 7.197976248150318029e-03 7.878066659247425288e-03 -8.199986569989424837e-03 -9.710495990566567984e-04 -7.876543377503496951e-03 1.476838546975176589e-03 -5.787136719240223819e-03 5.226647812339395548e-05 -4.286958580580328172e-03 -1.474579515807116154e-03 4.240510505476698111e-03 1.397043462954566115e-03 4.594761450841929919e-03 3.302808150514509235e-03 -9.687067454965778319e-04 -3.565385339956221936e-03 3.005050811609612411e-03 1.361688182109831126e-03 4.773965010681060009e-03 -2.519863758381840624e-03 4.097781495487244109e-03 3.123890267040724321e-04 -1.647144718103607953e-03 7.431302500964283167e-04 -1.995228767579996891e-03 4.764798320177699776e-04 4.200123029068823463e-04 -3.067190045383391944e-03 -2.289545701344623471e-03 4.169104066206198158e-04 1.060504461598027687e-03 4.094235087050089573e-04 -9.134438209626873735e-04 -6.794033837970242995e-04 -9.491307208755872657e-04 -1.246858967040425650e-04 3.179750008533090860e-04 -1.435974326241322169e-03 -9.177008263355261814e-04 1.125552957413091096e-04 -1.568986041930824776e-03 1.965970680934131607e-03 -3.854333145715596858e-04 -9.125341943874161043e-04 1.838005661813874405e-04 6.448388591225122889e-04 -6.676029212214133843e-04 -4.125650885643771909e-05 -6.411237530798022475e-04 -6.579467564592469866e-04 8.052204609893101389e-04 -7.646211984459028816e-04 2.872858088969187105e-04 -1.063904067568113143e-04 -7.724481151243212237e-04 4.320594425052937918e-04 -8.673465073544276349e-04 1.325113968566892268e-04 1.291529224786591495e-03 -4.699186550491121165e-04 -1.417483276319821714e-04 1.573880104765071450e-04 -3.956544148703918418e-04 -9.781957776179680931e-06 -1.373562816092444320e-04 2.577460894597755742e-04 -1.654036248620674183e-04 -3.592378736380454139e-04 3.166540662637914181e-04 -1.164586904928397468e-04 -4.293851599364403491e-04 -1.128626073201367716e-04 3.409661157126207473e-04 5.646170170925210886e-04 4.575967541514673094e-05 -2.858373903766515717e-04 -1.814571128367886536e-04 2.114270389877197709e-04 1.737313613481126942e-04 -6.563031058246209925e-04 3.231945861810610571e-04 -1.683221503596825689e-04 -2.382328997643989789e-04 -1.211040018218080154e-04 -2.235822302621004381e-06 2.242278393223853491e-04 -2.036562300336639409e-04 3.742307398233960403e-04 -4.131676385078968203e-04 3.758766893641234336e-04 -2.034294590240469153e-04 1.852221086656378720e-04 4.560839693313260220e-06 3.579627726105159011e-04 2.584372610946633381e-04 2.396031005306935681e-04 9.203985896343423886e-05 -1.280852584916132911e-04 2.112763100945410158e-04 6.770226259159703637e-05 -2.203242412955306077e-04 4.254818471213800022e-04 1.260403345839423452e-04 -5.798844897563417843e-05 -8.817063835409822358e-05 -1.551574883048414727e-04 3.310733745654097010e-04 -1.717832959575049819e-04 -1.574523242824665847e-04 6.220925890022253630e-05 -8.174766838780469971e-05 -1.228739988215795233e-04 -1.487955882000532395e-06 -1.089192760736349867e-04 3.961421450074849586e-04 -7.868936894603040233e-05 -9.445038729104434652e-05 -2.373547006861618472e-04 3.666188775598456926e-05 1.570065015662781352e-05 4.904064840729750437e-05 -3.349368906254467305e-05 4.056061430019401699e-05 5.945999780484449438e-05 7.802414429516438287e-05 7.826841148000573891e-05 -1.267862875931713798e-04 1.872924318893984461e-05 -9.606368522404939514e-05 8.650054508003232753e-05 -9.588353971340586070e-05 -2.272014641571552248e-05 3.618261723120182524e-05 1.114373874376914776e-04 -8.256712687558871364e-05 -3.821858117260178915e-05 6.470596403154684429e-06 -8.873424299647673518e-05 -1.002209046416316916e-04 5.662787410725935275e-06 -1.060783533733949003e-04 -8.733850449513106797e-06 -2.724861183164251655e-05 2.412251547741477508e-05 6.238371036870685312e-05 -6.290186512389381432e-05 -4.432932270731483154e-06 -1.669732577612229176e-05 -6.289661485669268901e-05 5.958397995390382601e-05 -4.187925202215812376e-05 4.692142026188577785e-05 5.999053893549291267e-05 -8.015818059137808820e-06 2.716989452445555607e-05 4.349841749552400991e-06 -4.252931556224218184e-06 -5.249950476637970195e-05 -1.424507697049483272e-05 -4.414055367453579914e-05 3.464701638872296401e-06 -2.505783782490140317e-05 2.194602198260120783e-05 3.975218302482233659e-05 3.588258681292209293e-05 -8.312021694213607651e-06 -2.318639516720720584e-05 -4.104310823286345386e-05 8.258915002494409560e-06 -7.577251982372591107e-06 4.020073918528532949e-05 1.605292749331316138e-05 1.120948300757045538e-05 1.182114468419063925e-05 1.592920293589802184e-05 -2.013834842471485373e-05 1.846683412544997097e-05 8.795368916817270752e-06 -2.005440561637853516e-07 -4.588992998736158699e-06
4.094682627656675677e+00 7.934696876909449692e+00 -4.394722366674463920e+00 7.032245445370504111e-01 -5.060462221330268573e-01 -2.638110367697080183e-01 1.906635423811659791e-01 -1.502484179127698272e-01 3.083107938618412369e-02 2.454037022307995752e-01 -4.386449537370101792e-02 1.286162700371970002e-01 5.482309057236505606e-02 -4.413598435922106572e-02 1.452786032530284897e-02 2.322887104210987624e-02 -2.140353730940997706e-02 8.807210012433905680e-03 -5.055542882803247713e-03 1.972923858366947350e-02 1.108019043943015737e-02 1.782978201600790916e-02 -1.452779327826349796e-02 -1.374891095658910788e-02 4.371871812788342103e-03 -4.440573744362948626e-03 3.473699722988320832e-02 -1.440362000152608894e-02 2.863860794045709063e-02 1.171390386858331412e-02 -5.928238162680651673e-03 -7.628121146611152766e-03 -2.134507499841789210e-02 2.612844671257550863e-03 6.181218536960844320e-04 1.026039171725932897e-02 4.310577517878129818e-04 7.899722848039178458e-03 -4.963818044195569129e-03 2.364410854778981486e-03 -8.977233913914937913e-03 2.810004097512950900e-03 -7.324103645716105795e-03 7.733729737984744012e-04 1.056190880175920249e-03 -9.362758902369292891e-05 2.661943692163249841e-03 1.196150628018189527e-03 2.066596289455060152e-03 2.594528822676701527e-03 1.310419541115783425e-03 1.358628310378576102e-03 3.368762772815313018e-03 -1.625457511785113494e-03 -1.037389780918210628e-03 -7.632567029867175831e-04 -2.531145682857373781e-03 -1.503881825858826085e-03 2.510174046498776183e-03 1.925927044880940565e-03 -6.513070464426361445e-04 4.614399858369823719e-04 -3.346395756460064132e-04 5.484470907938184025e-04 -1.532547098525647482e-03 8.965221911145298747e-04 -6.531564847796024259e-04 7.665476888782139309e-04 1.711504413252479956e-03 8.644773940037523644e-04 -1.814209278915755296e-03 -1.232762291500701113e-04 -3.956842006691914702e-05 2.920338652803301078e-04 1.535205551846410246e-04 -4.077722784010022147e-04 7.054953934674474195e-04 5.771706756153726801e-04 -2.027247153812888132e-04 -2.810707412829242216e-04 -1.708563819853222576e-05 2.509503695609601771e-04 -6.156089077435031049e-04 -6.219638389938927057e-04 -2.365809123742534741e-04 -9.583821684516484907e-04 -2.613664212053853127e-04 1.265833859456064955e-07 4.421712832857152987e-04 -1.055535090974585094e-03 -7.861282259795291489e-05 -7.674956260892781693e-04 -3.774506080826296999e-04 9.048590589312871144e-05 -5.445217824675359277e-04 -2.673743065710423340e-04 2.589847113449882023e-04 1.813007722033977039e-04 -3.572688006166243159e-04 7.552057976253464177e-04 3.249014382351213129e-04 -3.570232204619063127e-04 -4.452037597576999491e-05 8.012633345579968684e-05 6.126636605760881859e-05 -5.976453593249676224e-04 -2.206552782763206884e-05 -4.196412207969911262e-05 -3.003058302494989850e-04 -3.042398852128207817e-04 5.294283419826753328e-04 -1.453801247391348951e-04 -3.764025526469494626e-05 -1.679349067716725684e-04 2.003306520987904401e-04 -1.884367510294395625e-04 4.021663163481934751e-05 1.634711409878839320e-04 4.205451308078712413e-04 -1.693310430868436858e-04 2.215178816913622407e-04 -1.727251485853670840e-04 -2.490520489127001570e-04 -1.747084101028152409e-04 -6.471051353412456218e-05 1.598254024143254902e-04 -1.913395828680604361e-04 -2.975657313288310659e-05 -8.337928256830594157e-05 -6.948388968655637259e-05 6.515946621330447053e-05 -2.714518458444398186e-04 2.780743106178911166e-04 -1.327337002514378131e-04 -2.374762900721666186e-04 -4.945174670719544455e-04 -1.506226448926455195e-04 1.991379114989771546e-04 1.763989870152226193e-04 1.527500193028880906e-04 4.472316701521408771e-06 3.488592700042605151e-04 -6.079308432821793715e-05 -3.793917251758148918e-05 4.162142133624188343e-05 -1.875177130426354077e-04 -1.075173821588664222e-04 -7.851978577271616594e-05 1.615993764371881792e-05 -2.085930775744935682e-04 5.682088161108533810e-05 -1.008675265675407050e-04 3.046062214085461691e-06 -8.977255516272015059e-05 3.604789097527560254e-05 4.546363204553116892e-05 1.135266595377680380e-04 -2.614494050816196049e-05 1.268276061819669106e-04 3.958388192240140386e-05 5.307497715066779439e-05 1.144624566428903839e-05 1.099238130923776725e-04 -1.122605631255259995e-04 -1.281869442857721294e-04 -2.587090596611228498e-05 -8.114750215481213115e-05 5.825182443398951003e-05 3.444152220302651197e-05 1.239700315972709090e-04 -1.004942035051066706e-05 -4.358077757253079059e-05 -8.994630532902876598e-05 6.528410427927101639e-05 -5.941217952552357677e-05 1.779560934057956528e-05 -4.738438016555096170e-05 -5.441148875292168424e-05 -2.595882114226941429e-07 7.502029076422852757e-05 -1.817498329789611885e-05 -5.661062539483580736e-05 -5.213293468488123851e-07 4.685537001695454007e-05 -1.728198423077646203e-05 -3.403968684697625915e-06 2.051586111894933265e-05 4.340665763140203652e-05 1.216958407416693914e-04 8.210136182798354523e-06 -5.751273108691405808e-05 2.049106914877083015e-05 -4.635142406712411227e-05 1.516103729604741771e-05 5.754872517189345971e-05 1.993650472485259650e-06 -2.577935527573563425e-05 -3.252864876623329894e-05 -5.160190964978853462e-05 1.971519379171982021e-05 2.783568751091587381e-05 4.149221484208817277e-05 2.868572657179004499e-05 -5.875986847080641329e-06 -1.598988603648608908e-05 -2.248726620247568507e-05 2.352358667241716066e-05 6.794136048106887928e-07 1.449860065443290713e-05 4.124723220594062778e-06 9.440942238828879137e-06 -2.733940033627313496e-06
-7.962006354334361546e+00 4.083872957943636806e+00 2.141576992706279992e+00 -1.892064694915467360e-01 -7.890188570335890939e-01 3.530284990445649029e-01 -8.616624621653738714e-02 1.328719791788470217e-01 -9.777415075679900258e-02 -1.057488299407604582e-01 -2.942034157372558009e-02 -6.565693156983318755e-03 -7.640895662028840581e-03 4.405607060871818276e-02 -8.135431432764324289e-02 3.201538595777778801e-02 -5.024411891310655992e-02 1.317910034101854068e-02 -3.124872553365583630e-02 -1.500135345313607059e-02 3.755053956438784979e-02 5.373429518088438349e-03 2.109990588510161566e-02 1.094687149814776821e-02 -7.476853899984450130e-03 1.302675779324337542e-02 -1.968213160373336046e-02 -5.314877471270521708e-03 -1.543320768960384191e-02 -1.106800944220321693e-02 3.158674677541905597e-03 1.446701702907533284e-02 2.316173826850471702e-03 -1.428916453738019289e-03 -1.096510057357610868e-02 -3.185092066575505136e-03 -1.314985892077015495e-02 1.091785781786524905e-03 -7.409881534085379327e-03 -7.769759411717301958e-03 -6.024511728349992920e-03 -3.016892090960977216e-03 4.848882069733054072e-03 -3.214323680857370425e-04 2.809857796068447513e-03 4.525764072767224366e-04 -1.999494416364851982e-03 -1.759412062923561889e-03 3.722763382365287897e-03 3.548248982185055449e-03 5.431868955713729796e-03 -3.392051136874775063e-03 1.440230923041932736e-04 2.094958339883355031e-03 -1.208395533891670585e-03 1.530622374379155860e-03 1.633434615816137898e-03 -2.257457227720588520e-03 2.646871359103725348e-03 -1.927889472894025980e-04 -6.788538108923725502e-04 -7.908138141223820501e-04 1.728883913258536355e-03 1.999907579883579943e-04 -5.179375616415054503e-05 6.959525861462956785e-04 -1.204408452970723578e-05 4.225831726723032434e-04 -8.231712817453239401e-04 1.383893320605223114e-03 -1.167322037211315235e-04 -1.317338481955366170e-03 9.579784934325641854e-04 6.628481783227114761e-04 2.757604710764055881e-04 -2.809353149156506918e-04 -6.672713451120667743e-06 1.200193568534509191e-03 6.672355105319680100e-04 4.139733807461145839e-04 2.783355119470557631e-04 -5.139919052800479655e-04 1.827609941140766940e-04 7.027075992442449433e-04 2.318246937280847922e-04 -4.729102101471844275e-04 2.148486644219059895e-04 2.159220832216859822e-04 3.679325571901007129e-04 6.476759483839105835e-04 -3.676830048791162589e-04 -1.173813046176665252e-03 9.819744968538748363e-06 4.473285869473483467e-04 7.452460626637189131e-04 -4.478735561989135314e-04 8.184309529030287910e-05 -7.935818136808700952e-04 -6.857150311639503707e-04 -3.546977372161166128e-04 1.485800602345845088e-04 1.431385314421418505e-04 -5.133180813753432251e-04 8.036662260168859519e-04 -5.072201813756255229e-04 7.579630743111611269e-04 -7.871242545913417906e-05 -1.376393987948477590e-04 2.650361947176474572e-04 -1.068476822408471517e-04 1.399745273029283572e-04 1.003611532616783424e-04 -3.249012968712125613e-04 -2.948279696969788571e-04 2.542343663957408878e-04 -3.230059886923201951e-04 -1.757932175590438213e-04 1.200354376663131288e-04 -2.036033642122152460e-04 -3.323434440712802761e-05 4.537102415189169175e-04 -4.214603886916430876e-05 -8.832524257425823893e-05 1.537921670606755492e-04 1.125894181019593539e-05 -2.102354462453051416e-05 -1.843969381924579138e-04 2.110978808894937151e-04 -1.810367237633987204e-04 1.865330991627170843e-04 3.176819034720640585e-05 -6.314221308806061033e-05 3.428968016116917708e-04 -4.031551696066716282e-04 -2.104804151777818879e-04 2.748375215971808316e-06 1.855803096968730204e-05 2.311194433855621598e-04 -2.078808771972579959e-04 -1.853205526855046970e-04 -2.353122357214952197e-04 6.050892470241802789e-05 -2.371525100120380227e-05 3.398636773805733808e-04 9.429452140771210666e-05 7.302384685486541641e-05 8.178119007567416227e-05 2.215486850227859326e-04 -1.319203806876199339e-04 1.134269283959546718e-04 -7.660973684993872888e-05 1.223716452535692151e-04 2.304381835683267364e-05 6.104777318750452715e-05 2.116451193273246841e-05 -2.316377527877036514e-04 -5.373907778507864571e-05 2.041432042629468332e-06 5.899455454377865204e-05 -3.372224226724441956e-05 1.531335627183115286e-05 -5.880175209656794141e-05 1.250633650264993616e-04 -1.615774840577896077e-05 7.415860343335095810e-06 -5.407110639966853321e-05 -1.785391207368171025e-04 1.563826313155632704e-04 2.096811465181345124e-04 -5.798949748763880860e-05 5.855101452375873747e-05 1.665715492643946158e-05 4.549038623736199205e-05 4.824185180934104057e-05 3.972719805543131592e-05 -5.818623529951348383e-05 -5.559255823109962303e-05 -2.447698472510237408e-05 7.485896705575165007e-06 -9.556056438661078328e-05 4.975194084186150269e-05 3.934563472093763414e-07 1.042631100085419261e-05 1.616293734171929287e-06 -8.667324758544655812e-05 2.989315387496042494e-05 -1.475663813932814041e-05 5.456626330039727194e-05 -2.399304350766890534e-05 -2.332511238895470113e-05 -3.213436046525297763e-05 3.854972730366398830e-06 3.054461177682403527e-05 2.986642356768410243e-05 -1.547748237097302723e-05 7.273822292046816890e-06 1.016164314161433769e-05 -7.228493537761037156e-06 -2.434981548722202444e-05 -3.913543734765366612e-06 -4.188555008036209246e-06 9.146166268391150308e-06 -5.044824234644822289e-05 -1.647798743718984009e-05 -7.662726863308514026e-06 -2.247795484072175366e-05 4.740273655718634610e-06 -3.922839120602844761e-06 -1.271220107751479360e-06 -4.257929556914630824e-06 -7.423911215684196690e-06 -4.377482353077629570e-06
4.094642309063802443e+00 7.935335067044871238e+00 -3.944901470627907525e+00 7.260338176423901668e-01 -4.388628021033674220e-01 -2.331789824896925434e-01 2.111433937172359776e-01 -1.268284290070798848e-01 7.935738384407985124e-02 2.455239251634252218e-01 -5.172344611356298472e-02 1.363224529367467464e-01 -1.512428078179262926e-02 -9.113985629382251319e-02 1.027190886388047210e-02 -3.476705300269392757e-02 -6.996598926672363550e-02 2.958607287337131769e-02 2.424561872161791476e-02 2.732422201953887964e-02 1.896691556671368378e-02 2.134032155769680431e-02 -1.592248192247943880e-02 -9.628540833880532002e-03 1.117716649921427565e-04 -2.881585497571088292e-05 3.749389198698954706e-02 -1.485575564661632819e-02 2.480122991683070960e-02 5.785482648884878766e-03 -1.986536937742477971e-02 2.873764608654388614e-03 -1.308700412847204481e-02 -6.103911467613756803e-04 1.000466551830272435e-03 1.312658785185426454e-02 -3.848282673532182029e-03 7.024575006153188986e-03 -4.775015088826516964e-03 1.896045108682313811e-04 -1.251628640903796122e-02 1.161205184492064644e-03 -7.022506263976389766e-03 5.968012194632005361e-04 -2.044259994249900386e-03 -2.301406940461035635e-03 -1.208776260929317597e-03 3.032189532026944440e-03 4.000578082688799678e-03 1.947377033647860892e-03 2.679649189450160514e-03 4.781783507032365266e-03 1.005833030758849275e-03 5.075525913584576129e-05 -1.343506740142693615e-03 1.077712552611145413e-03 -2.116653479608698266e-03 -1.829039133120279525e-03 8.925650970028943271e-04 -6.619804911330466135e-04 1.736934480413008944e-03 -1.152037836891657823e-03 -1.264201192792515846e-03 -1.019123789868260242e-03 3.322025743906127388e-04 -1.214269622284555507e-03 -4.375159998639410199e-04 9.953237004507325698e-04 -1.024426495825360722e-05 1.289922564300886171e-03 -3.629367399919650118e-04 5.840454718106083193e-04 -3.215941774639340892e-04 1.028533229668523660e-03 -1.177417276671139171e-03 -4.853669932938135616e-04 -4.777288161408882873e-04 3.588978475022279045e-04 9.136972889986365353e-04 -1.318528957192221932e-04 1.692387943897839762e-05 2.363372177505378537e-04 -4.675593117589789708e-04 6.230933804570233268e-04 3.930727295313544956e-04 -5.975968573820192791e-05 1.744210440029920215e-04 2.961197216475316236e-04 -3.172658453764729724e-05 3.676890612700940697e-04 1.091183902018883731e-04 -3.329384560704435258e-04 -2.730199125749661112e-04 1.164796812028116819e-04 2.498639911443641896e-04 3.749684649544503126e-04 -1.827070093271304147e-05 1.572293232263812564e-04 -7.434169165313852905e-05 -1.336890284073434130e-05 1.496080315846518266e-04 2.634414459445535289e-04 1.565398935672626906e-04 -2.613324135108768776e-04 8.793134554351140489e-04 8.868022774275455193e-07 -3.858542332295292047e-04 -1.653665277369826289e-04 -4.890786604680940567e-04 4.789603010650341310e-04 -4.208958352472101151e-04 -1.327114845624859178e-05 1.477950858230940643e-05 3.538905753256578707e-04 -5.195497820368931517e-04 9.673601851036337093e-05 1.201810645222383349e-04 1.426367799438995525e-04 2.211948680223660925e-05 1.543471288550706680e-05 -1.796344522758035276e-04 1.023478001813231397e-04 3.880515714319597359e-04 -1.225335043676884297e-04 -1.875940505895175740e-05 2.105807067405473306e-04 5.171044261203898429e-04 -4.708182574714313458e-04 4.562139113244734223e-05 -2.349867747557228363e-04 3.038009138279733736e-04 -1.152447201560909666e-04 -2.145263882193501799e-04 -1.616862098354566513e-04 -2.228632999694424169e-04 1.708049920883672815e-04 1.888279075912883650e-04 -1.618293049109058282e-05 -1.996511017603729585e-04 -1.267239354230853174e-04 4.022640443020466871e-05 -7.673173502030955799e-05 -2.721453162756441333e-04 1.258102931400149915e-04 -1.191793244312663354e-04 3.768775346351940704e-05 1.011588824350318074e-04 1.545474224424808946e-04 -3.903326883033377768e-05 -9.815470188818393644e-07 8.892098267490632698e-05 -7.152938118745330533e-05 -7.283779953913229648e-05 -1.022477582888571735e-04 6.209540725576775900e-05 -6.704528297345377071e-05 -2.242161962196365771e-04 -6.471221211122460751e-05 3.591502335891197015e-05 3.665440511942052532e-05 2.339170651688383942e-05 -1.380830045960428109e-04 2.353604963146222904e-05 9.423877315837804686e-05 -7.566693461587915880e-05 1.398259847796129690e-05 1.772491990940048829e-04 -4.578483442511787629e-06 1.323969394546457640e-05 -1.172445150508130116e-04 4.006811233895867506e-05 3.300992611119341156e-05 1.312320996954648080e-04 -1.782188352933877280e-05 -4.287716863211935941e-05 -3.267409079889081199e-05 8.488020581774285414e-05 -4.105628627705707427e-05 4.959506932261936323e-05 -1.087794182660053506e-04 1.308891471276724583e-04 2.318206837854114373e-05 -8.346686073406773686e-05 -3.454148435026126705e-05 -5.176777799746818710e-05 5.933115599082044818e-06 -6.110464594298183169e-05 3.514545904656289058e-05 3.073493371624624198e-06 4.348266372248939861e-05 2.121791628152903798e-05 4.558225696684757394e-06 7.179420932849970823e-05 3.309430270563684770e-05 -3.283144071354765785e-05 2.619160930142307755e-05 3.837543087585590021e-05 9.320081626953015381e-06 -4.402670418125445424e-07 -2.863740823833932993e-05 2.041938115913804059e-05 -1.821310475483607344e-06 8.422246426492638677e-06 1.048982307169815110e-05 3.722036127918487182e-05 4.033822616638964504e-06 -3.382909769989745220e-05 -1.458535878126397742e-05 -9.108517726132239043e-06 2.323915877116261829e-06 -3.946229014571626130e-06 -3.330476135391358084e-06
-7.962165268354678638e+00 4.084217276943332919e+00 2.255616535875263562e+00 -2.297306219453330300e-01 -7.731416156115987759e-01 3.023736240882879955e-01 -1.225752456776824234e-01 9.567165760948852238e-02 -1.047988084935579378e-01 -1.489869196819739727e-01 -3.473798007670271526e-02 -2.998795204524848032e-02 3.211502131468126769e-02 6.250401408682876303e-02 -7.433424463365792545e-02 5.458254427197848507e-02 -3.509652337812722844e-02 3.042248442894536584e-03 -4.147798880687272177e-02 -1.526754564657985952e-02 2.695321195568486927e-02 1.386457452265526039e-03 1.407122174047458971e-02 9.057997385797498038e-03 2.756897386891561663e-03 8.491553503606929371e-03 -2.521969190560024304e-02 -7.109240563573991471e-03 -1.330770098962782456e-02 -4.205547625363743880e-03 8.414778268518776153e-03 1.799386924084121070e-02 -3.910347049313867007e-03 -4.801444535285887862e-03 -9.947886053955370955e-03 -1.371116390104299690e-03 -1.773084075268264309e-02 -6.340685232664480765e-04 -6.241535509700634442e-03 -6.985166872567210444e-03 -8.354782736605819576e-03 -1.737149876842729833e-03 5.435506421702375815e-03 1.501855238039340266e-03 2.226034678369868524e-03 -1.672480597247084531e-03 -2.919270677765072215e-03 -1.932632008095183911e-03 2.097757742871029889e-03 1.481497457071181923e-03 3.316798541460834644e-03 -4.614724504724489369e-03 3.016932206332373443e-03 9.988245606464632182e-04 7.480520528983461035e-04 2.489950506293354786e-03 2.205382651495609394e-04 -1.507469437613024156e-03 2.564570943844536773e-03 -3.315807964563399464e-04 -2.349922898209243476e-03 3.250725281428994574e-04 2.502869967178302305e-03 9.469218601154148545e-04 -6.287381285053965331e-04 6.004287429025329800e-05 8.789614995784602409e-04 -2.541747546321976282e-04 9.518973856850224905e-04 8.273173903145135052e-04 -1.356451259757558887e-04 6.528014209751994697e-05 5.135642675353847874e-04 -3.407273458042706137e-04 9.323032397788211961e-05 7.612306988438707943e-04 -1.184310824556801143e-03 3.610022391849035427e-05 -1.004295276824806546e-05 3.086544927677522783e-04 -2.486326942489366465e-04 4.169692029439345509e-04 1.390377178455527794e-04 4.048975647479336761e-04 1.815826418684519548e-04 -8.378646617619962345e-04 1.398795827705140958e-03 -5.299317132649568416e-04 -2.214319265855533897e-04 -4.187850978822448673e-04 -1.223253095712080831e-04 4.312090846083314064e-04 1.795777455664127444e-04 -2.076091044552243203e-04 5.835625768446956341e-04 6.901978703107845186e-04 1.939343442136390002e-04 6.050643944385175393e-04 -2.667296726357117238e-04 -3.209507223813890496e-04 -6.168109832014472037e-04 -3.237180061500322180e-04 4.713093146659464534e-04 -6.742625046971399997e-04 -3.796224252038060622e-04 -7.508385237883683470e-04 1.368921734589789545e-04 -3.209857762958686560e-04 -5.477782300463155058e-04 1.110980328491300992e-04 -1.727732264454977500e-04 6.957646892712721944e-04 4.881217424828434345e-04 -7.883737234106880239e-05 1.028710560561089715e-04 2.661738553032083317e-04 1.286271756676451983e-04 3.200360111757375239e-05 5.577728075796036932e-05 9.682241116346330478e-05 5.117241015261272948e-07 -2.303418441543463076e-05 2.509431695151045826e-05 -3.522679754961908442e-04 3.410814865788956880e-04 1.650500787449364861e-06 1.570685117213936469e-04 -7.707213304120898688e-05 -2.832103217366602026e-04 -1.875554638257987891e-04 1.034145021547202133e-04 -1.214513840526578397e-04 -3.801257403937029276e-04 -1.732727480354117743e-04 3.450979823924212308e-06 -1.566941974547543439e-04 -6.412365870986873719e-05 5.841554121184689286e-05 7.286228042018638793e-05 -8.432995577833857952e-05 3.654354568534647269e-04 4.165668535545855142e-05 -1.246373164620438864e-05 -9.129399279001737251e-05 -1.628679720469183238e-04 1.189257568024053074e-04 -1.621908971241922258e-04 -1.265606082823852172e-04 -2.092822490651499126e-04 8.734238518728839579e-07 2.258836478338657679e-05 -1.247181476590451549e-04 -1.180134781713599939e-04 -4.862452814800220070e-05 -1.011310834825497216e-04 6.013207592835476931e-05 -2.833718451943196778e-04 3.820649829035505627e-05 -2.370462926413961758e-05 1.522695608274069639e-04 -2.594284179231301342e-05 8.072853716355250678e-05 4.772514976294815146e-05 -1.055659468263896541e-04 2.448346374547927620e-05 -6.677419787473396742e-05 -1.441754907991837289e-05 -1.181405311864702339e-04 -1.288546462685626959e-04 8.034240342701291717e-05 3.449220548860437778e-05 -8.392199427511186696e-05 5.924174197976691099e-05 -4.753599746401842332e-05 5.982709779527850265e-05 1.528277101163431207e-05 -3.573955641279234410e-05 4.487706689837896439e-05 2.075673894633411413e-05 1.284838876895109307e-05 2.868943621776071066e-05 1.165033288973069748e-05 -7.756592275721053335e-05 -4.629087396121521833e-05 -9.002214042310796590e-06 -2.907265621819035765e-05 1.052935771617516695e-04 -3.240610997280073732e-05 3.281026594533138253e-05 2.365411897073134542e-05 -3.061981797520131854e-05 1.364728909309861571e-06 -1.740098438773458777e-05 3.552375541752327898e-05 -2.573027992295062567e-05 1.528639690068034709e-05 -5.342190412656222151e-05 1.071356811291510534e-05 3.389991362788284299e-05 5.037531647901588404e-05 -2.888431406481357084e-05 7.969144529894347070e-06 1.540074645511538563e-05 1.188083619959675626e-05 -8.421880712188803763e-06 2.089867662133200400e-05 9.694664942456494641e-06 -5.580578219625086874e-06 -1.344345932327357221e-05 4.245846726385182258e-07 9.424423304206120143e-06 -4.044442610716607623e-06
