4.820477136431741108e-04 -9.371435638529994295e-04 4.820280272961586739e-04 -9.371451866994814093e-04 4.820020263711517197e-04 -9.371468437147165024e-04 4.819756783051656088e-04 -9.371480749693092503e-04 4.819580790323840401e-04 -9.371473624587115274e-04 4.819515008444184498e-04 -9.371478243926635544e-04 4.819582672254696669e-04 -9.371508836609332557e-04 4.819630044277362470e-04 -9.371648190482095592e-04 4.819582587436570297e-04 -9.371835239603218144e-04 4.819620486610800528e-04 -9.372105928118545709e-04 4.819658633650010710e-04 -9.372427001276914136e-04 4.819327219614146624e-04 -9.372621917494908641e-04 4.819097336621901194e-04 -9.372741613120108258e-04 4.818762250488191584e-04 -9.372699754306518466e-04 4.818001807175282375e-04 -9.372478260278979852e-04 4.817417174909279388e-04 -9.372084165903884091e-04 4.817096488160856884e-04 -9.371764159072199733e-04 4.816921566695558368e-04 -9.371596853327757897e-04 4.816748695746154085e-04 -9.371691098893751180e-04 4.816553904587172205e-04 -9.371809460123694830e-04 4.816367953282463168e-04 -9.371874992255979512e-04 4.816162114596668118e-04 -9.371944347739668548e-04 4.816053572935260043e-04 -9.371908693708410135e-04 4.815884367663916875e-04 -9.371872586149567310e-04 4.815708543541739536e-04 -9.371763718868311851e-04 4.815700377918550527e-04 -9.371560385699144848e-04 4.815677325576711728e-04 -9.371327471205949085e-04 4.815680864292821691e-04 -9.371153264883872987e-04 4.815631884902267469e-04 -9.370942498475198128e-04 4.815517844102613931e-04 -9.370753580219444434e-04 4.815416495008454571e-04 -9.370551556128016218e-04 4.815457854478729185e-04 -9.370356782497496744e-04 4.815490458139720350e-04 -9.370170058871535616e-04 4.821433014732692899e-04 -9.373811804018976736e-04 4.820642017289384425e-04 -9.373625286694379404e-04 4.819539340920747650e-04 -9.373627515294004125e-04 4.818454753007590428e-04 -9.373674859827122287e-04 4.817418190557988186e-04 -9.373661518315309872e-04 4.815536851548716016e-04 -9.373828502711721057e-04 4.815219757579211309e-04 -9.373882896135648374e-04 4.814902094106548319e-04 -9.373730404526349740e-04 4.814546409646843525e-04 -9.373372883263705923e-04 4.814203801915450573e-04 -9.372732063923006800e-04 4.815958520371224150e-04 -9.372693570258087796e-04 4.815220135895374428e-04 -9.372943157538399326e-04 4.814517286326096875e-04 -9.373203939403086009e-04 4.813836397482085597e-04 -9.373454267967594108e-04 4.815220192020384666e-04 -9.372065159501115177e-04 4.815266523335373638e-04 -9.372187460604142640e-04 4.815406382617746237e-04 -9.372574964837502047e-04 4.814987505259893559e-04 -9.372118814752733841e-04 4.814537728042469328e-04 -9.372131991050966678e-04 4.819953195306367951e-04 -9.372788840952364121e-04 4.819331414437765405e-04 -9.373233034554566152e-04 4.818549965455445287e-04 -9.372916406945707834e-04 4.817824908872781354e-04 -9.372397796648161911e-04 4.818315387927656675e-04 -9.372565693273845252e-04 4.819350763818392347e-04 -9.372672587393898139e-04 4.815251699648020610e-04 -9.372433013721322582e-04 4.814620615363157489e-04 -9.373221873220275542e-04 4.814661078058208037e-04 -9.373440393620047608e-04 4.814568432847455334e-04 -9.372740202575124491e-04 4.814779574056201271e-04 -9.372526329602292238e-04 4.815000933189382917e-04 -9.372300199332300307e-04 4.820526594040892864e-04 -9.373965572196204426e-04 4.819475779979436546e-04 -9.373925642020951993e-04 4.818427124337822825e-04 -9.373921277372003740e-04 4.817450946052874742e-04 -9.373977207081538249e-04 4.815426368578395815e-04 -9.373486769632411722e-04 4.815106992236844216e-04 -9.373540579051327804e-04 4.814776165059245563e-04 -9.373551118653015947e-04 4.814481477773006933e-04 -9.373255478117252645e-04 4.818975237959035262e-04 -9.373299407462352354e-04 4.818843013219757491e-04 -9.372633709624465532e-04 4.818902452441795200e-04 -9.372796437063989029e-04 4.814564098888516534e-04 -9.373603328452942245e-04 4.814904841772864796e-04 -9.372363060796033230e-04 4.814802380896684823e-04 -9.372838959469864326e-04 4.816889348524787135e-04 -9.372535368271104131e-04 4.815583040761871217e-04 -9.372560963102417094e-04 4.815300107676020666e-04 -9.372251838150943027e-04 4.814429394515784360e-04 -9.372071677179698431e-04 4.815550228952298673e-04 -9.372237465081383403e-04 4.814110254244490612e-04 -9.372015889277941466e-04 4.818632096358809380e-04 -9.370649099761165250e-04 4.817399170392825812e-04 -9.371164318165708810e-04 4.816413398280523003e-04 -9.372131697977919293e-04 4.815897872122335368e-04 -9.372325761587309420e-04 4.815558311515939403e-04 -9.372260843436103174e-04 4.815105574944916950e-04 -9.371878920908880556e-04 4.814427832268501867e-04 -9.371682243444424878e-04 4.814928522520988395e-04 -9.371899580972220577e-04 4.815560197689582348e-04 -9.371859282199024093e-04 4.816201981513565833e-04 -9.371734124450099152e-04 4.817079409246325349e-04 -9.371746008758398980e-04 4.817988418880399921e-04 -9.371336888427618441e-04 4.818369828526489576e-04 -9.370830764123249399e-04 4.817385160319948598e-04 -9.371210599028542308e-04 4.816334321595895553e-04 -9.371736513403302162e-04 4.815487815939244469e-04 -9.371655627890345622e-04 4.814599541197760245e-04 -9.371735389192847616e-04 4.815421866463692096e-04 -9.372113401447249633e-04 4.816349434904125776e-04 -9.372222664261067957e-04 4.817460640798850260e-04 -9.371752130357006777e-04 4.818911680331449863e-04 -9.372800725946332919e-04 4.814803945153307277e-04 -9.372836852421043965e-04
9.388054870674496536e-04 4.828177301455252807e-04 9.388237792609016629e-04 4.828918855113719603e-04 9.388573652814082840e-04 4.829605917801607878e-04 9.388931117784409929e-04 4.830353758641970112e-04 9.389204447384100422e-04 4.831028606006227311e-04 9.389429736492515112e-04 4.831717676021981796e-04 9.389667982989930535e-04 4.832452434663620736e-04 9.390142566486881469e-04 4.832969663920894283e-04 9.390897818571377828e-04 4.833377140670876561e-04 9.392020202365527603e-04 4.833462914838633625e-04 9.393404621951919383e-04 4.833251700641754138e-04 9.394777632941169083e-04 4.832902645018281439e-04 9.396335748707248560e-04 4.832298073824183591e-04 9.397943187352286211e-04 4.831538861279272750e-04 9.399360565345121462e-04 4.830677178580442769e-04 9.400372883388534570e-04 4.829848976917363169e-04 9.401074674143709104e-04 4.829151230267509439e-04 9.400374333723405217e-04 4.828611422844213434e-04 9.399440854587182929e-04 4.828227476570507923e-04 9.398379885247236734e-04 4.827779630645789746e-04 9.397296777160522646e-04 4.827377549625417111e-04 9.396239136640056715e-04 4.827063581273212107e-04 9.395121618954027773e-04 4.826790434212178114e-04 9.394021799523471746e-04 4.826589291004840070e-04 9.392925839094010739e-04 4.826499308199889916e-04 9.391751505213274910e-04 4.826535829528568193e-04 9.390773417052949946e-04 4.826702211176874587e-04 9.390020365840907705e-04 4.827073362181674818e-04 9.389505216775657567e-04 4.827498232265692519e-04 9.389037985614596266e-04 4.827978348073582024e-04 9.388639676474744766e-04 4.828496575089525418e-04 9.388232221230882399e-04 4.829001565772090719e-04 9.387876701010538106e-04 4.829522111874999220e-04 9.398192568591339467e-04 4.830315493611568567e-04 9.399176260659735521e-04 4.830771011205556645e-04 9.399966612625874560e-04 4.830604573333757592e-04 9.400633817286550755e-04 4.830485414569296674e-04 9.401180486227911099e-04 4.830339327565646491e-04 9.400688112740883395e-04 4.832103625267013974e-04 9.399538543402700692e-04 4.833063433816028528e-04 9.398218212486278856e-04 4.833707360421498657e-04 9.396803467863839264e-04 4.833783424989246944e-04 9.395129863340329892e-04 4.833323941325585668e-04 9.401701336795359118e-04 4.829069605510506063e-04 9.402787780699026817e-04 4.829235202785400966e-04 9.403938004625963598e-04 4.829383152555413207e-04 9.404998867736628779e-04 4.829533227832044032e-04 9.401440867373158598e-04 4.829748044709147436e-04 9.402146223142156560e-04 4.829360326002915516e-04 9.402787890405841847e-04 4.829530058493286667e-04 9.402361413530213033e-04 4.829961856225529408e-04 9.401826887714891893e-04 4.829890642381468860e-04 9.398708158812885127e-04 4.827764407087874708e-04 9.399021910816566291e-04 4.827375316744881369e-04 9.399473539546559543e-04 4.827723382860902397e-04 9.399079590451006301e-04 4.828777858196868196e-04 9.398893694074080506e-04 4.828559472688186398e-04 9.398682617598066004e-04 4.827994869945180728e-04 9.398691013445813506e-04 4.830102979899231273e-04 9.397905467305500736e-04 4.829677529762780620e-04 9.396987493052533572e-04 4.829913852662132438e-04 9.396215952572488416e-04 4.830795895086213623e-04 9.396810528148317630e-04 4.830654117884241303e-04 9.397979349056623547e-04 4.830232283599872919e-04 9.399186448890443826e-04 4.830626440892489808e-04 9.399992185207207886e-04 4.830406698184667611e-04 9.400658765071983301e-04 4.830223695889982382e-04 9.401160484630974225e-04 4.830121212076140982e-04 9.400627464530437712e-04 4.831599427013321844e-04 9.399500295335000465e-04 4.832446718599576660e-04 9.398204812425875118e-04 4.833305113631201650e-04 9.396744858419094982e-04 4.833647699717415463e-04 9.399307053400470652e-04 4.827313838002340765e-04 9.398757326281475567e-04 4.828309550402110962e-04 9.398964399046298279e-04 4.827981016724740911e-04 9.397453716600652138e-04 4.829600639479498516e-04 9.397349582609671164e-04 4.830433254102170591e-04 9.397422226927793941e-04 4.830172318543617463e-04 9.400391405078687302e-04 4.828913593633965117e-04 9.400161823403531099e-04 4.829596187532789013e-04 9.401079795652712671e-04 4.829685251502802102e-04 9.401775108189668181e-04 4.829923523631785248e-04 9.400957770129170655e-04 4.829497807904756636e-04 9.401456130037329304e-04 4.830037767286708261e-04 9.399953512787953330e-04 4.829754108116327753e-04 9.401708815057088602e-04 4.830453783052936472e-04 9.402616597199431325e-04 4.830582510220979330e-04 9.402482467353500068e-04 4.830814333889471850e-04 9.402100755468389926e-04 4.830756453683534494e-04 9.399344765925875689e-04 4.831204669191634040e-04 9.396614296008809659e-04 4.830664492076182999e-04 9.397929969839692891e-04 4.829151275866016505e-04 9.399729535716755792e-04 4.828186655741945922e-04 9.401699626646602571e-04 4.827781173565518901e-04 9.401636407837970534e-04 4.827968256069218212e-04 9.401091280906288773e-04 4.828712486961374197e-04 9.400076019616329659e-04 4.829759318313192628e-04 9.401321763572304587e-04 4.830442706644951217e-04 9.402178378163883422e-04 4.830853265580981764e-04 9.399520351320128338e-04 4.831051745074233265e-04 9.396800063464994185e-04 4.830549501202349434e-04 9.399049627264132161e-04 4.828476905006206642e-04 9.401802130622321238e-04 4.827877977196193488e-04 9.401266099719616165e-04 4.828240879868451020e-04 9.398973782185946575e-04 4.827973881642503955e-04 9.397441395767064821e-04 4.830170514383453099e-04
-7.442126244010354753e-03 3.426086241824126757e-04 -7.353135722537469318e-03 7.440421708547406091e-04 -7.176875304954802824e-03 1.139210006993987079e-03 -6.954624551026668267e-03 1.530104967224687725e-03 -6.751037559199513614e-03 1.903222810129390642e-03 -6.532610416771968825e-03 2.261131051056454195e-03 -6.270125139203486936e-03 2.587401282818149132e-03 -5.858807564167374873e-03 2.855035298534431675e-03 -5.259130531492303175e-03 3.007066685818224339e-03 -4.554673691467239771e-03 3.032100931692439157e-03 -3.791729538389831608e-03 2.960100437992904763e-03 -2.921622882756446955e-03 2.756225687678861506e-03 -2.057121221555187687e-03 2.493096797423337199e-03 -1.127047406858712681e-03 2.118222550035219962e-03 -1.129972712615778590e-04 1.574005994663981453e-03 7.261994776116692529e-04 9.145623798558332601e-04 1.267652900992999147e-03 2.057504804858479002e-04 8.250622072322579340e-04 -4.607093498181258654e-04 1.324961567950935239e-04 -1.039783132665835635e-03 -7.405082939203173030e-04 -1.542626729382644626e-03 -1.634984358395021259e-03 -1.931907533708750657e-03 -2.455747257368196077e-03 -2.224067674005928037e-03 -3.263466294351575689e-03 -2.444208532876930313e-03 -4.013481861428198905e-03 -2.572488859354368860e-03 -4.691125301202006027e-03 -2.587084347224103114e-03 -5.278164431565335671e-03 -2.494221693382489037e-03 -5.686106736170621657e-03 -2.283421044458315390e-03 -5.958522753925198263e-03 -2.010527776729802239e-03 -6.149009875366668459e-03 -1.699370674707979551e-03 -6.331372361701148241e-03 -1.376461287526398788e-03 -6.531755087073635828e-03 -1.045092627389037493e-03 -6.692691700081715434e-03 -7.006661257911804943e-04 -6.806628033710397652e-03 -3.450328403467353396e-04 -1.099201867849406442e-03 8.722442691822844194e-04 -1.775879998513838084e-04 3.580866982846186855e-04 8.504346073489105944e-04 -3.004672791159517951e-05 1.830987834173625206e-03 -1.561295345089602543e-04 2.730269355924293522e-03 -1.594479002269775505e-04 3.160300164422219331e-03 7.661656202357066737e-05 2.570820139911212093e-03 4.673898828382554968e-05 1.898955213093897259e-03 -1.089468729460710842e-04 1.171998095014168025e-03 -4.517973049047090497e-04 4.337175091715770475e-04 -7.111173759075415735e-04 3.251671010486836474e-03 -1.683829512174582228e-04 4.103445273768019375e-03 -1.431004102883235069e-04 4.997675666572307801e-03 -1.141981116748058434e-04 5.839074649929596773e-03 -9.156371624056618239e-05 3.170309262658442800e-03 1.109379661936714552e-04 3.468308740855421957e-03 -1.776401635088840447e-04 3.684417754026000219e-03 -8.493563642252795795e-05 3.522736039938894909e-03 -8.864749919798232860e-05 3.304080263372340034e-03 -3.819952068312892283e-04 -3.787629979093969242e-04 3.359470923739345792e-04 1.068781061282738417e-04 1.841019923783496529e-04 9.610609763282269413e-04 -9.937043348493812263e-05 1.271683205141478255e-03 9.171230086079965797e-05 9.001121695451658883e-04 2.290216187167795397e-04 9.115273987254618839e-05 3.229624182013466423e-04 1.656997088193561942e-03 -3.559019367913685374e-04 1.570872092958176163e-03 -3.489583057902129366e-04 1.171721502981203696e-03 -6.423764697292867754e-04 8.574405646942730077e-04 -5.576485893132888125e-04 1.112933459168320965e-03 -5.407110083182294948e-04 1.507788119107041644e-03 -5.455557504201714002e-04 -6.943748646330757653e-05 5.413149578386971259e-04 9.475754428358340630e-04 2.480253393289189924e-04 1.908590581935119606e-03 1.356580329894217763e-04 2.777828040835605278e-03 9.879041863588697758e-05 3.199273248522889208e-03 -7.691980784270649354e-05 2.630034753173135682e-03 -1.197947138447802553e-04 1.972662396186688951e-03 -2.244980680462558360e-04 1.264307488070337939e-03 -4.528702355707776937e-04 5.185929923293839316e-04 2.112723851381821623e-06 5.044604676928817963e-04 3.008016589040401166e-04 4.891946560740504258e-04 1.676216771826157144e-04 1.365887055744506758e-03 -5.350845397901085685e-04 1.310703605115318398e-03 -5.732605766928115841e-04 1.313835887027339127e-03 -5.148807530454130310e-04 2.257409621853352383e-03 -3.835329369922575054e-05 2.450906165527100798e-03 -2.616742538945447541e-04 3.041350587032372321e-03 8.818660991788153573e-06 3.176612754682815471e-03 -3.267030169936176870e-04 2.844290770761964855e-03 1.477286010647624076e-04 3.096935205936141716e-03 -4.075977548451175042e-04 1.771230643866721327e-04 1.701462438361019515e-04 1.843670375395341926e-03 -1.449293204279424644e-05 3.277602519744235617e-03 -6.769624837978819654e-05 3.480345598199248089e-03 -7.729000022393417988e-05 3.484946277907722927e-03 -7.467383190799703366e-05 2.247277744909636360e-03 -1.578951442010431607e-04 7.833177988300738751e-04 -1.838204372657659797e-04 1.497217935775746293e-03 -2.185202262092444665e-04 2.209508982202947232e-03 -1.204985411119559264e-04 2.720372832111833412e-03 8.317066655908939596e-05 1.977219963613993832e-03 3.087053056921111030e-04 1.053846272721882830e-03 3.325997266657500792e-04 3.378778739196694773e-04 1.396857751922367787e-04 1.763982182754736568e-03 -5.138414294414924869e-05 3.126711993639931519e-03 -6.344498163570406254e-05 2.039500482760463630e-03 -9.709725101446158545e-05 8.671563238177618874e-04 -1.692380534560597503e-04 1.815468425651888072e-03 -1.454382654358983714e-04 2.720810047186723001e-03 2.658282420552514631e-05 1.551914959702280477e-03 1.728659356121099689e-04 4.900607751116435509e-04 1.756121827503431636e-04 1.315900396834157387e-03 -5.189264864010844063e-04
6.647126915175916549e-03 -2.020338026923333349e-03 7.289389461871810180e-03 -2.047157165047889821e-03 7.632297373386671101e-03 -1.986536642108146285e-03 7.742861698864729296e-03 -1.931978279025621395e-03 7.555015554960891472e-03 -1.901504285980785318e-03 7.479340537903002642e-03 -1.781924585383173843e-03 7.783825072008288513e-03 -1.874108633789495475e-03 8.161763711258452139e-03 -2.195967857817104300e-03 8.426492664417931100e-03 -2.666299218541377716e-03 8.904091044253787529e-03 -3.388975109097398884e-03 9.222946823446726700e-03 -4.148167175734761292e-03 8.473396815300520898e-03 -4.386485079715716530e-03 8.162079658549105041e-03 -4.681667027948656877e-03 7.552798720052184868e-03 -4.738476978051454208e-03 5.564507969533090750e-03 -4.109302159789906574e-03 3.510846561299379564e-03 -3.066231319975566867e-03 2.235730911918847735e-03 -2.483803189136860393e-03 5.273992071755839901e-04 -2.479220997214219048e-03 -1.972233110529546772e-03 -3.437625087817938394e-03 -4.849430165707193686e-03 -4.328290820333111598e-03 -7.048851467344290078e-03 -4.684224384831319442e-03 -8.796486067552091587e-03 -4.834691701976701061e-03 -1.038926940939681638e-02 -4.781445970449472137e-03 -1.139738426327164232e-02 -4.291538333449041939e-03 -1.190738852871814531e-02 -3.605485133103621728e-03 -1.213812839419695089e-02 -2.789971594228081702e-03 -1.201726860726529990e-02 -1.998029573397283338e-03 -1.185729328232752212e-02 -1.243111976078360150e-03 -1.206053555067446680e-02 -7.597846879676742587e-04 -1.248859523612657653e-02 -1.327023542008885131e-04 -1.282501973498728805e-02 4.222356258581511914e-04 -1.283619701036702032e-02 1.128658528016441816e-03 -1.232981307938630158e-02 1.703942678250169309e-03 2.188685920003832774e-02 -2.174678396829988558e-04 1.902658064178829045e-02 4.047058678982359999e-03 1.498943651186908886e-02 4.123856188042698129e-03 1.073058733910534253e-02 3.336584326332068650e-03 6.501723181976713263e-03 2.177800563564083556e-03 -5.205787240548813422e-03 4.209758507890597710e-03 -9.754198634061961304e-03 6.434813253368957056e-03 -1.458550038421810129e-02 8.329592673703430095e-03 -1.966856079477327310e-02 8.931498818829318107e-03 -2.390397254562712584e-02 5.922055265967805793e-03 7.760786178317278681e-04 -9.533343664701638027e-04 7.370112261862432190e-04 -6.678350086497125704e-05 6.856823758774841524e-04 6.873187139234928278e-04 7.456731041585449356e-04 1.587807549168861968e-03 1.158958400467417988e-03 3.614484871622821393e-04 1.519519529391919616e-03 1.314280034418534564e-03 2.167247374669489628e-03 1.003134424375191165e-03 1.291348435862384484e-03 1.909317348280660824e-03 -3.782509999291914279e-04 6.889625320413254872e-04 1.788428553383647132e-02 -3.407370620950102812e-03 1.524683222806736717e-02 -1.415770902163272262e-03 8.477022437444131989e-03 -1.783687054863086026e-03 5.100349647009166411e-03 -3.188596240392325542e-03 8.506996805791739932e-03 -3.712149004826103150e-03 1.490815286950850430e-02 -4.440609420580706422e-03 -6.177458234152079057e-03 -6.710074644093605174e-04 -9.713471828067440569e-03 1.000319341448885607e-03 -1.604621780937304926e-02 2.862353967128423559e-03 -1.923054808152362821e-02 1.995517343469266087e-03 -1.638391184674675358e-02 6.548107955069414890e-04 -1.011252178257596342e-02 1.588222799821070838e-04 1.885754343513086628e-02 1.061319559772757682e-03 1.496052203526034713e-02 1.235810346881026454e-03 1.077532072757087477e-02 6.257012564185844908e-04 6.578241205518147935e-03 -1.339154349209055992e-04 -5.519353821179961116e-03 2.790457962245681666e-03 -1.006995586020705685e-02 4.579832869550988332e-03 -1.488594710386664279e-02 6.275127674417456912e-03 -1.967564650832716311e-02 6.905799551888198128e-03 1.185671477379510348e-02 -9.224468561406548410e-04 1.167635597648141420e-02 -4.357097774037604725e-03 1.169430646792289120e-02 -2.862394180537135031e-03 -1.278585598605431507e-02 2.525072093207632318e-03 -1.329719772741101702e-02 2.167275241153111018e-04 -1.297215288804632119e-02 1.113386846924609283e-03 2.929083890201022132e-03 -2.048933077421236267e-03 -2.737160686126883808e-03 -8.178641555027578751e-04 3.395913863536863839e-04 7.439942864881808268e-04 -2.700657339431887462e-05 1.485338455207096085e-03 1.458138268761314952e-03 -4.129808118276211528e-04 -1.612047611201008123e-03 1.052786598772811064e-03 9.921375786290015375e-03 4.003381636071471185e-04 7.679123502967124051e-03 3.039260306014791423e-03 4.790971507425746158e-03 2.874077273078038102e-03 2.279479234261117069e-03 3.226043826542228810e-03 -1.324780014439785100e-04 3.409384456038462748e-03 -4.144641860305115465e-03 4.376587158246462300e-03 -8.460556230548685330e-03 2.763785330941008478e-03 -5.259376579902626421e-03 4.077507735837212956e-04 -1.525765654072720138e-03 -8.623171853813303266e-04 2.169457610209592560e-03 -1.228005357401636393e-03 4.902175489063067756e-03 -1.963095403993975196e-03 7.809345619416790951e-03 -1.388262847653857395e-03 8.658078127797955853e-03 6.045257224346321529e-04 5.987383186414524210e-03 2.312994320925645074e-03 2.800028425328974276e-03 2.493516977791316539e-03 -2.170921979006775523e-03 3.614157880692166550e-03 -6.984919811685702182e-03 2.761520606041532443e-03 -2.469394044167755146e-03 6.831802591350385426e-04 2.614833983200708784e-03 -6.908711060055313042e-04 5.881864537672257948e-03 -4.165641914665038029e-04 1.172371256423192752e-02 -2.860819840231607070e-03 -1.293292482372000902e-02 1.108928100870331746e-03
-1.384424392022931376e-02 -2.085852176307304712e-02 -1.327231734475281533e-02 -2.018386113196511678e-02 -1.273301719399073592e-02 -1.959212827384962732e-02 -1.236998564714701654e-02 -1.876329546807627840e-02 -1.227589383776281871e-02 -1.813587734389539297e-02 -1.195751915059186515e-02 -1.735054491151787406e-02 -1.145372060395358563e-02 -1.671839098575905042e-02 -1.042391757339070253e-02 -1.625279899314615445e-02 -9.040023371521608078e-03 -1.592574773055982149e-02 -7.212578834886903406e-03 -1.621648359199050204e-02 -5.244187995876032661e-03 -1.676178010087406300e-02 -3.406471343157456335e-03 -1.731960278908591805e-02 -1.953292188961700156e-03 -1.780833548809621428e-02 -9.843922889418029419e-04 -1.780935523748157501e-02 -2.351623792128732296e-04 -1.752241549168031404e-02 4.624573067240527803e-04 -1.718993012180065894e-02 1.053407925287706609e-03 -1.696426953717161679e-02 1.513506127411141933e-03 -1.661482313547358106e-02 1.860932001846443608e-03 -1.645285332012920432e-02 2.263485592041465742e-03 -1.666377005869402322e-02 2.819030426111693386e-03 -1.664341995988252720e-02 3.977834428986058019e-03 -1.622756548346205446e-02 5.411408612206218376e-03 -1.554234890900305088e-02 7.225313492778733318e-03 -1.483665201237318459e-02 9.009254613725311417e-03 -1.444993420584037361e-02 1.030184957311542672e-02 -1.455571639389731733e-02 1.110892131778980566e-02 -1.503869327833092656e-02 1.142500055641499507e-02 -1.560868972617411587e-02 1.135448821786645864e-02 -1.637713746284327060e-02 1.103010310605120718e-02 -1.688728555665876263e-02 1.060887709933266802e-02 -1.774058863753603249e-02 1.035541663908724416e-02 -1.840606677205636546e-02 1.022276289189387975e-02 -1.913107682947182142e-02 -2.894863437992392478e-03 -8.750544138315986559e-04 -1.612154771203292607e-03 4.450144239286936247e-03 -1.619568722879796870e-03 9.299943427665898973e-03 -2.327001654187825421e-03 1.187406670177746336e-02 -3.129619871477086392e-03 1.270007611490351664e-02 3.265773003797902557e-04 1.482179234387690121e-02 -6.452125383366719407e-04 1.551287203544028138e-02 -1.845379268952304294e-03 1.435123469019948354e-02 -2.354436395769389165e-03 1.083985735874186743e-02 -1.953574907021705595e-03 6.425324468663953618e-03 -6.079447714507328361e-05 1.226563319954542333e-02 6.802414118207016124e-04 1.442487596127941564e-02 1.432653399924960430e-03 1.646538214426839647e-02 2.165784051912542866e-03 1.855235494347406977e-02 2.523860847944519020e-04 1.067555787533023062e-02 1.405283370821887529e-03 1.164429710762283562e-02 2.535003069890519670e-03 1.291627460806527017e-02 2.775355661575072685e-03 1.232410693092421405e-02 2.751191770634926152e-03 1.154114506381842889e-02 -1.210701545103452402e-03 3.694003392188306961e-03 1.217252863463102708e-05 7.425370234784020064e-03 -1.102767710179165632e-03 9.789328836725046806e-03 -1.629636965845282504e-03 9.249068129388561543e-03 -2.075785326670404399e-03 8.715775950597540178e-03 -2.178299745652749475e-03 5.718493905037706077e-03 4.836603311026230353e-04 1.277519932392179834e-02 -1.945783111221002909e-05 1.433680799630518074e-02 -1.274383753855032244e-03 1.404128798380865385e-02 -7.173782901511215147e-04 1.110727096053780102e-02 1.508629752298391922e-04 1.244227531924547644e-02 4.370092596356095916e-04 1.352939353513105646e-02 -1.976250980373139149e-03 4.742981817210193025e-03 -2.019775535752755223e-03 8.479177620437934604e-03 -2.788480393386802165e-03 1.027495537408040782e-02 -3.551652748317890053e-03 1.136443984306928154e-02 3.824023452929434914e-04 1.336918020732053534e-02 -5.498268329753264140e-04 1.396935135083478621e-02 -1.582683024436861265e-03 1.378780545874128648e-02 -2.232802471072927938e-03 1.126519008513588403e-02 -2.881126881888183052e-04 9.575818147495661348e-03 -2.416759551788117029e-03 7.708307558126715163e-03 -1.411442356821338267e-03 7.739941394243106225e-03 -7.714629083857172265e-04 1.525250953818361142e-02 4.124644609769091783e-04 1.359902049413345623e-02 -1.561975287761857968e-04 1.342103013133088239e-02 -8.068004585794927254e-04 1.076209210114343305e-02 2.507818425408544095e-04 1.252107442522373479e-02 -7.122916987301341780e-04 1.117344329858837096e-02 3.689222516077240652e-03 1.218462393872674944e-02 -7.446265275587081673e-04 9.813272756230903907e-03 3.431828287548198408e-03 1.162067347812581301e-02 -2.999946922330701152e-04 -5.961438611878925459e-03 3.479894681413389559e-03 3.667182113092679920e-03 3.210210843998694084e-03 8.737557071327149011e-03 2.624908041156268079e-03 9.497967137089939615e-03 2.013714639073254601e-03 9.813256498638017397e-03 1.030495361595286678e-03 6.838231435865448939e-03 2.827192785296923049e-03 -1.719321334260682501e-03 2.751512593152370982e-04 -6.043395234844205731e-03 1.340906125171308084e-05 -9.065148648237382478e-03 1.207701202615766006e-03 -1.068597045597555542e-02 2.032331115604632272e-03 -1.065400141877083547e-02 1.791272287320568382e-03 -9.019018217566386955e-03 2.630016731797094162e-04 -4.457589367973977326e-03 2.297445573898370189e-03 3.190549961853285377e-03 2.445759870155667180e-03 6.274724449698235000e-03 1.775543180693311312e-03 5.726616244400340588e-03 2.111133036813967519e-03 -7.272625468303263582e-04 7.996014999007502880e-04 -5.265535997237299690e-03 1.461437370745246895e-03 -7.476743391194024327e-03 1.649416983414947035e-03 -7.084548377405815341e-03 -1.369500414878789367e-03 7.737904924947949271e-03 -1.654595173708494390e-04 1.340628261727471772e-02
-1.769677670861658988e-02 3.192112459862121721e-02 -1.650745593278426376e-02 3.022980115016455499e-02 -1.567246849989964094e-02 2.867417139155734734e-02 -1.500909208476124829e-02 2.695152344538121261e-02 -1.520689760698753015e-02 2.559830386787956963e-02 -1.585697549488678665e-02 2.430236575222670045e-02 -1.606129556512474882e-02 2.280454962346204276e-02 -1.519160652113389978e-02 2.032921030863913195e-02 -1.342765410559400470e-02 1.741224012370803931e-02 -9.545215275146325118e-03 1.247629003313874274e-02 -4.527471570842467839e-03 5.939106535711088757e-03 -6.570005884533836277e-05 -1.713731193715713414e-03 5.214019166689440321e-03 -1.076990961861048514e-02 1.026057912833074764e-02 -2.005066395072655633e-02 1.204889315094053934e-02 -2.741698057785164205e-02 1.092778942926972766e-02 -3.087264274262554661e-02 9.110586212312539456e-03 -3.086081988161671480e-02 5.552262343270493276e-03 -2.770581058349650891e-02 3.325040186627394988e-03 -2.267684555328070700e-02 3.302305099280986814e-03 -1.566417357313931724e-02 4.670907096594949237e-03 -7.772132269926116353e-03 6.676172299831597233e-03 1.084845394759931882e-04 9.137714212874320507e-03 7.505067815737054109e-03 1.085650018372228374e-02 1.381492666989759914e-02 1.221811111102667942e-02 1.879245650748355076e-02 1.340846622803346967e-02 2.315281189711737922e-02 1.370267893927475111e-02 2.676829641141518362e-02 1.349731531111741586e-02 2.990850814520694401e-02 1.250126051069153262e-02 3.286680519889124269e-02 1.095162056319404394e-02 3.633603658767051853e-02 9.169635807046359194e-03 3.924425069225008500e-02 8.348216105002803644e-03 4.217328729241845431e-02 7.666165155661918210e-03 4.534976369511468236e-02 2.190128495817556236e-03 -1.130900065333232882e-02 1.724031093959209121e-03 -9.846759729729013394e-03 -8.904422719428290106e-05 -1.234578390376681913e-02 -1.433955537364909726e-03 -1.414590231272330918e-02 -3.133431833611603681e-03 -1.494163826365652037e-02 -5.309015150907378869e-03 -6.202739775482021128e-03 -7.313555133707858383e-03 1.303710153476655021e-03 -9.913383351619502182e-03 9.271669694356618821e-03 -1.401038297989137815e-02 1.648990745277362571e-02 -1.905686646366478929e-02 2.045706511374086739e-02 -8.414461277107156264e-04 8.237126684691387785e-03 -5.526975568415765355e-04 -3.270830407158429546e-03 -2.177606164944692732e-04 -1.456404548270432732e-02 3.590946526423760836e-04 -2.573362065965873607e-02 -1.220861642046983239e-03 -1.412906670811467369e-02 2.840453648543539347e-03 -1.909196306659381726e-02 5.985013932132886467e-03 -2.059968791866072929e-02 4.218203827505896501e-03 -1.609625540357740789e-02 1.588921385138874218e-03 -1.110171435110129771e-02 1.027538718564334269e-03 3.154764471589935077e-03 8.260973411889779242e-04 9.235857657085063538e-03 -4.990227880379341334e-03 9.215747098787165775e-03 -5.120809843865791085e-03 4.274777323991069654e-03 -3.687016727953930199e-03 3.542809151421380705e-03 -1.026484482136194148e-04 1.163170959261693779e-03 -2.290813421306843629e-03 1.861054743882762860e-02 -1.405694510150148771e-03 2.649709638212938839e-02 -5.963068504465640456e-03 3.562743482472146422e-02 -8.447773949489496143e-03 3.356170023230469618e-02 -8.714256508651731931e-03 2.960351142442009878e-02 -5.586313777348284569e-03 2.441296697048406586e-02 1.058752120230208428e-03 -1.264968004474954777e-02 -4.239139966472437837e-04 -1.404996650159134712e-02 -2.125041575410056664e-03 -1.473868084402970603e-02 -3.809364110416338378e-03 -1.483469384468580690e-02 -6.281223847780085558e-03 -4.281299138983176225e-03 -8.404510595027519029e-03 2.496856709426632879e-03 -1.103289188331102628e-02 9.909458385613174533e-03 -1.494022743444090723e-02 1.603614053754629648e-02 -2.132056413212820960e-03 1.106633693070233591e-02 -1.944177569009835184e-03 1.839513663067315116e-03 -2.129893332686406092e-03 5.538699067238860539e-03 -3.109552884343039572e-03 3.348451979327459610e-02 -7.578721999735586051e-03 2.703916817275175619e-02 -5.374403324612251828e-03 2.866520932942245511e-02 -2.849506973158697203e-03 6.227234400838606125e-03 -1.637643293513079985e-03 1.343582417726334882e-02 -3.958785497265506913e-04 -1.520162337891543293e-02 1.401158092316476570e-04 -1.021573029384494589e-02 -2.876117841992253347e-03 -1.624594044121551589e-02 7.229297330864345233e-04 -8.163389526613776953e-03 9.136454982517210402e-03 -2.156882192394411757e-02 9.196978003013243919e-03 -2.581237247412449323e-02 9.268014493352247710e-03 -2.910922955678216933e-02 6.652677884453019573e-03 -2.864487234872641411e-02 4.196019080572371308e-03 -2.618755611755502200e-02 4.345542550695490926e-03 -1.711364953743813727e-02 1.668152051019893391e-03 -7.088978752545833928e-03 2.245289604746901133e-04 -1.941661022127893002e-02 1.954869987335893303e-03 -3.071723181318771617e-02 7.886939067712164797e-03 -3.744015899021444632e-02 1.163644465226080019e-02 -3.713023278112862618e-02 1.233229545854899745e-02 -3.031141715536242454e-02 9.185470927446249406e-03 -2.295669613890098312e-02 8.183515369626619823e-03 -2.769137682221632646e-02 8.034705520682488070e-03 -2.845796191728625427e-02 5.205350186534014878e-03 -1.992114296481880056e-02 1.220228216337992076e-03 -9.490373838473680976e-03 3.838607880136483616e-03 -2.410230859024513339e-02 9.232878939783096747e-03 -3.348230022982381926e-02 1.006334023904695632e-02 -3.138510653787484478e-02 -2.103262254395153654e-03 5.381627308967575421e-03 -5.460374416424995658e-03 2.880143598597868088e-02
1.350699592427506528e-02 8.424964260364993518e-03 1.330579084904702329e-02 6.398447196111183531e-03 1.236766473936800649e-02 4.743607984143048684e-03 1.126874170793129050e-02 2.297621712291610802e-03 1.054673568988066280e-02 5.235845428485534419e-04 1.079196756504336233e-02 -1.578372983163909204e-03 1.260253208098611848e-02 -4.077053339462287027e-03 1.397731957878813741e-02 -6.316745955896270470e-03 1.547867334299155538e-02 -8.985846795295229436e-03 1.629473494760046159e-02 -1.171232385770946266e-02 1.606129918059913744e-02 -1.387350962854776333e-02 1.525360178832756500e-02 -1.587859547888472930e-02 1.327240061486094358e-02 -1.699986393157315590e-02 1.024685529313633381e-02 -1.702341803513778701e-02 5.531599751064732867e-03 -1.530662899099772753e-02 1.195935044390822148e-03 -1.258171991166174772e-02 -1.924133469130025805e-03 -1.135338028127051875e-02 -4.449249557353704594e-03 -1.228325503623469046e-02 -8.096360094870302948e-03 -1.442816942781202649e-02 -1.168475316312408627e-02 -1.532626751122206574e-02 -1.452682307703550765e-02 -1.518691129757404092e-02 -1.630722431692724350e-02 -1.405414191823230186e-02 -1.724303015530890063e-02 -1.250182198850165703e-02 -1.801662394827989455e-02 -1.044059307780467565e-02 -1.904345550467109391e-02 -8.211502991385830064e-03 -1.899682369805963389e-02 -6.289484464989552638e-03 -1.857928917839179322e-02 -3.754296615502126112e-03 -1.781429040381538043e-02 -1.581015283286649415e-03 -1.760643951611698399e-02 8.099477902477594717e-04 -1.759076670628895514e-02 3.279998421363849309e-03 -1.785082304049245491e-02 5.451835639438519857e-03 -1.799387778719899189e-02 7.787521685659511313e-03 -1.807768785444021503e-02 9.995686223959359892e-03 6.936925916616436434e-03 -4.394560235630624867e-02 4.022607949328747649e-03 -4.648516073643781110e-02 5.252817140109446083e-04 -4.418651157433457072e-02 -3.854638126839025035e-03 -3.926832348839991160e-02 -8.555941732247369577e-03 -3.242395623047711339e-02 5.730067216361249376e-03 -4.054605450015701801e-02 4.141572831857262375e-03 -5.081278158689107871e-02 2.496430347712974736e-03 -5.670729681197522742e-02 2.170494939645781565e-03 -5.864099861003291281e-02 2.209837119822002666e-03 -5.477875476690575313e-02 -3.199765521656991506e-04 2.377998252116760025e-02 -1.420496302760821663e-03 2.077379653783550245e-02 -2.549305775250094563e-03 1.806496652293385768e-02 -4.033725035843965974e-03 1.570671826429033066e-02 3.225200853277700782e-03 2.286503998254703005e-02 -2.489441293909645434e-04 1.987358376040828170e-02 -2.850419652103473520e-03 1.829147919081154997e-02 -4.916395343341516296e-03 1.955234500812225162e-02 -6.559055883087781987e-03 2.416638588913585378e-02 -2.912277039094442101e-03 1.962470843195159367e-02 -2.033287491242261817e-04 2.231043777354015448e-02 1.368666019149496812e-03 3.055186093527021557e-02 1.607007370128782744e-04 3.076085227635882297e-02 -1.434971432793477218e-03 3.407523202890168357e-02 -5.410060499456100132e-03 2.873924572432066948e-02 2.678545784249383374e-03 2.759184813387048976e-02 3.254721058263012820e-03 2.565597485688965451e-02 7.355641314082895545e-03 1.719646405392307245e-02 1.019186665164932733e-02 1.470286009480887071e-02 1.148167750126739828e-02 2.370403439518495997e-02 6.163274976645003421e-03 3.038006643452993011e-02 3.995670454392612723e-03 -4.594636279231756326e-02 1.898695321567548950e-04 -4.120326987462153562e-02 -4.762498613456898552e-03 -3.490455427045624504e-02 -9.197827719911951666e-03 -3.047106699899975943e-02 6.714998652918410978e-03 -3.782240008826265321e-02 5.160619062715543666e-03 -4.522771199988601803e-02 3.607510946390375325e-03 -5.385885683942549101e-02 2.784085588060042447e-03 -5.805090594748030935e-02 1.855184450432701727e-03 2.702143101109434967e-02 -4.119936405273502515e-03 3.395020950531899701e-02 -1.336383095935395494e-03 2.837185695775280153e-02 4.415591605924396555e-03 2.108258218109364257e-02 9.404162314246178322e-03 2.977690624653438201e-02 6.829766015242880878e-03 2.378278543777205198e-02 3.348793786143810071e-05 2.728715391117399539e-02 1.070791562350733228e-03 2.570203740642022783e-02 5.121449486718813830e-03 2.368994174168476477e-02 -9.452417130055991434e-03 2.380608690372065794e-02 7.930171405944588456e-03 2.306013074066986385e-02 -1.085087513858587135e-02 2.400174827952945150e-02 5.651522504962814587e-03 2.507439458421653264e-03 2.307190842345203333e-03 8.523465132323588753e-03 3.902921886389862502e-04 6.661080177104243376e-03 -2.246958840024747533e-03 5.245672390553198124e-03 -4.827629973424929152e-03 5.946456288794527492e-03 -3.156393057398310890e-03 7.464720936949434046e-03 -6.754565502553618430e-04 3.022020703941349917e-03 5.989713652033691821e-04 7.581325696196372123e-03 1.429727549474218724e-03 1.245130329016920848e-02 5.739866095859504731e-04 1.447493450642421166e-02 7.076040712935646087e-04 1.161899226257233353e-02 3.253250425219721912e-03 6.576930603498179310e-03 6.312304803436471351e-03 5.630407811401601757e-03 1.463396888110440929e-03 9.370881814376745902e-03 -2.027794894593959538e-03 7.643727266921691681e-03 -1.686240043352643832e-03 7.969301403581700860e-03 -1.111316408856000918e-03 5.620050961622423749e-03 7.488618246261579108e-04 1.231981436809881890e-02 3.133260162957695856e-04 1.181733496486250812e-02 2.408858552142951418e-03 1.119862873488632060e-02 -1.206188596015237997e-03 2.823253649984846028e-02 6.768610912878412177e-03 2.376913501537421258e-02
-1.240416761984810580e-03 2.612660003990753196e-02 -2.328297111897538116e-03 2.460805746281330419e-02 -5.600745143927467889e-03 2.244329469504703981e-02 -1.048997957863642000e-02 2.081772714538624933e-02 -1.475338613043205606e-02 1.911839187141724933e-02 -1.658441575383560670e-02 1.756134916036863544e-02 -1.611445067798457018e-02 1.497765356336234338e-02 -1.429769470578826952e-02 1.264414640529500609e-02 -1.206903994829918239e-02 9.104150123506318110e-03 -1.228334625372131013e-02 6.204433900676347390e-03 -1.392722984197546782e-02 3.759791997172886539e-03 -1.441354244912006373e-02 -3.164882869281904996e-05 -1.627315460947416012e-02 -2.266811485253200989e-03 -2.009096374427991882e-02 -4.074107447248556321e-03 -2.220775941770061768e-02 -5.792378751765733802e-03 -2.311872691624952680e-02 -8.771464164063822941e-03 -2.459191241503616565e-02 -1.454737769411346832e-02 -2.366854482250442537e-02 -1.969633761720305035e-02 -2.502523441817227495e-02 -2.320286160297480374e-02 -2.500103604101108073e-02 -2.218677847492927027e-02 -2.080751162302148238e-02 -1.840129926076550931e-02 -1.458830599582417072e-02 -1.274755786715279886e-02 -8.169598370219657152e-03 -8.165814909045016751e-03 -3.932021627056427895e-04 -3.675935317110087721e-03 7.773565872248765912e-03 7.368688977586870586e-05 1.458348664952488494e-02 1.302380295223147261e-03 2.030948655863049762e-02 1.867359057204715216e-03 2.409298642472892243e-02 7.929370170314476102e-04 2.498272815067093672e-02 -8.860434446617852441e-04 2.458133832144969444e-02 -3.053958421741516122e-03 2.547362524652717342e-02 -5.536839700049559984e-03 2.689229387744674835e-02 -7.244884330612662293e-03 2.941716721665390416e-02 -9.925919309840439825e-03 4.791281829151852051e-02 4.446876478826568280e-02 3.976386116748337196e-02 4.309301038037574583e-02 3.065240200872907175e-02 4.049973108417639217e-02 2.200952538130871231e-02 3.416628362055098428e-02 1.398704118360287289e-02 2.539664161826263311e-02 1.239662988282182535e-02 -7.370306286417709074e-03 6.118405112243281881e-03 -1.796813031294302795e-02 1.342186375505682741e-03 -2.887375784585628422e-02 -8.387484324385353386e-04 -3.922218346650423876e-02 -7.647651177928188344e-04 -4.924462643754826813e-02 5.129058139523148818e-03 1.051291868239054815e-02 3.136991285732583859e-03 3.190987817263780685e-03 1.232947585977644958e-03 -4.599336141257790063e-03 -1.322400694688393016e-03 -1.236597591367406476e-02 -7.655460800997083114e-04 -5.682222338406902988e-03 -8.359328802468752109e-03 -6.254985722679295111e-03 -1.540766679393002110e-02 -9.891951056676799928e-03 -7.876142282185860655e-03 -1.376531766005583378e-02 -2.808353929774572385e-06 -1.573588508871450950e-02 2.895871234601197705e-02 5.183384195412797657e-02 2.137613488526341268e-02 4.490240487657452817e-02 1.788268423192472187e-02 3.296417734562191032e-02 1.562114278743889119e-02 3.100167200787666208e-02 2.189979066205750835e-02 3.912053187842868401e-02 2.728081004045455199e-02 4.799432476171493211e-02 1.006625385954436000e-02 -8.549389300139546150e-03 3.507363588952803514e-03 -1.537119884926959473e-02 -2.833615320870386950e-03 -3.050782946881295046e-02 -2.403725819330489958e-03 -3.424297448075392519e-02 3.906928335417394864e-03 -3.009026405748728775e-02 1.030523664683716777e-02 -1.675734228522624339e-02 4.107300492161959637e-02 4.679453932971915781e-02 3.208541072132748556e-02 4.345444195479133270e-02 2.371014860496619900e-02 3.597993838866264671e-02 1.526644994546198265e-02 2.736427120017707881e-02 1.404470372966316882e-02 -9.755104528314628709e-03 7.875041862871271989e-03 -2.044215353408990188e-02 2.746279037490669331e-03 -3.178518814401014303e-02 1.494490428211651912e-04 -4.040748038908256734e-02 1.834445534920662799e-02 3.861943128085709026e-02 2.519123946319618002e-02 4.416387201850593275e-02 2.223174681797181196e-02 4.100203967417410250e-02 -7.787454960529282925e-04 -2.467692366358853126e-02 8.289727056373211861e-03 -2.378004918741824167e-02 3.588040156650723015e-03 -2.319927971708624082e-02 1.034775195693760259e-02 2.068075531600116826e-02 7.791267938578753938e-03 9.253373979742389932e-04 -9.316275708902372948e-04 -3.152294064432222074e-03 5.581731541451985827e-04 -1.684427491322224024e-02 1.306527974094207241e-03 9.890975361248085899e-04 2.676539008437631151e-03 -2.143669572836133519e-02 6.869169772669081117e-04 1.577710143658784744e-02 -1.398524876941520043e-02 4.860294362874217899e-03 -1.958597346791438737e-02 -7.732375089808405169e-03 -2.213923733395992827e-02 -1.344269852203955513e-02 -2.409530625628928530e-02 -1.495628975243233974e-02 -2.855458854751607295e-02 -1.745553892996197509e-02 -3.146741026919352979e-02 -1.822585363086151600e-02 -3.198171659778761139e-02 -2.538199465500763641e-02 -2.797298763162924320e-02 -2.715207142024417264e-02 -2.338973412707452681e-02 -1.985608331424014092e-02 -1.261439696458394912e-02 -1.061963830364942921e-02 -5.444166208930621351e-03 1.545039829471263598e-03 4.613794112809899118e-05 1.099555230010264111e-02 -1.388737585921413428e-02 7.722555687794475975e-04 -2.496568431728573775e-02 -1.078695954143072712e-02 -2.838897313145502532e-02 -1.750545665587770541e-02 -3.036639665616388054e-02 -1.891641887051962248e-02 -2.958606118042772168e-02 -2.343556188633699050e-02 -2.614443041207766688e-02 -1.769673393116336785e-02 -1.162983609676001943e-02 -6.799713023033913083e-03 2.211726256247404862e-02 4.121351438388168309e-02 3.961437531814489960e-03 -2.340468944084835370e-02
-3.360079709772875213e-03 -3.479514480922631103e-02 -3.341763177038949238e-03 -3.278465783679865991e-02 -6.612683979765534605e-03 -3.033536655083102218e-02 -1.111288094594465627e-02 -2.805420069444121769e-02 -1.424044935990213465e-02 -2.575074650807450058e-02 -1.133705993305814813e-02 -2.318112834809955142e-02 -3.931680228706804260e-03 -2.324101729891365695e-02 7.201112662113010217e-03 -2.283678317657739446e-02 1.853524018649332222e-02 -2.447750911878533719e-02 2.571888485520329795e-02 -2.461498309692576950e-02 2.718228039679249433e-02 -2.121073249816070316e-02 2.582157816572025477e-02 -1.545772390680817676e-02 1.957786775208336660e-02 -6.030317703072335909e-03 1.228193500865130440e-02 5.322926243043953412e-03 8.049275492967250187e-03 1.808346691514669397e-02 6.932284217206121507e-03 2.791607063689785853e-02 9.910624586606534003e-03 3.133022712046660413e-02 8.762307304013401688e-03 2.712642698730432372e-02 6.196793355434924468e-03 1.691819237498614487e-02 -4.133988785065429990e-04 4.789275304892585093e-03 -9.212881496297856132e-03 -6.033368016522049244e-03 -1.792066592506326439e-02 -1.404843029925681441e-02 -2.299280236392830731e-02 -1.997334526811116867e-02 -2.650074910957657404e-02 -2.307587524932103867e-02 -2.542089861137789009e-02 -2.253068673058760199e-02 -1.871549751738885159e-02 -2.111729576760770083e-02 -1.088291075497819019e-02 -1.799216086802112383e-02 -5.116237476593206782e-03 -1.691783553791122510e-02 -2.650558268581469906e-03 -1.586177512948623233e-02 -3.035065909440040621e-03 -1.565043180587360333e-02 -5.642763266653226702e-03 -1.586050896364296289e-02 -7.372404980565609549e-03 -1.532934692738599156e-02 -6.981997877945770106e-03 -1.493698703812223506e-02 1.224580609322926776e-02 2.079925544238960585e-03 1.584718488391280086e-02 7.191048070364590254e-03 1.206212090990578523e-02 2.059446752707343870e-02 7.001319553164826216e-03 2.634612442879107064e-02 2.842826738691154372e-03 2.661766534904280376e-02 -3.525307301138694369e-03 2.149537004476813687e-02 -1.340515599948111179e-03 2.333818328604010672e-02 -1.510508837519875750e-03 2.085956680021034890e-02 -1.526004266672795033e-03 1.192693344396574158e-02 4.368604114320560720e-03 7.525231460223620779e-03 -7.212899136463731854e-03 3.060910144086249896e-02 -1.076301860544927325e-02 5.316538741227567165e-03 -1.359045466462849294e-02 -1.943594160623372119e-02 -1.667991922986237704e-02 -4.399250248430582738e-02 -1.070655253342662344e-02 -5.438647250613572182e-02 -1.377419394174092711e-02 -5.242803604901817571e-02 -1.500301437357535322e-02 -5.146016933309396219e-02 -1.297943048424282306e-02 -5.336829485607431922e-02 -1.098880726614517855e-02 -5.381188186225414199e-02 3.091874447319520065e-03 2.932484348829933821e-02 4.012060382124810545e-03 5.329806543940222158e-02 -6.112167096612866092e-03 4.561728936975351784e-02 1.811585777136628808e-03 1.925539089847369198e-02 2.596747994345224592e-03 1.998230496312207796e-02 3.997649241172169729e-03 2.243811511627836694e-02 -3.230894807919252980e-03 1.671239100882702597e-02 1.115779271208567139e-02 4.493060307912876555e-02 4.383561952516087067e-03 5.460620784917540743e-02 7.055137528548861316e-03 2.864574563344500849e-02 2.163588895446641892e-03 2.153028803424552814e-02 -1.098080971625463005e-03 1.675546672514454175e-02 1.387958707415932330e-02 9.409824752904654213e-03 1.141980249603851208e-02 2.000183720079623528e-02 7.606419527787459250e-03 2.662993770284423703e-02 3.007810177054015630e-03 2.933449211451278488e-02 -5.944339553863146192e-03 2.206952507536537669e-02 -3.254701950763272834e-03 2.150292085694209890e-02 -1.515027250441895474e-03 1.772217750069675704e-02 3.980653923097086087e-04 1.100283206691113867e-02 -1.772664274025340797e-03 5.972881109101672858e-02 3.068539753208598259e-03 1.986086636850010329e-02 1.450923615840173358e-03 3.368652400413015002e-02 1.008248030581298388e-02 6.073828806392051610e-02 3.703705059673289808e-04 1.815120494013799587e-02 4.010640545349632852e-03 3.288378751698319696e-02 -2.756349981405878391e-03 2.511854477423035303e-02 -5.060142403249800851e-03 2.379734789311788862e-02 -1.292446249224219433e-02 -4.823803357577535755e-02 -1.011276550875961182e-02 -4.795139151930663535e-02 -1.193480456431621033e-02 -5.266472842814513139e-02 -8.628695013049423115e-03 -5.330568903252194679e-02 1.524875057053796338e-03 -2.252327358059818749e-02 -2.705170610114485119e-02 -7.585223537372207114e-02 -1.504378119597486393e-02 -9.524528383818928190e-02 -1.330742844129993718e-02 -9.993113885657517459e-02 -1.161508854185215600e-02 -9.640172304202836162e-02 1.910757981710258652e-02 -8.387717654793676314e-02 2.165291333807434215e-02 -2.553960796836535901e-02 4.820112046527355587e-02 4.493936522702574043e-02 4.447465449367464518e-02 1.020813543325030798e-01 1.114159553535607611e-02 1.213798427142401409e-01 -1.854717030468628139e-02 1.007189226300322510e-01 -2.052835019879775680e-02 4.522148473690208725e-02 -4.499989686231094764e-03 -2.528957015077221843e-02 -2.167146351162220139e-02 -8.338441474447379209e-02 -1.187746652925763050e-02 -1.060523033105739144e-01 1.633078652915153847e-02 -8.952207939890516331e-02 2.841895619156337496e-02 -2.745464172237993203e-02 4.003433349545947734e-02 8.144640934168462243e-02 9.072864485564702958e-03 1.140754074958782172e-01 -1.626799107240579911e-02 7.770821248259214553e-02 1.397317882651633123e-03 3.350958154548968476e-02 3.909194726412611870e-03 3.302226434182210790e-02
3.370609811633968472e-02 9.037272113660796413e-02 3.783040555295003743e-02 7.265957813122746189e-02 4.065181434912639585e-02 5.491296316015426004e-02 4.477899556397776926e-02 3.864181971792159803e-02 5.178193215044667175e-02 2.095546628511402859e-02 6.313718875337089032e-02 2.095083467388506558e-03 7.461129056510634738e-02 -1.893488788632521902e-02 8.109625978174168914e-02 -3.494582398934491935e-02 8.113598872668956186e-02 -4.923430996671593340e-02 6.054145752567254013e-02 -5.242457452354810227e-02 3.269205203347539529e-02 -4.524824642455381463e-02 1.589549835112790549e-02 -3.717124881620642585e-02 -1.318455963186350097e-02 -2.400197894186918701e-02 -4.333365216329138764e-02 -5.770010810652877187e-03 -5.181637005094136272e-02 6.667298683965277965e-03 -5.332224864375203349e-02 9.500897967332607580e-03 -6.242298499674790030e-02 -2.291387322856546817e-03 -6.262329863211664460e-02 -1.704253491836080908e-02 -7.914731854287142265e-02 -2.525035114027247146e-02 -9.545421913765612942e-02 -2.850322594197569892e-02 -9.882491668458780187e-02 -2.549367757694466496e-02 -9.297006509756636228e-02 -1.981881332872311233e-02 -8.706907386104438540e-02 -1.141504169975317458e-02 -6.614150378597444258e-02 8.573393281869248327e-04 -3.939080800340151456e-02 1.297708205834692367e-02 -1.740055213337334331e-02 1.682839446133447062e-02 2.408855950551342176e-03 1.650464343727449726e-02 1.491024683339578667e-02 1.358423684987378373e-02 2.038700881508350923e-02 5.909095923967205323e-03 2.245104900526364439e-02 -1.291653026725530671e-03 2.371275187824397473e-02 -6.512920261849348795e-03 2.376041322704320127e-02 -1.553310511434614558e-02 3.108260919198996622e-02 -2.245053189991844111e-02 -7.318816157082931595e-02 3.607020848335139307e-02 -7.518007856187521043e-02 -1.563656226625967632e-03 -5.937130201240767291e-02 -1.098491567156152648e-02 -3.809910627496792407e-02 -5.972118940360458990e-03 -1.383639123330105553e-02 1.020069773694439776e-02 -1.519088457345659122e-02 4.437924896608166220e-02 -2.782712296531179158e-02 3.149391312488286632e-02 -3.550427027817098374e-02 1.885499972137717750e-02 -3.700899687886238104e-02 1.384828071336928305e-02 -2.712105360581506391e-02 1.139594216608415733e-03 1.672610420780052537e-02 -2.061386990582542871e-04 5.756181010968931117e-02 -2.552492619706578109e-03 1.027381165056261009e-01 -5.906079936171549846e-03 1.438375133370914383e-01 -8.481528983194161833e-03 9.774737432123782599e-02 6.830632580412016736e-03 7.492595846099601997e-02 1.186729027379979269e-02 5.348617330180242130e-02 -1.201600911944275454e-03 7.908992952510709995e-02 -5.875050444260157025e-03 1.010771423693629795e-01 -9.289749724359176730e-03 -5.067196135840727061e-02 6.545859740492630113e-03 -3.871521885229880361e-02 -9.215719086350143002e-03 -5.307202503309500427e-03 -7.328936960436723512e-03 2.927126773897896993e-04 1.176750134275373998e-02 -8.788530183975540658e-03 2.373393648841995440e-02 -3.953160181325242328e-02 1.766337109048174078e-02 1.256180832443379997e-02 5.747675537275209398e-03 7.415237749052767599e-03 7.308711887132085527e-03 -1.097673766097078708e-02 -6.006025454659336994e-04 -2.410282343742595548e-02 -4.321096807873283860e-03 -1.206893174921734938e-02 -4.604833053796380561e-03 9.803216031014893792e-03 -6.985646555958381632e-03 -7.254737299637531445e-02 1.778123968842911309e-02 -5.727677976499957052e-02 1.233204156894209501e-02 -3.626384821651779805e-02 2.139180555037688627e-02 -1.271736043122829139e-02 3.557250537966914761e-02 -1.043609095447981146e-02 2.937892170001425024e-02 -2.409228159702928376e-02 2.802193621288941519e-02 -3.279412693631639231e-02 1.955238022279464499e-02 -3.361522055985156215e-02 1.036855966098028034e-02 -2.061177170195696920e-02 -1.146373175169749375e-02 -2.545954990281104266e-02 2.342138660615773402e-02 -2.339963901749841230e-02 6.138286827487647590e-03 -1.891002021200513051e-03 2.123456338742907117e-03 -1.235541400814724666e-03 -5.458598864824615836e-03 -2.541051173591611038e-03 -1.156755379669849359e-03 8.164818840949448001e-03 5.693042541972902042e-03 1.569869081796448906e-02 2.380789728737793976e-03 9.815197176881224062e-02 8.523762072063961401e-03 1.044947577515343423e-01 -2.050173155608769199e-02 1.084017109717153593e-01 1.795255135840947633e-02 1.095302882847507542e-01 -2.682492019320535312e-02 -4.856052437515712833e-02 -3.754266373082253139e-02 -8.068717369270127920e-03 -3.672338575419945711e-02 2.944112266245521928e-02 -2.524472618176077168e-02 4.086340152934932884e-02 -1.811276907866603281e-02 4.071935178824187540e-02 -6.006211649061585743e-03 3.058108313866647263e-02 -1.285547994154503839e-04 1.284541348348610529e-02 -1.384410356638196039e-02 1.962247602740648921e-03 -1.263438894781156695e-02 -2.063437980119897566e-03 -7.590832114240802196e-03 -1.533550360195547364e-02 1.759475877735754449e-03 -3.268970149655402169e-02 5.564977824585073431e-03 -5.209352433090391060e-02 -1.000427836716336928e-02 -4.732452673388531234e-02 -2.976917664617301576e-02 -1.482565351356004632e-02 -1.972541726301713788e-02 8.233084443288556792e-03 -6.765149216272504061e-03 9.645693238377167286e-03 2.407835112008526249e-03 9.869262518804993931e-03 -1.456371570185310306e-02 -1.196760722625454625e-02 -1.492921087035397817e-02 -3.066986514244658332e-02 -1.053853776980380984e-02 -4.237020020181225810e-02 -8.732221362379378321e-03 -2.319183190496262870e-02 6.775140283333421637e-03 -2.473200545632244732e-03 -5.268283681829475816e-04
-5.446975075721395554e-02 1.381910809951054572e-02 -5.012622006425925675e-02 1.127109548648312122e-02 -4.344098793857703589e-02 8.094633713093110985e-03 -3.625246750765938331e-02 5.470001837843997683e-03 -2.993757636860914020e-02 1.343295579270956932e-03 -2.408755841385294347e-02 -3.859332907079638438e-03 -2.124415911976030788e-02 -8.937428023675622960e-03 -2.107508400038929364e-02 -1.413526280660588712e-02 -2.485098625542389583e-02 -1.669016916490720370e-02 -2.976502969720585395e-02 -1.637059659718863650e-02 -3.171533588054509245e-02 -1.824840667822071744e-02 -2.521745843420675898e-02 -2.735666788147106745e-02 -1.521978154284671717e-02 -3.902838006062842036e-02 -3.059749962462032877e-03 -5.222360755067862598e-02 6.605203253424136306e-03 -5.746201582035888322e-02 8.743879758062109153e-03 -5.483681109790120023e-02 6.817222438114639571e-03 -4.907537057745695042e-02 7.296378767315167199e-03 -4.071953010928065081e-02 9.221479054071654580e-03 -2.802431661666076809e-02 1.995912974034467699e-02 -1.159221061312230849e-02 3.557945798366891205e-02 3.792438210839981731e-03 4.871444773213751828e-02 1.587210264571218069e-02 5.556786045009824010e-02 2.210056841952508233e-02 5.542129038635255217e-02 2.094527840744482561e-02 5.302083694911984696e-02 1.621093568740061136e-02 4.510858861095028149e-02 1.106821486941057461e-02 3.975107347497793681e-02 6.053851300549174808e-03 3.614979020408765065e-02 2.364011317534008266e-03 3.502223794144445485e-02 -1.870953628342997277e-03 3.501180863530046344e-02 -4.633423969900538585e-03 3.742762644235914787e-02 -6.887802385906327020e-03 4.087457929118424454e-02 -1.002928694537878057e-02 4.443016605467844937e-02 -1.238510939534424177e-02 -2.324651684535939192e-02 -4.598177661308641001e-02 -2.298078811646000336e-02 -2.836721350429036864e-02 -1.949880599408824328e-02 -1.169737255221069312e-02 -1.782544482894683410e-02 5.319789260181236046e-03 -1.858975763340764420e-02 1.722903276639631276e-02 1.768104287166430075e-02 2.595456906598894026e-02 -4.687467675303714706e-03 1.542966740202458137e-02 -2.263263979322159558e-02 -4.297417007467527889e-03 -3.440029121055923622e-02 -2.937959648187091904e-02 -4.238932212830879426e-02 -5.809311730626990494e-02 2.055553634271774233e-02 -1.094011628739330853e-02 4.009225620555670333e-02 -2.278096093313223755e-02 5.844281972338614961e-02 -3.660601959009610051e-02 7.435917865219242306e-02 -5.220170212503263268e-02 8.263794898479542850e-02 -5.455461370827544010e-02 5.519676514527172007e-02 -5.832062858696743929e-02 2.831009811694429681e-02 -5.540981359723428507e-02 1.238592631801709552e-02 -3.982267074508791249e-02 -1.313277505003016682e-03 -2.131504635943643963e-02 -2.266041568483015411e-02 -2.356154548912152424e-02 -2.353652237284233062e-02 -4.135350911803465507e-02 -1.181910698307876185e-02 -3.179835924087190402e-02 -1.684077844559978346e-02 -9.895111825313458037e-03 -1.827223002795405962e-02 -5.764144653445993187e-03 -2.340962358629733453e-02 -1.511580928134216573e-02 1.042984689906316376e-02 4.599111002798130128e-03 -2.051668059208557309e-03 -1.183563705362612739e-02 -9.423242737592065627e-03 -1.799395470163345570e-02 -1.863375340380154371e-02 -4.638762072952533930e-04 -6.835930718436267553e-03 6.778549100402249047e-03 5.680325769754917750e-03 6.867867922310003266e-03 -2.299414768844895360e-02 -3.377620200252859362e-02 -2.013272621407323493e-02 -2.217635883866995311e-02 -1.943837882168880649e-02 -5.516361535420686094e-03 -2.074998443315826183e-02 1.009259374823615225e-02 1.913835457131470366e-02 7.833646411746844618e-03 -2.030084938119636369e-03 -1.644607180617180687e-03 -2.271554420724878134e-02 -1.514122352522473056e-02 -3.517795916326933031e-02 -3.613343267763913930e-02 -1.768566767938870715e-02 -4.499569472220933675e-02 -2.168146377861008417e-02 -8.167700504314789542e-03 -1.949334822576258286e-02 -2.315786266054428721e-02 -7.266443468033475725e-03 -2.246203877083890327e-02 3.835314911135446862e-04 8.924853786624506805e-03 -4.019479345192894515e-03 -3.541130187766438221e-03 2.234552458472310356e-03 -1.057044458503074609e-02 1.574500494926296679e-02 -2.811295088130257979e-03 9.362876429764947772e-02 -2.150505880720463697e-02 8.855912423131748895e-03 -3.194539344682575163e-03 1.057434861347996691e-01 -3.720099476750969580e-02 -1.060264121536313130e-02 -3.756615901469291183e-03 1.534001435216844345e-01 6.303898783958029883e-02 6.883537377389806200e-02 2.395198798006771199e-03 1.277842118254259550e-02 -2.302564220723846491e-02 -1.027424689390599166e-03 -1.842556974600795955e-02 -1.770685179500388826e-02 -5.054022130467880451e-03 -9.312633745395326734e-02 6.225978217300066897e-02 -1.974000706866004262e-01 1.561425545723605091e-01 -1.284280604440957985e-01 1.334812895303733593e-01 -6.180163660071733706e-02 1.165420225459319892e-01 -1.673271955452693355e-03 1.018141524489061256e-01 4.316321394624253460e-02 8.622066516119000767e-02 9.552281726931773076e-02 7.064134092725783687e-02 1.426257331991546418e-01 5.123751701375894863e-02 5.542476281354583034e-02 -4.245344323949862449e-03 -9.891899691942660292e-03 -7.209720344870717244e-03 -9.159937942105157715e-02 4.016714828844399759e-02 -1.898306303505279402e-01 1.354504400476065906e-01 -9.721878739119188539e-02 1.097725849480386540e-01 -3.045517838745921864e-03 9.426079912338641842e-02 6.780839862389027861e-02 7.158568785550778468e-02 -1.970117079784300743e-02 -2.334004680575532328e-02 -4.043593072485885190e-03 -3.550061685349545099e-03
2.287199377052088079e-03 5.685736288665827615e-02 1.147352639435666143e-02 4.981993578514520155e-02 1.798787621859167588e-02 4.261629216814224325e-02 2.726043954164105235e-02 3.361252968457949936e-02 3.831456298026299917e-02 2.630510843804274856e-02 4.893911223131607729e-02 1.607888524241431888e-02 6.168222584626487787e-02 6.812953444319785022e-03 6.991737287282163982e-02 -3.569190869029035228e-03 7.410654787422821244e-02 -1.630181643608194855e-02 7.808141929030494588e-02 -2.899305726759058427e-02 8.158381077498655376e-02 -4.355921719494042915e-02 7.961673651703676802e-02 -5.485089578702247864e-02 7.737721331774116695e-02 -6.741651492843019067e-02 7.366836758149010456e-02 -7.852431097233514290e-02 5.893251569976203780e-02 -8.476479693045978203e-02 4.436563286864823180e-02 -8.839340746954686689e-02 3.168874737434106137e-02 -9.023758606079497480e-02 1.201601775020849465e-02 -9.232183225177396924e-02 -6.121192190837928919e-03 -9.484290002667289388e-02 -2.728795023425766714e-02 -9.490679937120653775e-02 -4.654638114174743102e-02 -9.095365316303805070e-02 -6.237717021209778639e-02 -8.524959001562772143e-02 -7.325621975787922902e-02 -7.657780352079736341e-02 -8.642908505435233091e-02 -6.793259894781544794e-02 -9.763753786832644888e-02 -5.434305681413841016e-02 -9.725620643772439622e-02 -3.677407674488228362e-02 -9.089622593050630806e-02 -1.603776808384421715e-02 -7.961007159777891418e-02 4.602194503675964207e-03 -6.562177020451587239e-02 2.623381497957953321e-02 -5.235287369741151858e-02 4.576487304705838255e-02 -4.145806923334033334e-02 6.493482196600114387e-02 -2.904137816492331770e-02 8.201239728697955200e-02 -1.994691778688396575e-02 1.010128102448150655e-01 -4.240547121266266539e-02 5.592353737526486318e-02 -3.121696901579301686e-02 5.558922396693000145e-02 -1.740856405857140257e-02 4.249539936390122480e-02 -1.442221656609043653e-03 4.645070541542988679e-02 1.036989843628544246e-02 5.965423819143159112e-02 1.059337603060492468e-02 6.175916514806377433e-02 4.627830350304526497e-02 5.087929199974149802e-02 8.299869523251691972e-02 4.953861350838008326e-02 1.173581526911860878e-01 7.015693813226442366e-02 1.327401221259834063e-01 8.476829190647779122e-02 -2.384206623271850276e-02 -2.769250029049130993e-02 -4.499159641935131237e-02 -3.222192722981793989e-02 -6.282501586478930755e-02 -3.612389915111213073e-02 -8.019457622336591263e-02 -3.891254382631845199e-02 -4.381521649834436288e-02 6.145305655178013617e-03 -4.437133409043141768e-02 -6.307870268837181826e-04 -4.038692146394969734e-02 -2.189101546372960311e-02 -4.551375770164906021e-02 -7.580237288687350153e-03 -5.629673611330195809e-02 -1.240330568086344711e-02 -4.939831879644516338e-02 9.321761732568226155e-03 -5.172843782600933249e-02 -6.654698100716861624e-03 -3.726970390146032430e-02 -1.425959707676031397e-02 -3.447700122179448573e-02 -5.501163254978372504e-03 -3.764598980528838235e-02 -2.664525946753505507e-03 -4.639476176577671251e-02 9.421692283698438614e-03 3.563965199424021929e-02 -1.919717499418210210e-02 4.919890454165605498e-02 -3.051630419340013375e-02 8.809210477231767256e-02 -2.685646000776328868e-02 9.882878824241171645e-02 -1.248531951664669758e-02 8.317568322570631500e-02 -6.913858216155542406e-03 5.023466933985699934e-02 -1.355516414739419209e-02 -3.369704689762126337e-02 4.476016410676621898e-02 -1.978984544711734697e-02 4.150296248120582260e-02 -4.465850060245692491e-03 4.769677818933508451e-02 8.764841581493697589e-03 5.609621624411467722e-02 1.077530400191726787e-02 6.965504830815461013e-02 4.471596493619337670e-02 5.994819456096094762e-02 8.235382611966929334e-02 5.240693852851369822e-02 1.151990539365178867e-01 6.449974045915389531e-02 -4.486285093348436892e-02 -1.440225776862624416e-02 -4.126543935179507322e-02 4.792391845153922553e-03 -4.253161321528971944e-02 -1.943921077319929686e-03 6.962010202334012465e-02 -3.184748474369451104e-02 6.639472184454353609e-02 -8.313152459588028093e-03 6.800053147036708157e-02 -1.883023177917646923e-02 -2.970486215349194686e-02 -1.631898675213601033e-02 5.144510974037791104e-03 -2.356585783425318298e-02 -5.689647968433582392e-02 -3.912877857918994895e-03 -6.162736934113567655e-02 -1.514743134255654503e-02 -4.128917133100200310e-02 4.639926506297613155e-03 -6.718539351781648017e-02 -1.359614559781583375e-02 5.907672835518720106e-02 6.226435331112124827e-02 1.715688826251818636e-02 4.150079630531177538e-02 -1.800415485254665965e-02 1.937785363004009042e-03 -2.658131125882566212e-02 -7.052821013263310505e-03 -3.094380787568327615e-02 -1.315549753486639807e-02 -5.119779728175771760e-02 -6.653621372738447934e-03 -6.447035217928262507e-02 1.152317873773956542e-03 -3.860933116949984145e-02 -4.212995349045973309e-03 -1.326858146015231533e-02 -5.711512030519646024e-03 1.158363559754784985e-02 -5.293656017485754914e-03 3.661557015906231893e-02 1.031657250179209874e-02 5.208456301547446932e-02 3.722943432342839393e-02 6.210053084619224228e-02 5.303867907998242176e-02 2.556529831960830529e-02 4.387906275416533775e-02 -1.199660468746576239e-02 1.981587581925716574e-02 -4.347852606510270446e-02 1.317870524814097541e-02 -6.727319110258089818e-02 2.628456314003131591e-03 -3.445395343309857333e-02 -3.792922778477682277e-02 8.329727411075463911e-03 -4.685868793172265345e-02 4.662577286985904873e-02 -1.348299584195302749e-02 -4.229524397729305524e-02 -2.261500617480749313e-03 6.839991383235467792e-02 -1.854528167733752661e-02
6.658346845179737017e-02 -6.481236422605313185e-02 6.934871209390018609e-02 -5.786745938106491877e-02 8.167826060796778975e-02 -5.338009051299762164e-02 9.904067901504000349e-02 -4.948452153112969931e-02 1.109286210593900535e-01 -4.172951749776111774e-02 1.022896136086829250e-01 -3.577167612725602047e-02 7.538574234941716745e-02 -2.263585122203109340e-02 3.481266989741996914e-02 -4.851969774519099277e-03 -9.603920333485237854e-03 2.039304286030466443e-02 -3.655152149824114627e-02 4.323901023607350930e-02 -4.896282393086848900e-02 6.006862649407737620e-02 -6.196265112966262839e-02 8.093335271583602941e-02 -5.153816337596209274e-02 9.041076907168874022e-02 -2.647489047423181099e-02 8.926349432800542716e-02 -5.012061601096472023e-03 7.788962659289411228e-02 1.175662934783925674e-02 6.203785995084543786e-02 1.871533295161192240e-02 5.422405696781314871e-02 2.029005366130083587e-02 4.743171228040297949e-02 2.279811058740642202e-02 4.375801261540850084e-02 2.542820914475870872e-02 3.736816271036604714e-02 2.442062283459020544e-02 2.544487054952360508e-02 1.765364821384578925e-02 1.208289963321476472e-02 1.207420437887354175e-02 -3.143327458784557667e-03 5.599175646698094887e-03 -1.684867949219350305e-02 1.959919455131725781e-03 -3.164496326475453591e-02 -8.330679003724328693e-03 -4.087199672745949613e-02 -2.254886355438262199e-02 -5.106179152974749808e-02 -3.384119949094257368e-02 -5.861909489967497000e-02 -3.943785333821924616e-02 -6.235641575990655966e-02 -4.053749003856968458e-02 -6.829875641991264845e-02 -4.039604314782521688e-02 -7.333601108754812803e-02 -4.103046081371280324e-02 -8.064900767394980741e-02 -4.842292661242197926e-02 -8.560891563022100803e-02 -9.180412364658575852e-02 4.832962755565432117e-02 -7.572334962239009315e-02 2.537025371213629671e-02 -4.687613942503322806e-02 -1.345042705319336208e-02 -1.091903013453555081e-02 -5.247482180676796976e-02 2.973514396573815124e-02 -8.531763394724142802e-02 1.068628788948252674e-02 -6.219641823648056067e-02 2.447043324841743916e-02 -1.721201755023381644e-02 3.029896412998915600e-02 2.377595867880511957e-02 2.754784767887302407e-02 4.733756415087223696e-02 9.479058340034193786e-03 5.957077432223295554e-02 2.587968389945026135e-02 -1.016229763028489962e-02 2.361311834432803028e-02 -3.505148149865632001e-02 2.179484782009567800e-02 -5.669674876367758465e-02 1.930333256158360197e-02 -7.484182973703944197e-02 -1.073552075909494155e-02 -3.168775963685036001e-02 1.772060193985478330e-02 -6.021007759744993054e-02 3.585869237694492423e-02 -5.742696690094865192e-02 3.067257725143565650e-02 -5.437999704503578696e-02 2.103742957066829372e-02 -5.737135577227977373e-02 9.586465368414341312e-03 7.534105596444788666e-02 9.151983104515240899e-03 1.723455292748171663e-01 -4.535698683797927816e-02 9.321162259472591527e-02 -5.143336477800068696e-03 -2.916929677146917754e-02 1.253347795390961396e-02 -1.604992645479469057e-02 3.005397586631766704e-02 2.806126207206596779e-02 3.768672844688784190e-02 -2.802038415682990904e-02 6.530351907334551453e-02 9.380302059089976052e-02 2.861332819426961466e-03 1.648237338378532313e-01 -2.711717947280984763e-03 6.568102680975455854e-02 -1.221803628152770896e-02 3.079138128768537860e-02 1.339221070336141760e-02 -2.108029014646362661e-03 -7.426014377582322579e-02 2.952998022693002073e-02 -4.619569118839641358e-02 -7.646597342552511299e-03 -7.954802278988249570e-03 -4.784092321881908833e-02 2.949732736865141869e-02 -8.735339886444772051e-02 7.049198703651926232e-03 -5.007315988841209292e-02 1.859327980248107540e-02 -6.991383368311961978e-03 2.565128685767441297e-02 4.051951488526240458e-02 1.997479370511419036e-02 6.447292771918047838e-02 -2.733471758607755597e-02 1.779857651087616288e-01 2.719336013514768793e-02 2.025869672159910976e-05 1.133019143259583750e-03 6.455298741061450685e-02 4.171834644550118099e-02 1.808643894740531444e-01 -1.061359922659922640e-03 1.075084107312876402e-02 1.888856530649319146e-02 6.504442903129978304e-02 1.055171762130297820e-02 -1.994301482762454378e-02 3.098475052760884391e-02 -1.888384110232652763e-02 -1.783787779073356741e-02 -5.699910906848745795e-02 2.404608326361722809e-02 -6.786402016765091805e-02 -1.743792140318927569e-02 -5.067234256827250066e-02 7.368523490640863094e-03 -6.657511104399994883e-02 1.256777883417032476e-02 4.572644936103611307e-02 3.268882686998829390e-02 2.868895649328615308e-02 2.168719863121160857e-02 7.013383797462445675e-04 1.592802043812710858e-02 1.433441647204070253e-02 1.300193898754389149e-02 -6.908479900033977390e-03 -7.611381324755657485e-02 1.558437288072974302e-03 -1.595403806540003355e-01 -7.694571511493908302e-04 -1.327055658799695670e-01 -5.073682106833075217e-02 -7.574184066966171969e-02 -7.602687040644520722e-02 -1.315812337025710696e-02 -7.450763317203254466e-02 1.266974313475663187e-02 -3.637701281041505474e-02 1.453078097721781543e-02 9.499951331096030335e-03 1.667765704335538030e-02 2.844361405260669232e-02 3.106431709339181613e-02 2.877304517028357253e-02 2.282394537796461967e-02 4.343279255095758989e-02 -7.159557028956284319e-02 2.121110390204876753e-02 -1.643933501827303800e-01 -4.436910197632837685e-03 -9.850971593620545808e-02 -1.076068417350569129e-01 -5.799170045999037237e-03 -1.075702381959559584e-01 2.033654076351798165e-02 -6.516999379890103805e-02 1.344651724953084418e-03 6.270638256145653899e-02 1.832943269812700726e-02 6.583005296971865261e-02
7.613637706985218467e-02 1.552236763746691825e-02 5.896297040732719624e-02 1.658227473751855766e-02 6.195037021052084147e-02 1.684939801045049618e-02 6.835769652629002102e-02 2.141439787530300537e-02 6.640845912683270014e-02 2.155232574770650847e-02 4.097112234338206455e-02 2.477461786716625425e-02 -7.813063492372616719e-04 3.757434558747614617e-02 -4.804566989238532454e-02 4.795867716451786972e-02 -9.921327264150123226e-02 6.804078964962222142e-02 -1.207258740445396328e-01 7.530159640548116096e-02 -1.296918225064795094e-01 7.427504148642173620e-02 -1.505723643126916922e-01 7.533055757398832153e-02 -1.409188464110867345e-01 6.640068555377408310e-02 -1.208480775884524516e-01 4.676240209748468851e-02 -1.173626956901076407e-01 8.725848684706527178e-03 -1.091612360317127106e-01 -3.032653221707352215e-02 -1.115897193754403632e-01 -5.124264294320068219e-02 -1.138976790515146553e-01 -7.335723460669198170e-02 -1.191818304787669175e-01 -1.056981534245454990e-01 -1.206341127349585124e-01 -1.322488558268778425e-01 -1.206238073395774490e-01 -1.363962676697310639e-01 -1.168714275827023169e-01 -1.257664135250214366e-01 -8.899203715199409392e-02 -1.042989430689088420e-01 -5.817914494914910861e-02 -7.942470119567611453e-02 -2.102551451121028106e-02 -6.119802105793937380e-02 2.723216646448730141e-02 -3.590904150739584327e-02 6.962234694017738201e-02 -1.957079635078393456e-02 1.001182098635299972e-01 -9.409134285705533438e-03 1.195147996982621752e-01 -4.774195373559845558e-03 1.248960007275858458e-01 -2.442276476018627462e-03 1.256889554335243187e-01 1.433648473082440396e-04 1.361518437792005598e-01 5.392967496281114541e-03 1.445966390840969507e-01 5.652392169006700134e-03 -7.203496869694796245e-02 1.570519057922124123e-02 -6.757731082164712688e-02 -5.000464968651393075e-03 -3.553724919723506848e-02 -5.448203983469569744e-02 -4.689642524699713308e-03 -8.945148516341129563e-02 2.123212605813604159e-02 -1.100056761995769627e-01 4.805747860265336541e-02 -5.927273974914851890e-02 2.329450726021369683e-02 -2.583668379359545415e-03 -3.948468612845362248e-03 5.364205064675454243e-02 -5.125487582110976187e-02 8.459377992438443794e-02 -9.870672435279932710e-02 9.145314699125180191e-02 7.683743046517889190e-03 -1.199488041954068114e-02 -4.113019652801492426e-02 5.327773170156172196e-03 -8.776665479430757755e-02 2.279270261138345577e-02 -1.194062143627208084e-01 4.018351830483717774e-02 -1.065961132380698895e-01 1.046810156131598307e-01 -2.565736347107828302e-02 4.953077780307738043e-02 3.577441063629289986e-02 3.070250872581252802e-02 -1.385339017440297008e-03 4.350210116992504414e-03 -4.780786869918409593e-02 -4.296052049833216924e-02 1.661519872527521952e-02 5.531146564515081188e-04 2.719935498652236577e-02 -1.275775042857535922e-02 2.460859622195431945e-02 -1.946391848403678307e-02 2.133375896394246879e-02 -7.104309267084300047e-04 1.674810423646173538e-02 -1.879172427607047474e-02 2.560765395019429583e-02 -7.426594678409534182e-03 1.283941688918930658e-02 -6.464467629825845774e-03 -2.544307527398767185e-02 -3.937634088733153043e-02 -3.493807023148260554e-02 -4.158434501427885760e-02 -4.224015544181818765e-02 -1.443852902437322595e-02 -2.735687260577683230e-02 -1.500452343272428574e-02 -1.212134551621891002e-02 8.151229167948928489e-03 -5.699069935153840138e-02 -2.924309337795222286e-02 -2.734347666745066269e-02 -7.589512046008294044e-02 8.054299292717012311e-04 -1.142700838808179409e-01 2.638151840327548556e-02 -1.398786316853661837e-01 4.810487079683288536e-02 -3.601091169680022130e-02 2.682467357381325412e-02 -6.929709866488435732e-04 -4.252475049557107034e-03 5.626127213153588741e-02 -4.858663854378875158e-02 9.391671295385974061e-02 2.585501194339377348e-02 -3.035331238540027454e-02 2.572337185328577719e-02 -1.488603154432022527e-02 2.283188903017046786e-02 -1.170336818704469789e-02 -3.302067415118081078e-02 -4.484181425733057419e-02 -1.786504051126217713e-02 -6.719901899480758452e-03 -2.122790609056105990e-02 -2.075655174924770363e-02 1.572835243526281637e-02 -7.215800069728253198e-03 6.964261734153738906e-03 -8.882093665741224928e-03 -1.185449075533348273e-01 3.853520109970390295e-02 -7.787074119453171739e-02 3.125865495069756264e-03 -1.617503747398139624e-01 7.401863321605497981e-02 -7.234508821995780381e-02 -2.124756766323904894e-02 9.173893675477173826e-02 1.529175457625014944e-01 1.196724085551987143e-01 6.436758265934902634e-02 1.306338108919284369e-01 -9.448616709438569428e-05 1.204691493368769267e-01 -1.703557827966951585e-02 1.229486089396767817e-01 -3.733886839558614446e-02 9.837118761804460043e-02 -8.426676302623997694e-02 2.195799953307145738e-02 -7.668426344697767960e-02 4.284573239313629878e-02 -2.470144838706947801e-02 6.644884676217920061e-02 3.999749162650348411e-02 6.378501352804126501e-02 1.035675276395535832e-01 6.833453420598563366e-02 1.475322276477430694e-01 7.150405980050632271e-02 1.615160561653426474e-01 9.666132172918481813e-02 1.365343345838452571e-01 1.254172569066943077e-01 2.631057880681540728e-02 1.531328922759770395e-01 -3.004703081788889438e-02 9.561864976055912957e-02 -5.944881940574114898e-02 9.624346943024582671e-03 -6.179444611901719481e-02 6.384257234648720025e-02 2.948303311063154783e-02 9.741381305836840920e-02 1.004021700487767732e-01 9.155883606896819682e-02 1.421438485139195351e-01 2.263965181614726804e-02 -1.170411559274174215e-02 -2.159994155647829844e-02 -2.084227409522217134e-02
4.321996628905432764e-02 -7.084878110819606278e-02 1.958436805577484785e-02 -7.274902445594229328e-02 1.561498591160601079e-03 -7.679718564557386218e-02 -3.998246105431836443e-03 -8.109944075349799497e-02 1.514703724174496738e-04 -8.421213991713324964e-02 8.665355041441764536e-03 -8.822705655061729990e-02 1.737334056177330596e-02 -9.625456918270525186e-02 1.697204715015576681e-02 -9.504147394868146803e-02 1.200006867193280889e-02 -8.684033825658053762e-02 -8.045416369207148907e-03 -6.764492705263341898e-02 -3.633771952309134551e-02 -3.579512156977128490e-02 -5.949314416963102925e-02 -4.702227180092400857e-03 -9.171732832689438730e-02 3.260470666251477634e-02 -1.143685979835850769e-01 6.543906275719951759e-02 -1.177930398025655995e-01 8.652447909944106785e-02 -1.046946379518969295e-01 8.953448894278459580e-02 -1.051250540496958125e-01 7.468466436085079152e-02 -9.738583088656239950e-02 5.873257009997367301e-02 -9.890502692989772138e-02 5.867742274634805272e-02 -8.843320787921810089e-02 8.077174173767762144e-02 -5.306184455769519942e-02 1.092653852697467870e-01 -1.727150594955652665e-02 1.221183003952938939e-01 -1.137637990782967672e-02 1.223103784508850489e-01 -9.474984320444338262e-03 1.166300513274479006e-01 -1.711967346222295627e-02 1.013328463485610870e-01 -4.181105495212907724e-02 8.692354499693863423e-02 -6.389427727297646020e-02 7.211794999383858151e-02 -7.505504242069287180e-02 5.551278778860747193e-02 -7.915832083490320636e-02 4.152810368833477483e-02 -6.260217704986331677e-02 3.212142078912932908e-02 -3.940801589800859567e-02 1.977400787006113395e-02 -1.297321237588168648e-02 5.347756673113738743e-03 1.072872247678728283e-02 -6.071933291156897915e-03 2.910229619190848535e-02 -3.037201993325914368e-02 1.633913618963075617e-02 3.173681567126475367e-02 7.627967621250160944e-03 7.028040030054247267e-02 -5.170448760344468174e-03 9.560550150182858808e-02 -1.613454228562656578e-02 1.123084182701706568e-01 -2.860854262095569381e-02 5.360457455963819201e-02 -2.367718703307799058e-02 1.047657143580634637e-02 -7.817967214998975539e-03 -2.335044293762766551e-02 1.201264250752484553e-02 -5.566358235513389069e-02 4.337924307442444366e-02 -1.193154572730697333e-01 -9.333819636894200023e-02 -1.111598636229084447e-02 -7.977127637014254369e-02 6.930611089275595963e-04 -5.360800435616584064e-02 1.567235547316438507e-02 -2.814496263111434388e-02 3.148635100561122946e-02 6.989723932584814003e-02 3.519659851234346187e-02 1.350758655041634122e-02 3.454688116710509516e-02 -4.982292728672077509e-02 -5.802986188911940339e-03 -4.842187073370704531e-02 -2.870620753750443080e-02 -5.065731365969836086e-02 -2.052020818065234536e-02 -8.541424975570555134e-02 2.081875441146625871e-02 -7.459770290494674438e-02 5.143206401027565489e-02 -8.336278890121232021e-02 4.761118664127991784e-02 -8.231714704104321767e-02 1.371426194257236754e-02 -7.420082731894289685e-02 2.616090035005007308e-02 -8.046785903623297764e-02 2.626274794019139991e-02 3.541382491562425783e-03 -2.714366588264556512e-02 2.271921116210124866e-02 1.273797388456347074e-02 -5.118654022999228649e-03 1.480995449049073327e-02 -1.914223116013432507e-02 -2.443668828782663213e-02 -1.807391927544088617e-02 -4.121541948208200246e-02 1.255899893398929263e-03 -4.822750107313288070e-02 1.793740818236546145e-02 1.293280713377149317e-02 5.975257850632536075e-03 6.056314402508800737e-02 -8.275097975936437922e-03 9.095092628035644777e-02 -1.837507560096016124e-02 1.052114000789077103e-01 -2.345990773092474294e-02 1.686212689153422650e-02 -1.766950251351027262e-02 -1.616186212705186462e-02 -4.615545066015082701e-03 -6.409825735111011891e-02 1.713839355414961338e-02 -9.738086270214675599e-02 -7.668618992774338394e-02 6.964457483705494001e-02 -7.638648475498799328e-02 2.748249707559317911e-02 -7.987573986409847449e-02 3.572301167104449671e-02 1.119296319384737760e-02 2.300419106782819120e-02 -6.969364447057474835e-03 -4.822688267795939565e-02 -1.143428120108120217e-03 -1.726801052911654949e-02 -8.735001714673876205e-02 2.250934708649260808e-03 -4.658296137658844011e-02 -1.809883950857666193e-02 4.451805162521194764e-02 7.511355143845334370e-02 -6.179937338089940002e-02 1.617762874546272225e-02 1.078696956225289744e-01 6.534677005292416352e-02 -6.442090720615543942e-02 -1.993239886442198586e-02 3.452318201878433745e-01 -3.650921394368924350e-02 1.946052287080857479e-01 -3.563910286867400662e-02 6.631361733244205137e-02 -4.764340960462655483e-02 4.606003395927710242e-02 -4.342560308616432579e-02 1.089363937808619960e-02 -2.328982958295097369e-02 5.045381118331465631e-02 -2.817785955462132064e-02 9.572838552554571723e-02 -4.138953787557012737e-02 8.960118206193228019e-02 -5.302387630541289393e-02 6.790602690129544927e-02 -9.149350754658928941e-02 6.565083036264961203e-02 -1.114380818254028238e-01 1.716667713702732245e-01 -1.143174190349490332e-01 2.708840917131261072e-01 -9.074321457486239639e-02 3.474747256469394308e-01 -3.702839070610927652e-02 1.738664210583225067e-01 -4.843696660803383652e-02 2.048564485837195068e-02 -6.062866871442147698e-02 5.939555050300930616e-02 -5.954991159191093397e-02 1.115561170966685306e-01 -5.189631653167704750e-02 7.404928141073978398e-02 -4.033133335302625105e-02 5.278356564612320112e-02 -6.884634818147798707e-02 2.010834490816826858e-01 -8.983092848753647386e-02 -7.827771411623644926e-02 3.528967982652364554e-02 -5.855998177871408637e-04 -1.679135588376201582e-02
2.915270711759531883e-02 7.840807471170632009e-03 4.097859545891437832e-02 1.130182836189163979e-02 7.636236536165096067e-02 1.042592773893456261e-02 1.229140507438460511e-01 9.653567362967234444e-03 1.531104114086278278e-01 9.364519304960619225e-03 1.391791747667593393e-01 1.195373282738803125e-02 9.377418325336051019e-02 2.508044953441811165e-02 2.884452240153661737e-02 3.975520445134313879e-02 -4.317209550794114808e-02 6.777804302808443371e-02 -7.239778390162029953e-02 8.689114963959432281e-02 -7.633231559165684632e-02 8.934874571794146347e-02 -8.244160290757239495e-02 8.959664437176310947e-02 -4.120822774274543465e-02 6.080509849839677711e-02 2.313017454266929826e-02 1.505032601568993302e-02 4.176496328406220648e-02 -2.222472058038076764e-02 4.024108511320553805e-02 -3.690150094787275625e-02 3.458894817014931261e-02 -2.150798004042829212e-02 2.820355290631518935e-02 -9.398515494528093470e-03 3.333259587231961196e-02 2.911874659405859836e-03 4.848997269101229524e-02 1.108491433547798000e-02 6.076892787923992428e-02 2.355394758023785992e-02 6.384557664208150018e-02 2.353418422940542140e-02 6.510124245368706375e-02 1.929592127992621822e-02 5.120230604583145967e-02 3.908729492274165551e-03 2.328716707572362973e-02 -1.494511042127842464e-02 -5.500415522462740424e-03 -2.508516898943928194e-02 -3.486703753090353297e-02 -3.382492868742180414e-02 -5.650590203977733095e-02 -3.340760374942237931e-02 -6.366953337758893272e-02 -2.934513648346090756e-02 -5.557151215624231422e-02 -1.868984941115956963e-02 -4.823872828810963492e-02 -1.176078669622961613e-02 -3.488804344124053075e-02 -1.085132161142278624e-02 -4.688267911867493448e-02 -7.278788726347556332e-04 -6.459597470783869089e-02 2.825825137931825548e-02 -2.211327189452150579e-02 1.015487480889257499e-01 1.236738693865642447e-02 7.526349811298403691e-02 4.263917314864481417e-02 6.445227901816361071e-02 6.917298104050950691e-02 6.686891719775391041e-02 2.692878640486922812e-02 5.457716927072667201e-02 1.838410172739557424e-02 3.935098781262722639e-02 7.316625986189984922e-03 3.964021178575378307e-02 -1.203980039781668739e-02 3.709707248216199266e-02 -3.864008907548978355e-02 8.358397591642666657e-05 6.360067063404037380e-02 7.074084067916945086e-03 4.331551231954435671e-02 8.533483631646601730e-02 2.060433715214438424e-02 1.698763988261916547e-01 -3.915518611546605666e-03 2.534881691814517279e-01 8.093044342793039025e-02 1.270846478394469514e-01 8.818472579270045242e-02 8.651071502092586019e-02 7.558862923593698269e-02 1.119637368014391038e-01 -1.514950960108519748e-02 1.239727090304013485e-01 -1.124780432613151498e-01 1.239086398873880668e-01 -1.726187215047820731e-02 -2.253202094500138600e-02 -9.703624991874937322e-03 -6.296351376766183561e-02 -8.412818828460236903e-03 -2.564515630454686224e-02 -2.239131140973914594e-02 1.299936167604537167e-02 -2.754386898272167747e-02 -1.820008019231549382e-02 -1.760716086200952990e-02 -2.771558508176490132e-02 3.130081396940846694e-02 3.220568211088942201e-02 -5.911724459510798481e-03 -4.516240789446956255e-02 3.380931661159038842e-02 -9.347576461558365635e-02 3.660037889373204262e-02 -2.460482504229935877e-02 4.169887727454516663e-02 1.243444012265475240e-02 2.700824702605135463e-02 5.053026977934520908e-02 -2.681823922935733934e-02 -2.082526676922913725e-02 8.382865590540303918e-03 -2.907132591377427355e-02 3.638987358018591634e-02 -1.769162809010823775e-02 5.990242628466761060e-02 -7.417265068625283550e-03 2.606323901607128860e-02 3.694850795655040682e-02 1.728421315913921189e-02 4.670138955456700630e-03 6.020648087502039440e-03 -1.728411385758694616e-02 -1.294733767873507135e-02 -3.101918029410268354e-02 -7.023631187472797067e-04 -7.192058470226141143e-02 -2.037619373832760122e-02 -2.842370410277661116e-02 -1.684558768372021106e-02 -2.825131807257445088e-02 3.216617287539280320e-03 -9.627817388866974357e-02 3.739429053489454896e-02 3.261433442751454637e-02 2.481079955605438453e-02 -1.692629993473785538e-02 2.230753792085757303e-02 9.600531995746513711e-03 4.277571609285547166e-02 2.172925160774411696e-02 7.418907285547096664e-02 2.145741509271461289e-01 -1.054176167000265285e-01 2.345876012896148388e-01 7.701527781407414841e-02 1.400749202422091610e-01 -1.586187559750417697e-01 1.804481346264960040e-01 -4.177647112914076311e-02 -1.541160939419791154e-01 1.559123357030952305e-02 -1.817616751610561798e-01 6.962832453952914891e-02 -1.703320770700480491e-01 8.352848993549016887e-03 -1.698219842813730174e-01 -3.781919766171267655e-02 -1.678366957214569299e-01 -1.032995223312973970e-01 -1.686262718965503560e-01 -2.015818036069184360e-01 -1.007076325041242476e-01 -1.279310228523770077e-01 -6.353106535072357286e-02 -6.577667913295549840e-02 -3.685896210114420618e-02 -1.789234949796341539e-02 -2.497308377164796089e-02 -4.658809985567334555e-02 -2.837068049787714111e-02 -6.522589917939441984e-02 -6.728775217018069521e-02 -6.097060934618233480e-02 -1.589122761711067588e-01 -1.160313918410668145e-02 -2.484871446952972851e-01 4.292580280960243966e-02 -2.534081203441831964e-01 -5.906348167204851507e-02 -2.079132728460170443e-01 -1.864968369156928818e-01 -9.905504741517889844e-02 -6.109613051603272893e-02 2.213305624608393959e-02 1.740627220509144771e-02 5.659267424922045236e-02 -4.834136646887524785e-02 2.420865641697984502e-02 -1.535201814110834229e-02 -3.067726024062426837e-02 2.456533930559078385e-02 -1.512453282320714090e-02
1.322487746061132841e-01 -2.727411946880162197e-02 9.466270331288184625e-02 -3.603406811400045040e-02 8.748653155739664899e-02 -4.590237153199426545e-02 1.046204373430135032e-01 -6.026625320631336102e-02 1.221253453403605554e-01 -7.311925313239449331e-02 1.003755538591869501e-01 -8.406898394276830777e-02 4.442934608009412728e-02 -9.171540588269697092e-02 -3.415165456121879717e-02 -8.016991621748513486e-02 -1.116382895934016350e-01 -5.600029216584584413e-02 -1.601577420884736092e-01 -3.957802548846423019e-02 -1.679669133448875307e-01 -3.489550977982074087e-02 -1.675493201912294783e-01 -3.899339031490917790e-02 -1.224191661061063835e-01 -7.257575542450099559e-02 -3.555867096567525559e-02 -1.295536148701949275e-01 2.619740071101742812e-02 -1.856253322850105192e-01 5.386820726247814467e-02 -2.493528538952547724e-01 3.833363630562446750e-02 -2.812633220384224142e-01 1.952352327337631560e-02 -2.759239329675504671e-01 8.237588399277181311e-03 -2.174049899004078801e-01 2.565226818533626954e-02 -1.288428699328851845e-01 8.119644497504870106e-02 -2.570403256073917203e-02 1.339380727582171193e-01 4.239094112317506879e-02 1.463792957047137244e-01 8.558240373102235510e-02 1.506227465960169598e-01 1.106382260873347151e-01 1.211913866551512509e-01 1.056973324792671726e-01 4.865138085207084545e-02 9.436494135386652715e-02 -2.942460066288820481e-02 8.284258054733700805e-02 -1.005420713723261944e-01 7.480292900072955942e-02 -1.501086238023427999e-01 7.652292213665301546e-02 -1.545537085826858836e-01 8.897201002326160513e-02 -1.344245045490117252e-01 1.029891257953669675e-01 -1.028965604966979169e-01 1.107713398816236317e-01 -8.268462308529636595e-02 1.254734047285175069e-01 -2.232223216024688955e-02 1.782383913267870379e-01 -2.667826603940257751e-02 2.013140069060045112e-01 -1.035503813611070301e-02 1.260839157436742519e-01 1.567291959427768652e-02 5.651366345840564548e-02 5.814350946018447680e-02 -1.024185753983390332e-02 3.944205307667585092e-02 -6.511715721095774623e-02 3.110357431803647058e-02 -4.571466925410599957e-02 2.582886475175272950e-02 -1.146488959034111001e-02 1.120860829599700675e-04 1.401366468418562168e-02 -2.511529604571574245e-02 -1.662756568780778682e-02 -9.626206402773718890e-03 -8.406148582595807106e-02 1.486822688287003230e-02 -6.354806887221541023e-02 4.517278453153292239e-02 -3.486961553008383063e-02 7.260353084194152984e-02 2.230686952117286442e-03 6.028552125213126889e-02 3.255998705223392409e-02 5.377223575048849236e-02 -4.068917627163291112e-02 1.372678402907804608e-02 -4.318778568472165375e-02 1.625523223417413635e-02 -5.769168963254517335e-02 1.943990305055095028e-02 -3.998771885042362237e-03 -1.992845349310893438e-02 8.126172871471630532e-02 -1.759916677161840054e-02 1.855010017429183367e-01 -1.083255090635712875e-01 7.734393333564133777e-02 -8.233371758125783424e-02 -7.966425433901287712e-02 -4.003167331841451376e-02 -6.145043656851428837e-02 5.996805026463351493e-03 -4.906481082356167756e-03 2.507815398141360202e-02 -1.316372881099285852e-01 3.070232732928259226e-02 2.319124075115614782e-03 -7.760999983549073111e-02 7.213082033182635633e-02 -1.075877150495844897e-01 -3.355559622260106262e-02 -1.025770334203338907e-01 -9.659517201609621462e-02 -2.666131138561217764e-02 -1.298800511111885270e-01 -2.019773187947387916e-02 1.128631379251025663e-01 -5.406168830762965623e-03 6.487660921995287711e-02 2.300420284245800404e-02 6.028073055996645800e-03 5.459889722221385189e-02 -5.426010606808925885e-02 3.395080879924367717e-02 -1.043263698130600658e-01 2.611141256847525002e-02 -8.896541321865902852e-02 1.799028985457926458e-02 -6.213765278522813407e-02 2.780100727184240859e-04 -4.194374838186332166e-02 -7.094337882421940245e-02 1.892303301146537053e-01 -8.725639771670498646e-03 -4.906738951811483174e-02 -4.563783740576407566e-02 4.514195867075406626e-02 -1.857901088262784578e-02 8.598862964134139364e-02 -6.279284987477491697e-02 -1.279239483356087448e-01 -4.279562315848821352e-02 -4.523486250201200903e-02 -4.451552105278968469e-02 -8.284488696939143471e-02 4.706615675003134915e-03 -1.063861635864004895e-01 5.056967037244397556e-02 6.706287401983149210e-02 -1.743487882704157759e-03 1.092709388238203780e-02 6.643786568197652953e-02 5.378766253402485209e-02 1.812128356534059223e-02 -2.954421545848376525e-03 -1.576418946641347518e-01 2.161674698577629311e-02 -5.993522343925943019e-02 4.224914049394393883e-02 1.383815579420323051e-02 3.780265145509608543e-02 1.067451000586749736e-02 7.483236141282870180e-02 -4.092170853518986399e-03 6.744513894331675974e-02 4.617457582908383179e-02 5.939052245611340514e-02 1.425657584278334500e-01 5.299734466868687155e-02 1.252764080936294711e-01 7.855741242063865593e-02 8.636244704779964809e-02 7.556948542886905706e-02 4.750702521715951393e-02 6.405203599776823631e-02 -5.295532614736551957e-03 7.723843419015599676e-02 -8.100056538150547658e-02 5.934652986092627674e-02 -1.518246186059521996e-01 3.017505509451653620e-02 -8.182354411158541951e-02 8.756948459114663463e-03 9.816536268243147151e-03 1.549278440626473963e-02 7.961689348079038775e-02 2.648244867839744804e-02 1.620594270878312482e-01 6.302843613347375307e-02 1.080750121895610316e-01 1.452812636278690839e-01 4.467953109089999736e-02 1.314100401659679951e-01 -6.341140307217243977e-02 1.176524667978254279e-01 -4.196448391209494505e-02 4.281680116260247471e-02 -4.090492639201108449e-02 -4.357793294342774543e-02
-1.661439519130988862e-01 6.469352425126088935e-02 -1.382196582331863544e-01 6.227762788704426650e-02 -1.223741775857591363e-01 6.894630782747578068e-02 -1.044416723760241417e-01 6.437919435286336423e-02 -8.789562177931908860e-02 6.075365864164197771e-02 -6.426038635428824031e-02 5.787229424549447665e-02 -2.583830317525755843e-02 4.830866442080718193e-02 1.858106257238078748e-02 2.780468363289051101e-02 6.241938940425099946e-02 6.418401355065406558e-03 8.584720380725682776e-02 -1.340098387652180652e-02 8.775745673802444469e-02 -2.055738933838051341e-02 8.276222853597056672e-02 -2.004789970110372119e-02 5.524654765885386731e-02 -7.086194065941586913e-03 3.370584707921905898e-02 1.960968051756994956e-03 9.919476325298224109e-03 6.094043660311869361e-04 -8.663660906205936790e-03 2.164621733327290205e-03 -1.362785399829866302e-02 7.523309488001114070e-03 -1.520799479604641874e-02 2.489607382823471465e-02 -8.454902791712390342e-03 2.938054093930817651e-02 -1.363090007035710517e-02 2.592624165863487151e-02 -2.908390569846605600e-02 6.506701255238172762e-03 -5.770893338683608792e-02 -2.365236166102710827e-02 -6.952745347596385461e-02 -4.098151526510607212e-02 -7.088486798187702831e-02 -3.780703291990229753e-02 -5.361925017907388791e-02 -2.716516698840163238e-02 -1.230315957942331243e-02 -1.130046141581624551e-02 2.922833500342627774e-02 3.139258879318710532e-03 6.810391085135512890e-02 7.554914356674353494e-03 9.296589352294315489e-02 1.059885883248245717e-02 1.168271528576739354e-01 8.548072140633475660e-03 1.301029464778704070e-01 6.818607506482051578e-03 1.374297348806440278e-01 3.879891649615108129e-03 1.437181126887544513e-01 1.287586730364551459e-03 6.556132097692551897e-02 -7.678190708554646915e-02 1.324846268985160058e-01 -5.348779767625060078e-02 1.433460895116120959e-01 -2.247540191981284297e-02 1.576393193696709605e-01 -5.753701979078166412e-02 1.762537980705254637e-01 -1.242467319639007639e-01 -1.745249548045242349e-01 -1.420890702426830243e-01 -1.516952973852909448e-01 -6.739499888750971612e-02 -1.326732456289169693e-01 -2.697711243633251627e-02 -1.214985080605903850e-01 -6.093123673537806373e-02 -5.466691038496790389e-02 -9.704732041085073480e-02 7.795803425595311184e-03 -9.693292851979611047e-02 9.777152146259340468e-03 1.764812766969271751e-02 6.610765988579707896e-03 1.414379255725007889e-01 6.516525596214758562e-03 2.590941401059331795e-01 -5.813103772722220258e-02 1.014953022027587221e-01 -2.875749508515465513e-02 1.402769022573264468e-01 1.335405296504741171e-02 1.778749394380261251e-01 3.564932914954313525e-02 1.439606158246849454e-01 6.015317148365097871e-02 1.213977217598303515e-01 -7.675009771781188261e-02 -5.031500070801455532e-02 -7.404899371571677102e-02 2.165843766542099591e-01 -2.243066610249000170e-01 6.931545449068363118e-02 -1.348420223819378483e-01 -2.359167614608846941e-01 -1.098864072650862361e-01 -2.785837967097916645e-01 -4.534440795274726627e-02 -2.027562150376754635e-01 1.324973806289172218e-01 -2.168928120371507173e-01 2.360867393511844048e-01 9.106168419463103736e-02 1.022966663430159434e-01 2.541671057187723237e-01 1.086311915835205394e-01 -5.980472187391878622e-03 5.687879741454371363e-02 -1.611334491430639337e-01 9.996489838290589791e-02 -2.487950635183564796e-01 1.267130477704397351e-01 2.628786958274778596e-02 1.474934774699784290e-01 5.948599271482337553e-02 1.626744469552861283e-01 1.984259711316678845e-02 1.856194167637528758e-01 -3.605764989724508790e-02 -1.905392825430201054e-01 -5.567576543234196290e-02 -1.623365034358123793e-01 6.771962390477088457e-03 -1.412815347880581884e-01 5.427161446828889652e-02 -1.229789059182107985e-01 1.886620224027012876e-02 -1.687975763667022566e-01 2.612612332494790301e-01 -7.362753145356649986e-02 -2.737108959645649930e-01 -1.143042531760067732e-01 -6.022409249195422726e-02 1.900608810970061957e-01 2.921224965849580357e-01 6.871212367161468049e-02 -2.359182004992475268e-01 1.268426927697100248e-01 -2.806424630649345317e-02 -6.314294767321633473e-02 -1.683377541676362721e-01 7.056412490484852140e-02 -1.576025966216172969e-01 -4.921965249003024817e-02 4.379632020214641736e-02 7.169458484799114129e-02 6.883189552529328514e-02 -6.486589919239056645e-02 6.829738394904755205e-02 6.365268067015554532e-02 8.390887624046662607e-02 1.900797033207666381e-02 2.328185112719471581e-02 -1.491259973726468541e-02 -4.529501061110834115e-02 -2.007986800744375466e-02 -1.824258513281365804e-02 -1.479637372298527910e-02 -2.601188178552971131e-02 -4.802509386062167422e-03 -2.463534450556640817e-02 -8.140423521083071587e-03 -3.517842341806286244e-02 -4.029571082607462384e-02 2.339750663279453746e-02 -2.775392633295428041e-02 3.876631691341576175e-02 -1.916703134104942585e-02 5.354130969804515167e-02 -2.466039799064660698e-02 5.155525780669320546e-02 -2.199027433077408236e-02 5.298309248363768098e-02 -8.578994229810394181e-03 4.290339924681794287e-02 4.316572850946625954e-03 2.731597667410418789e-02 -2.045462641926588769e-03 -1.312584776001863435e-02 -1.194784370530283836e-02 -1.843426770440871956e-02 -2.768131380583609483e-02 -9.604662147507263270e-03 -3.911703546663779923e-02 1.887233426848916942e-02 -3.246477547320765489e-02 1.071002700576328959e-02 -2.503840356423009048e-02 1.349157736248086242e-02 -8.748775417418436923e-03 2.391399888669967083e-02 -1.152766291274593263e-01 -5.950402611107498407e-02 1.244230004181075405e-01 -2.712584957354072235e-02
